
\data\
ngram 1=23
ngram 2=192
ngram 3=647
ngram 4=1264

\1-grams:
-1.326172	0	-1.20137
-1.289543	1	-1.151501
-1.340297	10	-0.6971356
-1.322711	11	-0.7157102
-1.244105	12	-0.6981798
-1.336722	13	-0.7756525
-1.358624	14	-0.8886718
-1.286361	15	-0.8897425
-1.280067	16	-0.8050382
-1.261714	17	-1.055524
-1.280067	18	-1.052533
-1.401893	19	-1.026057
-1.267746	2	-1.166549
-1.336722	3	-0.7699667
-1.267746	4	-1.076041
-1.362384	5	-0.9036179
-1.309139	6	-1.042621
-1.3512	7	-0.6912233
-1.326172	8	-0.950631
-1.347535	9	-0.8618585
-1.715512	</s>
-99	<s>	-1.036197
-2.10086	<unk>

\2-grams:
-0.4012679	0 0	0.3538435
-0.2911965	0 1	0.04273081
-2.117271	0 2	-0.08872654
-2.117271	0 3	-0.08026832
-2.117271	0 4	-0.1432423
-1.64015	0 </s>
-0.9248871	1 0	0.3391201
-0.5642715	1 1	0.2566108
-0.310238	1 2	0.2896008
-1.377185	1 3	-0.3042832
-2.155336	1 5	-0.2329142
-2.155336	1 9	-0.1635681
-1.854306	1 </s>
-2.123852	10 1	-0.2979823
-0.7814289	10 10	0.3826125
-0.532787	10 11	-0.4066637
-0.8228216	10 12	-0.02819419
-2.123852	10 17	-0.2167091
-2.123852	10 3	-0.2977523
-1.64673	10 5	-0.2287976
-1.424882	10 6	-0.1434221
-2.123852	10 7	-0.1999238
-1.220762	10 8	-0.1391269
-0.8685791	10 9	0.3816566
-1.822822	10 </s>
-0.8611255	11 10	0.1818436
-0.7085153	11 11	0.09848642
-0.5835766	11 12	-0.04522753
-0.7781513	11 13	0.3314599
-2.139879	11 14	-0.06744283
-2.139879	11 17	-0.1206599
-2.139879	11 4	-0.1432423
-2.139879	11 5	-0.2329142
-1.838849	11 7	-0.1738584
-1.838849	11 8	-0.4399216
-1.098486	11 9	0.2965643
-1.838849	11 </s>
-1.135663	12 10	0.04467043
-1.100901	12 11	0.02649289
-0.4666558	12 12	0.055143
-0.6350603	12 13	0.1116172
-0.9595714	12 14	0.1331221
-2.214844	12 15	-0.07819532
-2.214844	12 17	-0.1206599
-2.214844	12 3	-0.2977523
-2.214844	12 4	-0.2491578
-1.737723	12 6	0.01277432
-2.214844	12 7	-0.1999238
-1.612784	12 9	-0.2702243
-1.913814	12 </s>
-1.169609	13 10	0.1715437
-1.123852	13 11	0.4128804
-0.9477604	13 12	0.1814201
-0.6766936	13 13	-0.02741605
-0.4903832	13 14	-0.2470889
-1.123852	13 15	-0.3667088
-2.123852	13 16	-0.1931246
-2.123852	13 17	-0.1206599
-2.123852	13 5	-0.2369921
-1.822822	13 9	-0.231833
-1.822822	13 </s>
-2.09691	14 1	-0.2979823
-1.79588	14 10	-0.1900156
-1.318759	14 11	-0.2025436
-1.39794	14 12	0.2094488
-0.950782	14 13	-0.1526101
-0.6819367	14 14	0.003488183
-0.3809067	14 15	0.1783127
-1.19382	14 16	0.05551732
-1.79588	14 8	-0.2231432
-1.866287	15 10	-0.04641005
-1.866287	15 11	-0.2615214
-1.322219	15 12	-0.2538726
-1.021189	15 13	0.2487904
-1.053374	15 14	0.1981848
-0.6759557	15 15	0.2005891
-0.3964653	15 16	0.1838815
-1.389166	15 17	0.2162084
-2.167317	15 4	-0.2981443
-1.866287	15 </s>
-1.875061	16 10	-0.2706
-1.69897	16 11	-0.07496473
-1.39794	16 12	-0.1916963
-1.875061	16 13	-0.2340832
-1.221849	16 14	-0.1309767
-0.79588	16 15	0.1461281
-0.6575773	16 16	0.2150093
-0.4202164	16 17	-0.1128502
-2.176091	16 5	-0.2162085
-2.176091	16 7	-0.2976763
-2.176091	16 9	-0.2473451
-2.184691	17 11	-0.2064739
-1.883661	17 12	-0.1032195
-1.883661	17 13	-0.1314209
-1.485721	17 14	0.01772881
-1.070748	17 15	0.3444957
-0.7533277	17 16	0.4279031
-0.4686881	17 17	0.2589373
-0.551223	17 18	0.2552724
-2.167317	18 13	-0.2944496
-2.167317	18 14	-0.2940251
-1.468347	18 15	-0.3117298
-1.167317	18 16	-0.1003706
-0.8248947	18 17	0.4742919
-0.3222193	18 18	0.1716822
-0.7201593	18 19	0.1461281
-1.866287	18 9	-0.2908108
-2.049218	19 11	-0.2649546
-2.049218	19 16	-0.2253093
-1.748188	19 17	-0.169417
-0.6690068	19 18	0.4269547
-0.1799863	19 19	0.1407332
-1.748188	19 7	-0.2942966
-2.049218	19 9	-0.294244
-1.39794	2 0	0.4360301
-1	2 1	0.4372497
-0.49485	2 2	0.318759
-0.4126633	2 3	-0.2052072
-1.221849	2 4	0.04384428
-2.176091	2 5	-0.1370272
-1.39794	2 </s>
-1.822822	3 0	-0.257477
-1.3457	3 1	0.4477658
-2.123852	3 12	-0.293012
-1.009908	3 2	0.7723991
-0.6766936	3 3	0.1152514
-0.3995758	3 4	-0.3626024
-1.082459	3 5	0.2265439
-1.822822	3 6	-0.1056336
-2.123852	3 7	-0.2439915
-2.123852	3 8	-0.1329666
-1.521792	3 </s>
-1.877947	4 1	0.106118
-2.178977	4 15	-0.07819532
-1.333879	4 2	0.3750308
-0.9485281	4 3	0.1907984
-0.5162191	4 4	0.03700477
-0.5557277	4 5	-0.241434
-0.7987657	4 6	-0.1201923
-1.576917	4 </s>
-1.6163	5 1	-0.4637573
-2.093422	5 12	-0.1865567
-1.6163	5 2	-0.03342372
-1.394452	5 3	-0.2065621
-0.8381492	5 4	0.5355241
-0.750999	5 5	0.5193904
-0.5023571	5 6	0.1508744
-0.8629727	5 7	0.03912693
-1.248324	5 </s>
-2.139879	6 12	-0.1196099
-1.537819	6 3	-0.1786236
-1.294781	6 4	-0.01623061
-0.9094301	6 5	0.5985715
-0.7419391	6 6	0.3127252
-0.4866666	6 7	0.01258916
-0.7419391	6 8	0.07019997
-1.361728	6 </s>
-2.113943	7 1	-0.009016812
-2.113943	7 17	-0.2167091
-2.113943	7 18	-0.02020335
-2.113943	7 19	0.1684045
-2.113943	7 3	-0.2563596
-1.511883	7 4	-0.5411824
-1.210853	7 5	0.356229
-1.034762	7 6	0.4866666
-0.6825796	7 7	-0.04139274
-0.5118834	7 8	-0.1058913
-0.9098234	7 9	-0.3900126
-1.335792	7 </s>
-0.8718323	8 10	-0.3067071
-2.127105	8 18	-0.02020335
-1.826075	8 4	0.0786064
-1.428135	8 5	-0.08073506
-1.085712	8 6	0.7754622
-1.085712	8 7	0.2637056
-0.6219548	8 8	0.2671949
-0.4936363	8 9	-0.2696215
-1.826075	8 </s>
-0.5665216	9 10	0.02348119
-0.7303784	9 11	0.1186898
-2.11059	9 17	-0.1206599
-1.80956	9 19	-0.007686824
-1.80956	9 5	-0.1318876
-1.156347	9 6	0.09066105
-1.11059	9 7	0.108191
-0.9344984	9 8	0.1059155
-0.8095597	9 9	0.2696477
-2.11059	9 </s>
-0.05912145	<s> 0	-0.3598498
-1.740363	<s> 1	-0.009016812
-1.740363	<s> 12	-0.1196099
-1.740363	<s> 2	-0.1335389

\3-grams:
-0.31627	0 0 0	0.098786
-0.4846744	0 0 1	0.1469333
-1.763428	0 0 2	0
-1.763428	0 0 3	0
-1.763428	0 0 4	0
-1.462398	0 0 </s>
-0.60206	1 0 0	0.3832167
-0.2596373	1 0 1	0.6532127
-1.30103	1 0 </s>
-0.60206	2 0 0	-0.1908145
-0.30103	2 0 1	2.980232e-08
-0.1760913	3 0 0	-0.1908145
-0.5228788	<s> 0 0	-0.0147233
-0.1804561	<s> 0 1	-0.06694651
-1.012234	0 1 0	0.30103
-0.6268836	0 1 1	0.1451421
-0.2445486	0 1 2	0.08945394
-1.857332	0 1 3	0.1249388
-1.857332	0 1 </s>
-1.166331	1 1 0	-0.2552725
-0.5642715	1 1 1	0.1383027
-0.3646991	1 1 2	0.2052494
-1.041393	1 1 3	0.1249388
-1.643453	1 1 </s>
-0.30103	10 1 9	0
-0.30103	14 1 5	0
-0.8016323	2 1 0	0.30103
-0.5797836	2 1 1	0.217484
-0.5006024	2 1 2	-0.1742071
-1.278754	2 1 3	0.1249388
-0.4771213	3 1 0	-0.2552725
-0.6532125	3 1 1	0.2284793
-0.9542425	3 1 2	-0.01659927
-0.60206	4 1 0	-0.1760913
-0.60206	4 1 2	-0.01659927
-0.1249387	5 1 1	-0.09691
-0.30103	7 1 2	-0.01659927
-0.30103	<s> 1 2	-0.01659927
-1.491362	10 10 1	0
-0.8893017	10 10 10	-0.1318876
-0.7132105	10 10 11	-0.009759814
-1.01424	10 10 12	0.251812
-1.491362	10 10 3	0
-1.491362	10 10 5	-0.07918122
-1.491362	10 10 6	-0.1760913
-1.190332	10 10 8	-0.09017661
-1.01424	10 10 9	-0.30103
-0.9208187	11 10 10	-0.2076083
-0.6197888	11 10 11	0.4673615
-1.39794	11 10 12	-0.2253093
-0.9208187	11 10 6	-0.09691003
-1.09691	11 10 8	-0.2284793
-0.79588	11 10 9	-0.4014005
-0.9542425	12 10 10	-0.3836996
-0.9542425	12 10 11	2.980232e-08
-1.255273	12 10 6	-0.243038
-1.255273	12 10 7	0
-1.255273	12 10 8	-0.2662679
-0.5563025	12 10 9	-0.2321487
-1.146128	13 10 10	-0.2568263
-0.845098	13 10 11	-0.1047353
-0.845098	13 10 12	-0.1583625
-0.6690068	13 10 9	-0.1335389
-1.146128	13 10 </s>
-0.60206	14 10 10	-0.2867895
-0.60206	14 10 8	-0.1870866
-0.60206	15 10 11	-0.2910458
-0.60206	15 10 12	-0.2833012
-0.60206	16 10 17	0
-0.60206	16 10 8	-0.2284793
-0.7403627	8 10 10	-0.08842188
-0.3424227	8 10 11	0.05238813
-0.8653014	8 10 12	-0.350248
-1.342423	8 10 5	-0.20412
-0.7781513	9 10 10	-0.002792925
-0.544068	9 10 11	-0.009759724
-0.6232493	9 10 12	0.07572079
-1.623249	9 10 5	-0.07918122
-1.623249	9 10 8	-0.1870866
-1.146128	9 10 9	-0.10721
-1.623249	9 10 </s>
-0.6892102	10 11 11	-0.1974894
-0.5295093	10 11 12	-0.005139649
-0.5295093	10 11 13	-0.1788841
-1.643453	10 11 5	0
-1.166331	10 11 9	-0.2088838
-0.6734159	11 11 10	0.1146387
-0.916454	11 11 11	0.1760913
-0.5642715	11 11 12	-0.09275401
-0.916454	11 11 13	-0.1898795
-1.518514	11 11 8	0.1760913
-1.217484	11 11 9	-0.1845244
-0.6766936	12 11 10	-0.1741568
-0.8016323	12 11 11	-0.1804561
-0.9777236	12 11 12	-0.2459824
-1.278754	12 11 7	-0.1760913
-0.9777236	12 11 9	-0.2466723
-1.278754	12 11 </s>
-0.90309	13 11 10	-0.20412
-0.7269987	13 11 11	0.04139268
-1.20412	13 11 12	-0.09275404
-0.90309	13 11 13	-0.241032
-1.20412	13 11 9	-0.1845244
-1.20412	13 11 </s>
-1	14 11 10	-0.2253093
-0.5228788	14 11 11	-0.1047353
-1	14 11 7	-0.1760913
-1	14 11 8	0.1760913
-0.60206	15 11 4	0
-0.60206	15 11 9	-0.1845244
-0.7781513	16 11 10	-0.2455126
-0.7781513	16 11 12	-0.2688453
-0.7781513	16 11 17	0
-0.30103	17 11 11	-0.1974894
-0.30103	19 11 9	-0.2747011
-0.8750613	9 11 10	-0.5797836
-0.8750613	9 11 11	-0.30103
-0.4771213	9 11 12	-0.09275407
-0.8750613	9 11 13	-0.05270639
-1.477121	9 11 14	0
-1.477121	9 11 9	-0.2466723
-1.39794	10 12 11	-0.2527253
-0.79588	10 12 12	0.3357921
-0.3565473	10 12 13	-0.2710668
-0.9208187	10 12 14	-0.03621221
-1.39794	10 12 9	-0.2340832
-1.322219	11 12 10	-0.1249387
-1.021189	11 12 11	-0.2775489
-1.146128	11 12 12	-0.2515446
-0.4191293	11 12 13	0.1858511
-0.6232493	11 12 14	0.03950852
-1.623249	11 12 7	0
-1.812913	12 12 10	-0.2498775
-1.511883	12 12 11	-0.2263964
-0.2218488	12 12 12	-0.4972487
-1.113943	12 12 13	-0.2498775
-1.210853	12 12 14	0.09066102
-1.812913	12 12 17	0
-1.812913	12 12 3	0
-1.812913	12 12 6	-0.2218487
-1.511883	12 12 </s>
-0.69897	13 12 10	-0.2632414
-0.69897	13 12 11	-0.1684045
-0.8239087	13 12 12	0.1896641
-0.8239087	13 12 13	-0.1064553
-1.30103	13 12 14	-0.2817248
-0.9542425	14 12 10	-0.2498775
-0.6532125	14 12 11	-0.1014576
-0.9542425	14 12 12	-0.2662679
-0.9542425	14 12 13	-0.2498775
-0.4393327	15 12 10	-0.154097
-1.041393	15 12 13	-0.20412
-1.041393	15 12 6	-0.2218487
-1.041393	15 12 9	-0.2340832
-0.5228788	16 12 12	-0.3484547
-1	16 12 15	0
-1	16 12 4	0
-1	16 12 9	-0.1549019
-0.60206	17 12 12	-0.2874572
-0.60206	17 12 9	-0.1549019
-0.30103	3 12 6	-0.2218487
-0.30103	5 12 13	-0.1529674
-0.30103	6 12 12	0.09691003
-0.30103	<s> 12 12	0.09691003
-1.491362	11 13 10	-0.2340832
-1.190332	11 13 11	-0.2108534
-1.190332	11 13 12	-0.1139433
-1.491362	11 13 13	-0.1845244
-0.3774183	11 13 14	0.2077541
-1.190332	11 13 15	0.1249388
-1.491362	11 13 16	0
-1.491362	11 13 17	0
-1.176091	12 13 10	-0.251812
-1.352183	12 13 11	-0.2108534
-0.9542425	12 13 12	0.1706962
-0.69897	12 13 13	-0.02482355
-0.5392691	12 13 14	0.1497623
-0.9542425	12 13 15	0.2340832
-1.653213	12 13 </s>
-1.531479	13 13 11	-0.2108534
-0.8325089	13 13 12	-0.005395025
-0.4522977	13 13 13	0.02632898
-0.6283889	13 13 14	0.3590218
-1.531479	13 13 15	0.30103
-1.531479	13 13 </s>
-0.7781513	14 13 11	-0.1383027
-0.7781513	14 13 13	0.02632895
-0.4101745	14 13 14	-0.07208642
-1.255273	14 13 15	0.30103
-0.7201593	15 13 10	-0.1760913
-1.021189	15 13 11	-0.3869447
-1.021189	15 13 12	-0.3802113
-1.021189	15 13 13	-0.1674911
-1.021189	15 13 14	-0.1760913
-1.322219	15 13 5	0
-1.322219	15 13 9	-0.1760913
-0.60206	16 13 10	-0.1962946
-0.60206	16 13 15	0.30103
-0.60206	17 13 12	-0.20412
-0.60206	17 13 13	-0.1845244
-0.30103	18 13 9	-0.1760913
-0.30103	11 14 15	-0.0280287
-1.361728	12 14 12	-0.2498775
-1.060698	12 14 13	-0.2632414
-0.7596679	12 14 14	0.1233849
-0.4074853	12 14 15	-0.05435771
-1.060698	12 14 16	0.1383027
-0.9822713	13 14 13	0.1303338
-0.7269987	13 14 14	-0.3629443
-0.30103	13 14 15	0.07918125
-1.20412	13 14 16	-0.2016454
-1.380211	13 14 8	0
-1.01424	14 14 12	-0.2218487
-1.190332	14 14 13	0.05115253
-0.4913617	14 14 14	0.3152705
-0.5882717	14 14 15	0.009759903
-1.01424	14 14 16	-0.4057654
-0.7781513	15 14 11	0
-1.255273	15 14 12	-0.2498775
-0.7781513	15 14 13	0.2552725
-1.255273	15 14 14	-0.1318876
-0.5563025	15 14 15	0.1706963
-1.113943	16 14 1	0
-0.6368221	16 14 11	-0.1760913
-0.8129134	16 14 13	-0.1918855
-0.6368221	16 14 15	0.2218488
-0.90309	17 14 10	-0.1760913
-0.60206	17 14 14	0.07638836
-0.60206	17 14 15	0.1760913
-0.30103	18 14 10	-0.1760913
-0.30103	12 15 16	-0.03672278
-1.079181	13 15 15	-0.1723634
-0.1249387	13 15 16	0.02632898
-1.778151	14 15 11	-0.1760913
-1.778151	14 15 12	-0.2596373
-1.477121	14 15 13	-0.2340832
-1.30103	14 15 14	-0.1426675
-0.69897	14 15 15	-0.2151154
-0.3309932	14 15 16	-0.1009783
-1.176091	14 15 17	0.1091444
-1.778151	14 15 </s>
-1.591065	15 15 10	-0.1760913
-1.113943	15 15 13	-0.154902
-1.113943	15 15 14	-0.1426675
-0.5910646	15 15 15	0.1237032
-0.5910646	15 15 16	0.2430381
-1.290035	15 15 17	0.05115256
-1.591065	15 15 4	0
-1.591065	15 15 </s>
-1.477121	16 15 10	-0.1760913
-1.477121	16 15 12	-0.1047353
-0.8750613	16 15 13	-0.1918856
-0.8750613	16 15 14	0.05115253
-0.69897	16 15 15	-0.09017667
-0.5740313	16 15 16	-0.2088837
-1.278754	17 15 11	-0.1760913
-0.9777236	17 15 12	-0.03778854
-0.6766936	17 15 13	-0.1597009
-0.9777236	17 15 14	-0.04575747
-0.9777236	17 15 15	-0.1249387
-0.9777236	17 15 16	0.1890562
-0.4259687	18 15 12	-0.1346986
-0.90309	18 15 13	-0.2092596
-0.90309	18 15 14	-0.2218487
-0.30103	4 15 16	-0.03672278
-0.30103	13 16 16	-0.09691
-0.5642715	14 16 15	-0.1760913
-0.4393327	14 16 16	0.1201398
-1.041393	14 16 17	-0.1214222
-1.832509	15 16 10	-0.1760913
-1.832509	15 16 11	-0.2218487
-1.531479	15 16 12	-0.07918124
-1.832509	15 16 13	-0.1760913
-1.832509	15 16 14	-0.1870866
-1.054358	15 16 15	-0.07918128
-0.6564177	15 16 16	0.1549019
-0.3411472	15 16 17	0.07223231
-1.832509	15 16 7	0
-1.60206	16 16 11	-0.2218487
-1.30103	16 16 12	-0.20412
-1.60206	16 16 13	-0.1760913
-1.30103	16 16 14	-0.1413291
-1	16 16 15	0.2730013
-0.69897	16 16 16	-0.02118933
-0.4259687	16 16 17	-0.09970289
-1.556303	17 16 10	-0.1760913
-1.556303	17 16 11	-0.2218487
-1.556303	17 16 12	-0.146128
-0.8573325	17 16 14	-0.01099533
-0.8573325	17 16 15	-0.05115253
-0.8573325	17 16 16	-0.2642273
-0.7112045	17 16 17	-0.1618508
-1.556303	17 16 5	0
-1.556303	17 16 9	0
-1.146128	18 16 12	-0.146128
-1.146128	18 16 14	-0.2284793
-0.447158	18 16 15	-0.02802873
-0.6690068	18 16 17	0.01424044
-0.30103	19 16 15	-0.2863067
-0.30103	10 17 16	-0.2071255
-0.30103	11 17 17	-0.2377481
-0.30103	12 17 17	-0.132238
-0.30103	13 17 17	-0.132238
-0.6532125	15 17 16	-0.1249387
-0.4771213	15 17 17	0.1476027
-0.9542425	15 17 18	0.02743828
-1.792392	16 17 12	-0.1760913
-1.190332	16 17 15	-0.1014576
-0.9472936	16 17 16	-0.2453298
-0.4121805	16 17 17	0.007423997
-0.4701724	16 17 18	-0.2542866
-1.770852	17 17 11	0
-1.469822	17 17 13	0
-1.293731	17 17 14	-0.09691003
-1.469822	17 17 15	-0.1983676
-0.867762	17 17 16	-0.08911976
-0.5404031	17 17 17	0.0860067
-0.4920984	17 17 18	0.1638569
-1.447158	18 17 12	-0.1760913
-1.146128	18 17 14	-0.09691001
-0.6690068	18 17 15	-0.0734289
-0.60206	18 17 16	0.1413291
-0.845098	18 17 17	0.0806559
-1.146128	18 17 18	0.04674342
-0.60206	19 17 15	-0.1983676
-0.60206	19 17 16	-0.2887955
-0.30103	7 17 16	-0.2360892
-0.30103	9 17 17	-0.132238
-1.690196	17 18 15	-0.09691
-1.213075	17 18 16	-0.02996323
-0.9120448	17 18 17	-0.2060545
-0.2752227	17 18 18	0.09409904
-0.9120448	17 18 19	0.1249387
-1.690196	17 18 9	-0.1760913
-1.886491	18 18 14	0
-1.585461	18 18 15	-0.2730013
-1.108339	18 18 16	0.1461281
-0.845098	18 18 17	-0.08111572
-0.4393327	18 18 18	0.1127044
-0.5642715	18 18 19	-0.09691
-1.886491	18 18 9	-0.1760913
-1.477121	19 18 13	0
-1.176091	19 18 15	-0.1760913
-1.477121	19 18 16	-0.1091445
-0.7781513	19 18 17	-0.2575643
-0.3309932	19 18 18	0.4605221
-1.477121	19 18 19	-0.2872417
-0.30103	7 18 18	-0.1047353
-0.30103	8 18 18	-0.1627273
-1.50515	18 19 17	-0.1760913
-0.6600519	18 19 18	-0.07615477
-0.2263964	18 19 19	0.001790941
-1.50515	18 19 7	-0.1760913
-1.908485	19 19 11	0
-1.908485	19 19 16	0
-1.908485	19 19 17	-0.1760913
-0.6780361	19 19 18	-0.3010299
-0.1924817	19 19 19	0.02011818
-1.908485	19 19 7	-0.1760913
-1.908485	19 19 9	0
-0.30103	7 19 19	0.145057
-0.1760913	9 19 19	-0.03103426
-0.30103	0 2 3	-0.02632892
-1.585461	1 2 0	0.30103
-1.187521	1 2 1	0.007686824
-0.5642715	1 2 2	0.06214786
-0.318289	1 2 3	0.1727117
-1.409369	1 2 4	-0.1290947
-1.886491	1 2 5	0
-1.886491	1 2 </s>
-1.732394	2 2 0	0
-1.130334	2 2 1	0.2118067
-0.4536402	2 2 2	0.2060544
-0.5019448	2 2 3	0.3176295
-1.130334	2 2 4	-0.2082759
-1.255273	2 2 </s>
-1.278754	3 2 0	0
-0.6766936	3 2 1	-0.1983677
-0.8016323	3 2 2	0.07918125
-0.9777236	3 2 3	-0.2024202
-0.9777236	3 2 4	-0.1870866
-1.278754	3 2 </s>
-0.7403627	4 2 0	0.30103
-1.041393	4 2 1	-0.1684044
-0.5642715	4 2 2	0.07918125
-1.041393	4 2 3	-0.1850461
-0.7781513	5 2 1	-0.2263964
-0.7781513	5 2 2	-0.2676062
-0.7781513	5 2 </s>
-0.30103	<s> 2 2	-0.1127043
-0.30103	0 3 4	-0.08167003
-0.90309	1 3 2	-0.1983676
-0.20412	1 3 4	-0.1423679
-0.30103	10 3 8	0
-0.30103	12 3 12	0
-1.50515	2 3 1	0.05115256
-1.50515	2 3 2	-0.3744589
-0.6300887	2 3 3	0.0843209
-0.3290587	2 3 4	0.0558579
-0.90309	2 3 5	-0.2052495
-1.80618	2 3 6	-0.1760913
-1.531479	3 3 1	-0.1249387
-1.054358	3 3 2	-0.1684044
-0.8325089	3 3 3	-0.1587172
-0.3553877	3 3 4	0.4623981
-1.054358	3 3 5	0.05799195
-1.531479	3 3 </s>
-1.380211	4 3 0	0.1760913
-1.380211	4 3 1	-0.2498775
-0.7781513	4 3 2	0.07463363
-0.60206	4 3 3	0.01296493
-1.079181	4 3 4	-0.1608513
-1.380211	4 3 6	-0.1760913
-1.079181	4 3 </s>
-1	5 3 0	0.1760913
-1	5 3 1	-0.1918855
-1	5 3 2	-0.2263964
-1	5 3 7	0
-1	5 3 </s>
-0.845098	6 3 1	-0.1249387
-0.845098	6 3 2	-0.2263964
-0.544068	6 3 3	-0.2466723
-0.30103	7 3 2	-0.2775489
-0.30103	0 4 4	-0.2082759
-0.30103	11 4 4	-0.1165056
-0.30103	12 4 3	-0.2632414
-0.30103	15 4 15	0
-0.8129134	2 4 3	-0.3521825
-0.8129134	2 4 4	0
-0.5118834	2 4 5	-0.147446
-1.113943	2 4 </s>
-1.763428	3 4 1	-0.1760913
-1.161368	3 4 2	-0.1047354
-0.6494846	3 4 4	-0.2414443
-0.4017002	3 4 5	0.06464291
-0.6842467	3 4 6	0.2430382
-1.716003	4 4 1	-0.1760913
-0.8129134	4 4 3	-0.03476211
-0.4607309	4 4 4	0.3357921
-0.8709053	4 4 5	0.454614
-0.7160034	4 4 6	0.1113659
-1.414973	4 4 </s>
-1.380211	5 4 2	-0.2138798
-0.6812412	5 4 3	-0.01336396
-0.90309	5 4 4	-0.3154051
-0.5351132	5 4 5	0.5929166
-1.380211	5 4 6	0.0669468
-1.380211	5 4 </s>
-0.7403627	6 4 2	-0.03778857
-1.041393	6 4 3	-0.2218487
-0.5642715	6 4 4	-0.1133004
-1.041393	6 4 6	-0.2340832
-0.09691001	7 4 4	-0.1760913
-0.60206	8 4 4	-0.1165056
-0.60206	8 4 5	-0.2521814
-0.30103	1 5 4	-0.1512677
-0.69897	10 5 12	0
-0.39794	10 5 6	-0.1249387
-0.30103	11 5 4	-0.1995723
-0.30103	13 5 7	-0.2138798
-0.30103	16 5 5	-0.2710668
-0.30103	2 5 6	-0.1792964
-1.20412	3 5 3	-0.2552725
-1.20412	3 5 4	-0.1512677
-1.20412	3 5 5	-0.2710668
-0.3590219	3 5 6	-0.3222193
-1.20412	3 5 7	-0.1047353
-1.672098	4 5 3	-0.2552725
-0.9731278	4 5 4	0.1249388
-0.9731278	4 5 5	-0.2276011
-0.3710679	4 5 6	0.05115259
-0.6307052	4 5 7	-0.1716822
-1.176091	5 5 1	0.1249388
-1.176091	5 5 2	-0.1249387
-1.176091	5 5 3	-0.20412
-0.8750613	5 5 4	0
-0.7781513	5 5 5	-0.1972806
-0.8750613	5 5 6	0.1391077
-1.176091	5 5 7	-0.1890562
-1.477121	5 5 </s>
-1.39794	6 5 1	0.30103
-1.39794	6 5 2	-0.2218487
-1.39794	6 5 3	-0.2552725
-0.9208187	6 5 4	0.1249388
-0.79588	6 5 5	-0.1918856
-0.9208187	6 5 6	-0.009545296
-1.39794	6 5 7	-0.2808266
-0.9208187	6 5 </s>
-0.8129134	7 5 4	2.980232e-08
-0.8129134	7 5 5	-0.146128
-1.113943	7 5 6	-0.2812859
-1.113943	7 5 7	-0.1047353
-0.8129134	7 5 </s>
-0.4259687	8 5 5	-0.1026623
-0.90309	8 5 6	-0.2276011
-0.90309	8 5 </s>
-0.60206	9 5 4	-0.1995723
-0.60206	9 5 5	-0.2710668
-0.90309	10 6 3	-0.1549019
-0.60206	10 6 5	-0.1583625
-0.60206	10 6 7	-0.1924817
-0.7781513	12 6 12	0
-0.7781513	12 6 6	-0.2568263
-0.7781513	12 6 7	-0.2752227
-0.60206	3 6 6	-0.2568263
-0.60206	3 6 8	0.06214792
-1.447158	4 6 5	-0.2455126
-0.845098	4 6 6	-0.2645131
-0.243038	4 6 7	-0.09691
-0.9700368	4 6 8	0
-1.352183	5 6 4	-0.1047353
-1.051152	5 6 5	-0.10721
-0.8081145	5 6 6	0.2660525
-0.5392691	5 6 7	-0.2897489
-0.6118198	5 6 8	-0.03698355
-1.352183	5 6 </s>
-1.491362	6 6 4	-0.1627273
-1.01424	6 6 5	-0.20412
-0.8893017	6 6 6	-0.2162085
-0.7132105	6 6 7	0.2388821
-0.5882717	6 6 8	0.2218488
-1.01424	6 6 </s>
-1.255273	7 6 3	-0.2340832
-1.255273	7 6 4	-0.2138798
-0.9542425	7 6 5	-0.1818436
-0.6532125	7 6 6	-0.3079788
-0.7781513	7 6 7	-0.3174205
-1.255273	7 6 8	0.06214792
-1.255273	8 6 3	-0.2340832
-1.255273	8 6 4	-0.2138798
-0.6532125	8 6 5	-0.1461281
-0.9542425	8 6 6	-0.241032
-1.255273	8 6 7	-0.2839966
-1.255273	8 6 8	0.06214792
-1.255273	8 6 </s>
-1.146128	9 6 3	-0.1549019
-0.845098	9 6 4	-0.1047353
-1.146128	9 6 5	-0.2455126
-0.845098	9 6 6	-0.152091
-0.6690068	9 6 7	-0.2184951
-0.30103	10 7 7	-0.1442439
-0.60206	11 7 7	-0.2296741
-0.60206	11 7 </s>
-0.30103	12 7 7	-0.2296741
-0.30103	16 7 17	0
-0.60206	19 7 18	0
-0.60206	19 7 19	0
-0.30103	3 7 9	-0.2527253
-1.342423	5 7 5	-0.2662679
-0.8653014	5 7 6	-0.2887955
-0.7403627	5 7 7	0.1383027
-0.4393327	5 7 8	0.1346986
-1.342423	5 7 9	0.0234811
-1.414973	6 7 4	0.2218488
-1.716003	6 7 5	-0.2284793
-1.414973	6 7 6	-0.3679768
-1.017033	6 7 7	-0.1124222
-0.3180633	6 7 8	0.1760914
-0.8709053	6 7 9	-0.07342899
-1.238882	6 7 </s>
-1.518514	7 7 3	0
-0.819544	7 7 5	-0.1571234
-1.041393	7 7 6	-0.04575747
-0.5185139	7 7 7	0.1962947
-0.916454	7 7 8	-0.2218487
-0.916454	7 7 9	0.4336555
-1.230449	8 7 4	0.39794
-0.7533277	8 7 6	-0.08715016
-1.230449	8 7 7	-0.1442439
-1.230449	8 7 8	-0.2160192
-0.7533277	8 7 9	0.1818435
-0.9294189	8 7 </s>
-1.20412	9 7 1	0
-1.20412	9 7 4	0.39794
-1.20412	9 7 5	-0.2662679
-1.20412	9 7 6	-0.2498775
-0.60206	9 7 7	0.004409105
-0.90309	9 7 8	0.1217336
-0.8129134	10 8 4	0
-0.6368221	10 8 5	0.1249387
-1.113943	10 8 6	-0.1918855
-1.113943	10 8 9	-0.2730013
-1.113943	10 8 </s>
-0.1760913	11 8 6	-0.1249387
-0.60206	14 8 6	-0.1918855
-0.60206	14 8 7	-0.2747011
-0.30103	3 8 9	-0.1249387
-1	6 8 10	-0.3388186
-1.477121	6 8 6	-0.2762064
-1.477121	6 8 7	-0.2747011
-1	6 8 8	0.1139434
-0.2466723	6 8 9	-0.1426674
-0.6118198	7 8 10	0.1663314
-1.653213	7 8 6	-0.2762064
-1.176091	7 8 7	-0.07058106
-0.7501225	7 8 8	0.1139434
-0.4227636	7 8 9	0.05799198
-0.9890046	8 8 10	-0.03778857
-1.591065	8 8 18	0
-1.591065	8 8 5	-0.09691
-1.591065	8 8 6	-0.2762064
-0.9890046	8 8 7	-0.288065
-0.3869446	8 8 8	-0.2218487
-0.8920946	8 8 9	-0.3252248
-1.322219	9 8 5	-0.09691
-0.7201593	9 8 6	-0.04575747
-1.021189	9 8 7	-0.4227636
-0.6232493	9 8 8	0.2108534
-1.021189	9 8 9	-0.1995724
-1.322219	9 8 </s>
-0.30103	1 9 10	-0.1549019
-0.9208187	10 9 10	-0.09275404
-1.09691	10 9 11	-0.02802873
-0.79588	10 9 6	-0.2218488
-0.9208187	10 9 7	-0.09691001
-1.09691	10 9 8	-0.2575643
-0.9208187	10 9 9	-0.06214789
-1.39794	10 9 </s>
-1.230449	11 9 10	-0.2218487
-0.9294189	11 9 11	-0.2218487
-1.230449	11 9 5	-0.1760913
-1.230449	11 9 7	-0.1760913
-0.6283889	11 9 8	-0.04575753
-0.9294189	11 9 9	-0.1413291
-0.845098	12 9 5	-0.1760913
-0.845098	12 9 6	-0.2340832
-0.544068	12 9 8	-0.1249387
-0.60206	13 9 6	-0.2340832
-0.60206	13 9 7	-0.2730013
-0.30103	16 9 8	-0.2575643
-0.60206	18 9 17	0
-0.60206	18 9 19	0.1760913
-0.30103	19 9 19	0.1760913
-0.2787536	7 9 10	-0.1249387
-0.9777236	7 9 11	-0.30103
-0.6766936	7 9 9	-0.09913149
-0.50515	8 9 10	-0.1326255
-0.4771213	8 9 11	0.008773863
-1.380211	8 9 7	-0.09691001
-1.20412	8 9 8	-0.154902
-0.8361432	8 9 9	-0.1704873
-0.7160034	9 9 10	0.2710668
-1.113943	9 9 11	-0.30103
-0.9378521	9 9 6	-0.4973247
-0.9378521	9 9 7	-0.05115253
-0.9378521	9 9 8	0.0211893
-0.8129134	9 9 9	-0.1290947

\4-grams:
-0.3424227	0 0 0 0
-0.5185139	0 0 0 1
-1.518514	0 0 0 3
-1.518514	0 0 0 4
-1.518514	0 0 0 </s>
-0.4259687	1 0 0 0
-0.90309	1 0 0 1
-0.90309	1 0 0 </s>
-0.1760913	2 0 0 0
-0.1760913	3 0 0 0
-0.4771213	<s> 0 0 0
-0.3521825	<s> 0 0 1
-1.255273	<s> 0 0 2
-0.5228788	0 1 0 0
-0.5228788	0 1 0 1
-1	0 1 0 </s>
-0.1249387	1 1 0 1
-0.69897	2 1 0 0
-0.39794	2 1 0 1
-0.1249387	3 1 0 1
-0.30103	4 1 0 0
-0.60206	1 2 0 0
-0.60206	1 2 0 1
-0.30103	2 2 0 1
-0.30103	3 2 0 1
-0.60206	4 2 0 0
-0.60206	4 2 0 1
-0.30103	4 3 0 0
-0.30103	5 3 0 0
-1.041393	0 0 1 0
-0.5642715	0 0 1 1
-0.30103	0 0 1 2
-1.20412	1 0 1 0
-0.90309	1 0 1 1
-0.4259687	1 0 1 2
-1.20412	1 0 1 3
-1.20412	1 0 1 </s>
-0.30103	2 0 1 0
-0.7781513	2 0 1 2
-1.556303	<s> 0 1 0
-0.60206	<s> 0 1 1
-0.1945747	<s> 0 1 2
-1.322219	0 1 1 0
-0.845098	0 1 1 1
-0.3222193	0 1 1 2
-0.845098	0 1 1 3
-0.50515	1 1 1 1
-0.50515	1 1 1 2
-1.20412	1 1 1 3
-1.20412	1 1 1 </s>
-0.90309	2 1 1 0
-0.4259687	2 1 1 1
-0.90309	2 1 1 2
-0.60206	3 1 1 1
-0.60206	3 1 1 2
-0.69897	5 1 1 0
-0.39794	5 1 1 2
-0.30103	10 10 1 9
-0.30103	16 14 1 5
-0.4259687	1 2 1 1
-0.90309	1 2 1 2
-0.90309	1 2 1 3
-0.845098	2 2 1 0
-0.845098	2 2 1 1
-0.544068	2 2 1 2
-0.7781513	3 2 1 0
-0.30103	3 2 1 2
-0.30103	4 2 1 1
-0.30103	5 2 1 0
-0.60206	2 3 1 0
-0.60206	2 3 1 1
-0.30103	3 3 1 0
-0.30103	4 3 1 2
-0.30103	5 3 1 1
-0.30103	6 3 1 0
-0.30103	3 4 1 2
-0.30103	4 4 1 0
-0.1760913	5 5 1 1
-0.30103	6 5 1 1
-0.30103	9 7 1 2
-0.845098	10 10 10 10
-0.544068	10 10 10 11
-0.845098	10 10 10 12
-0.7781513	11 10 10 1
-0.7781513	11 10 10 10
-0.7781513	11 10 10 6
-0.1760913	12 10 10 11
-0.30103	13 10 10 9
-0.30103	14 10 10 5
-0.90309	8 10 10 11
-0.90309	8 10 10 3
-0.90309	8 10 10 8
-0.90309	8 10 10 9
-0.7781513	9 10 10 10
-1.079181	9 10 10 11
-0.7781513	9 10 10 12
-1.079181	9 10 10 8
-1.079181	9 10 10 9
-0.7781513	11 11 10 10
-0.7781513	11 11 10 11
-1.079181	11 11 10 12
-1.079181	11 11 10 6
-1.079181	11 11 10 9
-0.845098	12 11 10 6
-0.845098	12 11 10 8
-0.544068	12 11 10 9
-0.60206	13 11 10 10
-0.60206	13 11 10 8
-0.30103	14 11 10 9
-0.30103	16 11 10 6
-0.09691001	9 11 10 11
-0.60206	11 12 10 7
-0.60206	11 12 10 9
-0.30103	12 12 10 10
-0.4771213	13 12 10 11
-0.4771213	13 12 10 9
-0.30103	14 12 10 10
-0.845098	15 12 10 6
-0.845098	15 12 10 8
-0.544068	15 12 10 9
-0.30103	11 13 10 11
-0.69897	12 13 10 11
-0.39794	12 13 10 12
-0.845098	15 13 10 10
-0.544068	15 13 10 9
-0.845098	15 13 10 </s>
-0.30103	16 13 10 9
-0.30103	17 14 10 8
-0.30103	18 14 10 10
-0.30103	15 15 10 11
-0.30103	16 15 10 12
-0.30103	15 16 10 17
-0.30103	17 16 10 8
-0.1249387	6 8 10 11
-0.69897	7 8 10 10
-0.5740313	7 8 10 11
-0.69897	7 8 10 12
-1.176091	7 8 10 5
-0.7781513	8 8 10 10
-0.30103	8 8 10 11
-0.30103	1 9 10 11
-0.7781513	10 9 10 11
-0.7781513	10 9 10 9
-0.7781513	10 9 10 </s>
-0.30103	11 9 10 10
-0.447158	7 9 10 11
-0.6690068	7 9 10 12
-1.146128	7 9 10 5
-1.146128	7 9 10 9
-0.5797836	8 9 10 10
-0.8016323	8 9 10 11
-0.5006024	8 9 10 12
-1.278754	8 9 10 8
-0.9542425	9 9 10 10
-0.6532125	9 9 10 11
-0.9542425	9 9 10 12
-0.9542425	9 9 10 9
-0.3521825	10 10 11 12
-0.9542425	10 10 11 13
-0.9542425	10 10 11 9
-1	11 10 11 11
-0.69897	11 10 11 12
-0.69897	11 10 11 13
-1	11 10 11 9
-0.60206	12 10 11 11
-0.60206	12 10 11 12
-0.60206	13 10 11 12
-0.60206	13 10 11 9
-0.30103	15 10 11 5
-0.8129134	8 10 11 11
-0.6368221	8 10 11 12
-0.4149733	8 10 11 13
-0.4771213	9 10 11 11
-0.8750613	9 10 11 12
-0.4771213	9 10 11 13
-0.7781513	10 11 11 10
-0.3802112	10 11 11 12
-0.7781513	10 11 11 13
-0.90309	11 11 11 10
-0.90309	11 11 11 12
-0.90309	11 11 11 13
-0.90309	11 11 11 9
-0.39794	12 11 11 12
-0.69897	12 11 11 13
-0.7781513	13 11 11 10
-0.7781513	13 11 11 12
-0.7781513	13 11 11 9
-0.7781513	14 11 11 10
-0.7781513	14 11 11 11
-0.7781513	14 11 11 8
-0.30103	17 11 11 10
-0.7781513	9 11 11 10
-0.30103	9 11 11 11
-0.30103	10 12 11 12
-0.4771213	11 12 11 10
-0.4771213	11 12 11 11
-0.60206	12 12 11 12
-0.60206	12 12 11 </s>
-0.845098	13 12 11 10
-0.845098	13 12 11 7
-0.544068	13 12 11 9
-0.60206	14 12 11 10
-0.60206	14 12 11 11
-0.60206	11 13 11 10
-0.60206	11 13 11 </s>
-0.60206	12 13 11 13
-0.60206	12 13 11 9
-0.30103	13 13 11 11
-0.7781513	14 13 11 10
-0.7781513	14 13 11 12
-0.7781513	14 13 11 13
-0.1760913	15 13 11 11
-0.7781513	15 14 11 11
-0.7781513	15 14 11 7
-0.7781513	15 14 11 8
-0.69897	16 14 11 10
-0.39794	16 14 11 11
-0.30103	14 15 11 4
-0.30103	17 15 11 9
-0.30103	15 16 11 17
-0.30103	16 16 11 12
-0.30103	17 16 11 10
-0.30103	17 17 11 11
-0.30103	19 19 11 9
-0.60206	10 9 11 11
-0.60206	10 9 11 12
-0.60206	11 9 11 10
-0.60206	11 9 11 9
-0.1760913	7 9 11 12
-0.845098	8 9 11 10
-0.845098	8 9 11 11
-0.6232493	8 9 11 12
-0.7201593	8 9 11 13
-1.322219	8 9 11 14
-0.1760913	9 9 11 12
-0.7781513	10 10 12 12
-0.7781513	10 10 12 13
-0.7781513	10 10 12 14
-0.30103	11 10 12 12
-0.60206	13 10 12 12
-0.60206	13 10 12 14
-0.30103	15 10 12 9
-0.1249387	8 10 12 13
-1.146128	9 10 12 11
-1.146128	9 10 12 12
-0.30103	9 10 12 13
-1.146128	9 10 12 14
-0.9294189	10 11 12 10
-1.230449	10 11 12 11
-0.3853509	10 11 12 13
-0.7533277	10 11 12 14
-0.7781513	11 11 12 12
-0.60206	11 11 12 13
-0.4771213	11 11 12 14
-0.60206	12 11 12 11
-0.60206	12 11 12 7
-0.30103	13 11 12 13
-0.30103	16 11 12 12
-0.8129134	9 11 12 11
-0.4149733	9 11 12 13
-0.6368221	9 11 12 14
-0.90309	10 12 12 11
-0.90309	10 12 12 12
-0.90309	10 12 12 13
-0.90309	10 12 12 14
-0.7781513	11 12 12 10
-0.7781513	11 12 12 13
-0.7781513	11 12 12 6
-0.08940041	12 12 12 12
-1.332438	12 12 12 14
-1.633469	12 12 12 17
-1.633469	12 12 12 </s>
-0.7781513	13 12 12 12
-0.7781513	13 12 12 14
-0.7781513	13 12 12 3
-0.30103	14 12 12 13
-0.69897	16 12 12 11
-0.39794	16 12 12 13
-0.30103	17 12 12 </s>
-0.30103	6 12 12 12
-0.30103	<s> 12 12 12
-0.60206	11 13 12 11
-0.60206	11 13 12 13
-0.9542425	12 13 12 10
-0.6532125	12 13 12 11
-0.9542425	12 13 12 12
-0.9542425	12 13 12 13
-0.9542425	13 13 12 10
-0.6532125	13 13 12 12
-0.9542425	13 13 12 13
-0.9542425	13 13 12 14
-0.1760913	15 13 12 10
-0.30103	17 13 12 11
-0.30103	12 14 12 13
-0.39794	14 14 12 11
-0.69897	14 14 12 12
-0.30103	15 14 12 10
-0.30103	14 15 12 9
-0.30103	16 15 12 10
-0.60206	17 15 12 10
-0.60206	17 15 12 13
-0.39794	18 15 12 10
-0.69897	18 15 12 6
-0.60206	15 16 12 12
-0.60206	15 16 12 4
-0.60206	16 16 12 15
-0.60206	16 16 12 9
-0.30103	17 16 12 12
-0.30103	18 16 12 12
-0.30103	16 17 12 9
-0.30103	18 17 12 12
-0.30103	12 3 12 6
-0.30103	10 5 12 13
-0.30103	12 6 12 12
-1.255273	10 11 13 10
-1.255273	10 11 13 13
-0.3521825	10 11 13 14
-0.9542425	10 11 13 15
-1.255273	10 11 13 16
-0.7781513	11 11 13 12
-0.30103	11 11 13 14
-0.60206	13 11 13 11
-0.60206	13 11 13 12
-0.845098	9 11 13 11
-0.544068	9 11 13 14
-0.845098	9 11 13 17
-0.6690068	10 12 13 13
-0.544068	10 12 13 14
-0.544068	10 12 13 15
-0.8653014	11 12 13 10
-1.041393	11 12 13 11
-1.342423	11 12 13 12
-0.8653014	11 12 13 13
-0.5642715	11 12 13 14
-1.342423	11 12 13 15
-0.4259687	12 12 13 12
-0.90309	12 12 13 13
-0.90309	12 12 13 </s>
-0.69897	13 12 13 13
-0.39794	13 12 13 14
-0.30103	14 12 13 12
-0.30103	15 12 13 13
-0.30103	5 12 13 14
-0.30103	11 13 13 14
-0.7781513	12 13 13 12
-0.3802112	12 13 13 13
-0.7781513	12 13 13 14
-0.90309	13 13 13 12
-0.4259687	13 13 13 13
-0.7269987	13 13 13 14
-1.20412	13 13 13 15
-0.7781513	14 13 13 12
-0.7781513	14 13 13 13
-0.7781513	14 13 13 </s>
-0.60206	15 13 13 11
-0.60206	15 13 13 14
-0.30103	17 13 13 14
-0.1760913	12 14 13 14
-0.90309	13 14 13 11
-0.90309	13 14 13 13
-0.4259687	13 14 13 14
-0.60206	14 14 13 13
-0.60206	14 14 13 14
-0.7781513	15 14 13 11
-0.7781513	15 14 13 13
-0.7781513	15 14 13 14
-0.60206	16 14 13 11
-0.60206	16 14 13 15
-0.60206	14 15 13 14
-0.60206	14 15 13 5
-0.7781513	15 15 13 11
-0.7781513	15 15 13 12
-0.7781513	15 15 13 14
-0.544068	16 15 13 10
-0.845098	16 15 13 11
-0.845098	16 15 13 9
-0.845098	17 15 13 10
-0.845098	17 15 13 12
-0.544068	17 15 13 13
-0.30103	18 15 13 10
-0.30103	15 16 13 15
-0.30103	16 16 13 10
-0.60206	17 17 13 12
-0.60206	17 17 13 13
-0.30103	19 18 13 9
-0.30103	9 11 14 15
-0.69897	10 12 14 14
-0.39794	10 12 14 15
-1.146128	11 12 14 13
-0.845098	11 12 14 14
-0.447158	11 12 14 15
-0.845098	11 12 14 16
-0.845098	12 12 14 13
-0.845098	12 12 14 14
-0.544068	12 12 14 15
-0.30103	13 12 14 12
-1.230449	11 13 14 13
-0.9294189	11 13 14 14
-0.3273589	11 13 14 15
-0.9294189	11 13 14 16
-1.230449	12 13 14 13
-0.5314789	12 13 14 14
-0.4522977	12 13 14 15
-1.230449	12 13 14 8
-0.7781513	13 13 14 13
-0.7781513	13 13 14 14
-0.60206	13 13 14 15
-1.079181	13 13 14 16
-1	14 13 14 13
-0.30103	14 13 14 15
-1	14 13 14 8
-0.1760913	15 13 14 15
-0.845098	12 14 14 14
-0.845098	12 14 14 15
-0.544068	12 14 14 16
-0.3424227	13 14 14 14
-0.4393327	13 14 14 15
-0.69897	14 14 14 12
-0.8750613	14 14 14 13
-0.8750613	14 14 14 14
-0.8750613	14 14 14 15
-1.176091	14 14 14 16
-0.30103	15 14 14 14
-0.60206	17 14 14 14
-0.60206	17 14 14 15
-0.39794	14 15 14 11
-0.69897	14 15 14 15
-0.69897	15 15 14 13
-0.39794	15 15 14 15
-0.90309	16 15 14 12
-0.90309	16 15 14 13
-0.90309	16 15 14 14
-0.90309	16 15 14 15
-0.60206	17 15 14 13
-0.60206	17 15 14 15
-0.30103	18 15 14 11
-0.30103	15 16 14 15
-0.60206	16 16 14 1
-0.60206	16 16 14 11
-0.60206	17 16 14 11
-0.90309	17 16 14 13
-0.60206	17 16 14 15
-0.30103	18 16 14 13
-0.39794	17 17 14 14
-0.69897	17 17 14 15
-0.60206	18 17 14 10
-0.60206	18 17 14 15
-0.30103	18 18 14 10
-0.30103	16 12 15 16
-0.1760913	11 13 15 16
-0.845098	12 13 15 15
-0.243038	12 13 15 16
-0.30103	13 13 15 16
-0.30103	14 13 15 16
-0.30103	16 13 15 16
-0.30103	11 14 15 16
-1.079181	12 14 15 14
-0.60206	12 14 15 15
-0.3802112	12 14 15 16
-1.477121	13 14 15 12
-1.477121	13 14 15 13
-1.176091	13 14 15 14
-0.7781513	13 14 15 15
-0.3631779	13 14 15 16
-1.176091	13 14 15 17
-1.041393	14 14 15 15
-0.3424227	14 14 15 16
-0.7403627	14 14 15 17
-0.9542425	15 14 15 11
-0.9542425	15 14 15 15
-0.6532125	15 14 15 16
-0.9542425	15 14 15 </s>
-0.7781513	16 14 15 13
-0.7781513	16 14 15 15
-0.7781513	16 14 15 16
-0.60206	17 14 15 15
-0.60206	17 14 15 16
-0.30103	13 15 15 16
-1.20412	14 15 15 10
-0.7269987	14 15 15 15
-0.4259687	14 15 15 16
-0.90309	14 15 15 17
-0.90309	15 15 15 13
-0.90309	15 15 15 14
-0.90309	15 15 15 15
-0.90309	15 15 15 16
-1.20412	15 15 15 4
-1.20412	15 15 15 </s>
-0.9542425	16 15 15 13
-0.3521825	16 15 15 15
-0.9542425	16 15 15 16
-0.60206	17 15 15 14
-0.60206	17 15 15 15
-0.69897	14 16 15 13
-0.39794	14 16 15 16
-0.9542425	15 16 15 13
-0.9542425	15 16 15 15
-0.3521825	15 16 15 16
-0.90309	16 16 15 13
-0.90309	16 16 15 14
-0.90309	16 16 15 15
-0.90309	16 16 15 16
-0.9542425	17 16 15 10
-0.9542425	17 16 15 13
-0.6532125	17 16 15 14
-0.9542425	17 16 15 15
-0.90309	18 16 15 14
-0.4259687	18 16 15 15
-0.90309	18 16 15 16
-0.30103	19 16 15 12
-0.90309	16 17 15 11
-0.90309	16 17 15 14
-0.90309	16 17 15 15
-0.90309	16 17 15 16
-0.60206	17 17 15 12
-0.60206	17 17 15 14
-1	18 17 15 12
-0.5228788	18 17 15 13
-1	18 17 15 15
-1	18 17 15 16
-0.30103	19 17 15 13
-0.30103	17 18 15 12
-0.1760913	18 18 15 12
-0.60206	19 18 15 13
-0.60206	19 18 15 14
-0.30103	15 4 15 16
-0.30103	11 13 16 16
-0.60206	12 14 16 15
-0.60206	12 14 16 16
-0.39794	13 14 16 15
-0.69897	13 14 16 17
-0.1249387	14 14 16 16
-0.30103	12 15 16 17
-0.7781513	13 15 16 15
-0.3802112	13 15 16 16
-0.7781513	13 15 16 17
-1.518514	14 15 16 12
-1.518514	14 15 16 14
-0.916454	14 15 16 15
-0.6734159	14 15 16 16
-0.3424227	14 15 16 17
-1.230449	15 15 16 10
-1.230449	15 15 16 11
-1.230449	15 15 16 12
-1.230449	15 15 16 13
-1.230449	15 15 16 16
-0.6283889	15 15 16 17
-1.230449	15 15 16 7
-1	16 15 16 16
-0.154902	16 15 16 17
-0.60206	17 15 16 16
-0.60206	17 15 16 17
-0.30103	4 15 16 17
-0.30103	13 16 16 17
-0.845098	14 16 16 15
-0.544068	14 16 16 16
-0.845098	14 16 16 17
-1.322219	15 16 16 11
-1.322219	15 16 16 12
-1.021189	15 16 16 14
-1.021189	15 16 16 15
-0.7201593	15 16 16 16
-0.6232493	15 16 16 17
-1.079181	16 16 16 12
-1.079181	16 16 16 13
-0.7781513	16 16 16 16
-0.4771213	16 16 16 17
-0.845098	17 16 16 15
-0.243038	17 16 16 17
-0.30103	10 17 16 17
-0.60206	15 17 16 15
-0.60206	15 17 16 17
-0.5228788	16 17 16 14
-0.69897	16 17 16 15
-0.69897	16 17 16 17
-1.113943	17 17 16 14
-0.6368221	17 17 16 16
-0.8129134	17 17 16 17
-1.113943	17 17 16 5
-1.113943	17 17 16 9
-1.113943	18 17 16 11
-1.113943	18 17 16 12
-1.113943	18 17 16 14
-1.113943	18 17 16 15
-0.8129134	18 17 16 16
-1.113943	18 17 16 17
-0.30103	19 17 16 10
-0.30103	7 17 16 15
-0.39794	17 18 16 15
-0.69897	17 18 16 17
-1	18 18 16 12
-1	18 18 16 14
-0.69897	18 18 16 15
-0.69897	18 18 16 17
-0.30103	19 18 16 15
-0.30103	19 19 16 15
-0.30103	16 10 17 16
-0.30103	16 11 17 17
-0.30103	12 12 17 17
-0.30103	11 13 17 17
-0.845098	14 15 17 16
-0.544068	14 15 17 17
-0.845098	14 15 17 18
-0.60206	15 15 17 16
-0.60206	15 15 17 17
-0.30103	14 16 17 18
-1.544068	15 16 17 15
-1.066947	15 16 17 16
-0.5026754	15 16 17 17
-0.3399481	15 16 17 18
-0.9542425	16 16 17 15
-0.30103	16 16 17 17
-0.6532125	16 16 17 18
-1	17 16 17 15
-0.5228788	17 16 17 16
-0.5228788	17 16 17 17
-0.7781513	18 16 17 12
-0.7781513	18 16 17 16
-0.7781513	18 16 17 17
-0.30103	11 17 17 16
-0.30103	12 17 17 18
-0.30103	13 17 17 18
-0.7781513	15 17 17 13
-0.7781513	15 17 17 17
-0.7781513	15 17 17 18
-1.161368	16 17 17 14
-1.161368	16 17 17 15
-0.860338	16 17 17 16
-0.559308	16 17 17 17
-0.559308	16 17 17 18
-1.342423	17 17 17 11
-1.342423	17 17 17 14
-0.8653014	17 17 17 16
-0.4973246	17 17 17 17
-0.6434527	17 17 17 18
-0.845098	18 17 17 13
-0.845098	18 17 17 17
-0.544068	18 17 17 18
-0.30103	9 17 17 18
-0.6532125	17 18 17 16
-0.6532125	17 18 17 17
-0.6532125	17 18 17 18
-1.176091	18 18 17 14
-0.69897	18 18 17 15
-0.4771213	18 18 17 16
-0.8750613	18 18 17 17
-0.90309	19 18 17 12
-0.90309	19 18 17 14
-0.4259687	19 18 17 15
-0.30103	18 19 17 16
-0.30103	19 19 17 15
-0.30103	16 7 17 16
-0.30103	18 9 17 17
-0.30103	15 17 18 18
-0.90309	16 17 18 17
-0.1497623	16 17 18 18
-1.380211	16 17 18 19
-0.90309	17 17 18 16
-0.90309	17 17 18 17
-0.5351132	17 17 18 18
-0.6812412	17 17 18 19
-1.380211	17 17 18 9
-0.60206	18 17 18 15
-0.60206	18 17 18 18
-1.491362	17 18 18 16
-1.190332	17 18 18 17
-0.5882717	17 18 18 18
-0.3452336	17 18 18 19
-1.491362	17 18 18 9
-1.518514	18 18 18 15
-1.041393	18 18 18 16
-0.615424	18 18 18 17
-0.4771213	18 18 18 18
-0.819544	18 18 18 19
-1.30103	19 18 18 14
-1.30103	19 18 18 15
-1	19 18 18 16
-1.30103	19 18 18 17
-0.39794	19 18 18 18
-1.30103	19 18 18 19
-0.30103	7 18 18 18
-0.30103	8 18 18 19
-1.041393	18 19 18 13
-1.041393	18 19 18 16
-0.4393327	18 19 18 18
-1.041393	18 19 18 19
-1	19 19 18 15
-0.60206	19 19 18 17
-0.30103	19 19 18 18
-0.30103	19 7 18 18
-0.30103	8 8 18 18
-0.90309	17 18 19 18
-0.20412	17 18 19 19
-0.60206	18 18 19 18
-0.2340832	18 18 19 19
-1.380211	18 18 19 7
-0.30103	19 18 19 17
-0.7403627	18 19 19 18
-0.1962947	18 19 19 19
-1.342423	18 19 19 9
-1.763428	19 19 19 11
-1.763428	19 19 19 16
-1.763428	19 19 19 17
-0.6494846	19 19 19 18
-0.2193599	19 19 19 19
-1.763428	19 19 19 7
-0.30103	7 19 19 19
-0.1760913	9 19 19 19
-0.30103	19 7 19 19
-0.30103	18 9 19 19
-0.30103	19 9 19 19
-0.30103	0 0 2 3
-1.672098	0 1 2 0
-1.672098	0 1 2 1
-0.7178553	0 1 2 2
-0.2249398	0 1 2 3
-1.672098	0 1 2 4
-1.672098	0 1 2 5
-1.079181	1 1 2 1
-0.3802112	1 1 2 2
-0.6812412	1 1 2 3
-1.380211	1 1 2 4
-1.380211	1 1 2 </s>
-1	2 1 2 0
-0.69897	2 1 2 1
-0.69897	2 1 2 2
-1	2 1 2 4
-0.30103	3 1 2 3
-0.30103	4 1 2 3
-0.30103	7 1 2 3
-0.30103	<s> 1 2 3
-1.414973	1 2 2 0
-1.113943	1 2 2 1
-0.5698753	1 2 2 2
-0.5118834	1 2 2 3
-0.9378521	1 2 2 4
-1.380211	2 2 2 1
-0.5351132	2 2 2 2
-0.5351132	2 2 2 3
-1.380211	2 2 2 4
-0.90309	2 2 2 </s>
-0.39794	3 2 2 2
-0.69897	3 2 2 3
-0.39794	4 2 2 2
-0.69897	4 2 2 3
-0.30103	5 2 2 1
-0.30103	<s> 2 2 2
-0.30103	1 3 2 1
-0.1760913	2 3 2 1
-0.7781513	3 3 2 3
-0.7781513	3 3 2 4
-0.7781513	3 3 2 </s>
-0.90309	4 3 2 1
-0.90309	4 3 2 2
-0.90309	4 3 2 3
-0.90309	4 3 2 4
-0.30103	5 3 2 2
-0.30103	6 3 2 2
-0.30103	7 3 2 0
-0.845098	3 4 2 1
-0.544068	3 4 2 2
-0.845098	3 4 2 3
-0.30103	5 4 2 0
-0.60206	6 4 2 0
-0.60206	6 4 2 2
-0.60206	5 5 2 2
-0.60206	5 5 2 </s>
-0.30103	6 5 2 1
-0.30103	0 0 3 4
-0.30103	0 1 3 4
-0.7781513	1 1 3 2
-0.30103	1 1 3 4
-0.30103	2 1 3 4
-0.30103	10 10 3 8
-0.30103	12 12 3 12
-0.30103	0 2 3 4
-1.633469	1 2 3 1
-1.633469	1 2 3 2
-0.7303784	1 2 3 3
-0.3112492	1 2 3 4
-0.9344984	1 2 3 5
-1.633469	1 2 3 6
-1.342423	2 2 3 1
-1.342423	2 2 3 2
-0.5642715	2 2 3 3
-0.5642715	2 2 3 4
-0.8653014	2 2 3 5
-0.1760913	3 2 3 4
-0.30103	4 2 3 3
-1.30103	2 3 3 2
-1.30103	2 3 3 3
-0.30103	2 3 3 4
-1	2 3 3 5
-1.30103	2 3 3 </s>
-0.544068	3 3 3 3
-0.3679768	3 3 3 4
-0.6532125	4 3 3 2
-0.6532125	4 3 3 3
-0.6532125	4 3 3 4
-0.60206	6 3 3 1
-0.60206	6 3 3 5
-0.30103	12 4 3 4
-0.1760913	2 4 3 3
-1.113943	4 4 3 0
-0.8129134	4 4 3 2
-0.6368221	4 4 3 3
-1.113943	4 4 3 4
-1.113943	4 4 3 6
-0.9542425	5 4 3 1
-0.9542425	5 4 3 2
-0.9542425	5 4 3 3
-0.6532125	5 4 3 </s>
-0.30103	6 4 3 2
-0.30103	3 5 3 7
-0.30103	4 5 3 </s>
-0.60206	5 5 3 1
-0.60206	5 5 3 2
-0.30103	6 5 3 0
-0.30103	10 6 3 3
-0.30103	7 6 3 2
-0.30103	8 6 3 1
-0.30103	9 6 3 3
-0.30103	7 7 3 2
-0.30103	0 0 4 4
-0.30103	15 11 4 4
-0.30103	16 12 4 3
-0.30103	15 15 4 15
-0.69897	1 2 4 3
-0.39794	1 2 4 5
-0.4771213	2 2 4 4
-0.4771213	2 2 4 5
-0.60206	3 2 4 3
-0.60206	3 2 4 </s>
-0.30103	0 3 4 5
-0.3679768	1 3 4 5
-0.544068	1 3 4 6
-1.531479	2 3 4 2
-0.6283889	2 3 4 4
-0.4175356	2 3 4 5
-0.6283889	2 3 4 6
-1.30103	3 3 4 1
-1	3 3 4 2
-0.60206	3 3 4 4
-0.5228788	3 3 4 5
-1.30103	3 3 4 6
-0.60206	4 3 4 2
-0.60206	4 3 4 6
-0.30103	0 4 4 6
-0.30103	11 4 4 4
-0.60206	2 4 4 3
-0.60206	2 4 4 4
-0.4259687	3 4 4 4
-0.90309	3 4 4 5
-0.50515	3 4 4 6
-1.380211	4 4 4 1
-0.6812412	4 4 4 3
-0.6812412	4 4 4 4
-1.079181	4 4 4 5
-0.7781513	4 4 4 6
-1.380211	4 4 4 </s>
-0.39794	5 4 4 5
-0.69897	5 4 4 </s>
-0.39794	6 4 4 4
-0.69897	6 4 4 5
-0.4771213	7 4 4 3
-0.4771213	7 4 4 4
-0.30103	8 4 4 4
-0.30103	1 5 4 5
-0.30103	11 5 4 3
-0.30103	3 5 4 5
-0.9542425	4 5 4 3
-0.9542425	4 5 4 4
-0.6532125	4 5 4 5
-0.9542425	4 5 4 6
-0.90309	5 5 4 2
-0.90309	5 5 4 4
-0.90309	5 5 4 5
-0.90309	5 5 4 </s>
-0.7781513	6 5 4 3
-0.7781513	6 5 4 4
-0.7781513	6 5 4 5
-0.60206	7 5 4 3
-0.60206	7 5 4 5
-0.30103	9 5 4 3
-0.60206	5 6 4 4
-0.60206	5 6 4 6
-0.30103	6 6 4 4
-0.30103	7 6 4 2
-0.30103	8 6 4 2
-0.60206	9 6 4 3
-0.60206	9 6 4 4
-0.1760913	6 7 4 4
-0.30103	8 7 4 4
-0.30103	9 7 4 4
-0.60206	10 8 4 4
-0.60206	10 8 4 5
-0.30103	14 1 5 4
-0.30103	10 10 5 6
-0.30103	8 10 5 12
-0.30103	9 10 5 6
-0.30103	10 11 5 4
-0.30103	15 13 5 7
-0.30103	17 16 5 5
-0.30103	1 2 5 6
-1.041393	2 3 5 3
-0.2632414	2 3 5 6
-1.041393	2 3 5 7
-0.7781513	3 3 5 4
-0.7781513	3 3 5 5
-0.7781513	3 3 5 6
-0.7781513	2 4 5 4
-0.30103	2 4 5 6
-1.130334	3 4 5 4
-1.130334	3 4 5 5
-0.4313638	3 4 5 6
-0.4771213	3 4 5 7
-1.041393	4 4 5 4
-1.041393	4 4 5 5
-0.4393327	4 4 5 6
-1.041393	4 4 5 7
-1.079181	5 4 5 3
-1.079181	5 4 5 4
-1.079181	5 4 5 5
-0.60206	5 4 5 6
-1.079181	5 4 5 7
-0.30103	8 4 5 5
-0.30103	16 5 5 1
-0.30103	3 5 5 7
-0.4259687	4 5 5 5
-0.90309	4 5 5 6
-0.90309	4 5 5 7
-0.9542425	5 5 5 2
-0.9542425	5 5 5 3
-0.6532125	5 5 5 6
-0.9542425	5 5 5 </s>
-0.845098	6 5 5 2
-0.544068	6 5 5 4
-0.845098	6 5 5 6
-0.60206	7 5 5 4
-0.60206	7 5 5 5
-0.7781513	8 5 5 1
-0.7781513	8 5 5 4
-0.7781513	8 5 5 5
-0.30103	9 5 5 3
-0.60206	10 6 5 5
-0.60206	10 6 5 6
-0.30103	4 6 5 4
-0.90309	5 6 5 1
-0.90309	5 6 5 2
-0.90309	5 6 5 4
-0.90309	5 6 5 5
-0.7781513	6 6 5 3
-0.7781513	6 6 5 7
-0.7781513	6 6 5 </s>
-0.60206	7 6 5 4
-0.60206	7 6 5 </s>
-0.544068	8 6 5 5
-0.845098	8 6 5 6
-0.845098	8 6 5 </s>
-0.30103	9 6 5 6
-0.30103	5 7 5 7
-0.30103	6 7 5 5
-0.60206	7 7 5 4
-0.90309	7 7 5 5
-0.60206	7 7 5 </s>
-0.30103	9 7 5 6
-0.7781513	10 8 5 5
-0.7781513	10 8 5 6
-0.7781513	10 8 5 </s>
-0.30103	8 8 5 5
-0.30103	9 8 5 5
-0.30103	11 9 5 4
-0.30103	12 9 5 5
-0.30103	10 10 6 5
-0.69897	11 10 6 5
-0.39794	11 10 6 7
-0.30103	12 10 6 3
-0.30103	12 12 6 7
-0.30103	15 12 6 6
-0.30103	3 12 6 12
-0.30103	2 3 6 8
-0.30103	4 3 6 6
-1.20412	3 4 6 5
-1.20412	3 4 6 6
-0.30103	3 4 6 7
-0.90309	3 4 6 8
-0.8129134	4 4 6 6
-0.2688453	4 4 6 7
-1.113943	4 4 6 8
-0.30103	5 4 6 7
-0.30103	6 4 6 6
-0.60206	10 5 6 4
-0.60206	10 5 6 7
-0.30103	2 5 6 8
-0.6532125	3 5 6 7
-0.2552725	3 5 6 8
-1.39794	4 5 6 4
-0.79588	4 5 6 5
-0.9208187	4 5 6 6
-0.49485	4 5 6 7
-0.79588	4 5 6 8
-0.544068	5 5 6 6
-0.845098	5 5 6 7
-0.845098	5 5 6 8
-0.7781513	6 5 6 6
-0.7781513	6 5 6 7
-0.7781513	6 5 6 </s>
-0.30103	7 5 6 </s>
-0.30103	8 5 6 6
-0.30103	12 6 6 </s>
-0.30103	3 6 6 5
-0.7781513	4 6 6 6
-0.30103	4 6 6 8
-1.079181	5 6 6 5
-1.079181	5 6 6 6
-0.7781513	5 6 6 7
-0.7781513	5 6 6 8
-1.079181	5 6 6 </s>
-0.7781513	6 6 6 7
-0.30103	6 6 6 8
-0.4771213	7 6 6 6
-0.4771213	7 6 6 7
-0.60206	8 6 6 4
-0.60206	8 6 6 </s>
-0.60206	9 6 6 5
-0.60206	9 6 6 7
-0.39794	5 7 6 7
-0.69897	5 7 6 8
-0.1760913	6 7 6 6
-0.7781513	7 7 6 3
-0.7781513	7 7 6 6
-0.7781513	7 7 6 7
-0.7781513	8 7 6 4
-0.7781513	8 7 6 5
-0.7781513	8 7 6 6
-0.30103	9 7 6 5
-0.30103	10 8 6 5
-0.60206	11 8 6 5
-0.60206	11 8 6 6
-0.30103	14 8 6 5
-0.30103	6 8 6 8
-0.30103	7 8 6 3
-0.30103	8 8 6 4
-0.90309	9 8 6 5
-0.90309	9 8 6 6
-0.90309	9 8 6 7
-0.90309	9 8 6 </s>
-0.845098	10 9 6 3
-0.544068	10 9 6 4
-0.845098	10 9 6 5
-0.30103	12 9 6 6
-0.30103	13 9 6 6
-0.1249387	9 9 6 7
-0.30103	12 10 7 7
-0.30103	12 11 7 7
-0.30103	14 11 7 </s>
-0.30103	11 12 7 7
-0.30103	15 16 7 17
-0.30103	18 19 7 18
-0.30103	19 19 7 19
-0.30103	5 3 7 9
-0.30103	13 5 7 7
-0.30103	3 5 7 8
-0.6690068	4 5 7 6
-0.845098	4 5 7 7
-0.3679768	4 5 7 8
-0.60206	5 5 7 7
-0.60206	5 5 7 9
-0.30103	6 5 7 5
-0.30103	7 5 7 8
-0.1760913	10 6 7 8
-0.30103	12 6 7 </s>
-1.30103	4 6 7 4
-0.8239087	4 6 7 7
-0.455932	4 6 7 8
-0.60206	4 6 7 9
-1.20412	5 6 7 5
-0.1627273	5 6 7 8
-1.20412	5 6 7 9
-1	6 6 7 7
-0.69897	6 6 7 8
-1	6 6 7 9
-0.69897	6 6 7 </s>
-0.1249387	7 6 7 8
-0.30103	8 6 7 6
-0.7781513	9 6 7 4
-0.7781513	9 6 7 6
-0.7781513	9 6 7 7
-0.30103	10 7 7 7
-0.30103	11 7 7 5
-0.30103	12 7 7 5
-0.90309	5 7 7 6
-0.90309	5 7 7 7
-0.90309	5 7 7 8
-0.90309	5 7 7 9
-0.9542425	6 7 7 3
-0.9542425	6 7 7 5
-0.9542425	6 7 7 8
-0.6532125	6 7 7 9
-1.176091	7 7 7 5
-0.8750613	7 7 7 6
-0.4771213	7 7 7 7
-1.176091	7 7 7 8
-1.176091	7 7 7 9
-0.30103	8 7 7 7
-0.845098	9 7 7 5
-0.544068	9 7 7 7
-0.845098	9 7 7 8
-0.30103	14 8 7 8
-0.30103	6 8 7 7
-0.7781513	7 8 7 4
-0.7781513	7 8 7 6
-0.7781513	7 8 7 9
-0.4771213	8 8 7 6
-0.4771213	8 8 7 9
-0.1760913	9 8 7 </s>
-0.7781513	10 9 7 4
-0.7781513	10 9 7 6
-0.7781513	10 9 7 7
-0.30103	11 9 7 7
-0.30103	13 9 7 5
-0.60206	8 9 7 7
-0.60206	8 9 7 8
-0.7781513	9 9 7 1
-0.7781513	9 9 7 7
-0.7781513	9 9 7 8
-0.60206	10 10 8 4
-0.60206	10 10 8 5
-0.60206	11 10 8 6
-0.60206	11 10 8 9
-0.30103	12 10 8 </s>
-0.30103	14 10 8 5
-0.30103	16 10 8 4
-0.30103	9 10 8 5
-0.30103	11 11 8 6
-0.30103	14 11 8 6
-0.60206	13 14 8 6
-0.60206	13 14 8 7
-0.30103	10 3 8 9
-0.30103	3 6 8 9
-0.69897	4 6 8 6
-0.39794	4 6 8 9
-1.146128	5 6 8 10
-1.146128	5 6 8 8
-0.1918855	5 6 8 9
-0.7781513	6 6 8 10
-1.079181	6 6 8 7
-0.7781513	6 6 8 8
-0.60206	6 6 8 9
-0.30103	7 6 8 9
-0.30103	8 6 8 9
-0.5642715	5 7 8 10
-1.041393	5 7 8 8
-0.4393327	5 7 8 9
-0.6320232	6 7 8 10
-1.477121	6 7 8 6
-1.176091	6 7 8 7
-0.69897	6 7 8 8
-0.5228788	6 7 8 9
-0.7781513	7 7 8 7
-0.30103	7 7 8 9
-0.30103	8 7 8 8
-0.60206	9 7 8 10
-0.60206	9 7 8 9
-0.7781513	6 8 8 10
-0.7781513	6 8 8 7
-0.7781513	6 8 8 8
-1.079181	7 8 8 10
-0.7781513	7 8 8 7
-0.4771213	7 8 8 8
-1.079181	7 8 8 9
-1	8 8 8 10
-1.30103	8 8 8 18
-0.30103	8 8 8 8
-0.8239087	8 8 8 9
-1	9 8 8 5
-1	9 8 8 6
-1	9 8 8 7
-1	9 8 8 8
-1	9 8 8 9
-0.60206	10 9 8 5
-0.60206	10 9 8 </s>
-0.544068	11 9 8 6
-0.845098	11 9 8 8
-0.845098	11 9 8 9
-0.60206	12 9 8 8
-0.60206	12 9 8 9
-0.30103	16 9 8 7
-0.69897	8 9 8 6
-0.39794	8 9 8 8
-0.7781513	9 9 8 6
-0.7781513	9 9 8 7
-0.7781513	9 9 8 8
-0.30103	10 1 9 10
-0.69897	10 10 9 11
-0.39794	10 10 9 9
-0.30103	11 10 9 7
-0.7781513	11 10 9 </s>
-0.90309	12 10 9 10
-0.4259687	12 10 9 6
-0.90309	12 10 9 8
-0.7781513	13 10 9 10
-0.7781513	13 10 9 8
-0.7781513	13 10 9 9
-0.7781513	9 10 9 10
-0.7781513	9 10 9 11
-0.7781513	9 10 9 6
-0.39794	10 11 9 8
-0.69897	10 11 9 9
-0.60206	11 11 9 11
-0.60206	11 11 9 9
-0.60206	12 11 9 10
-0.60206	12 11 9 7
-0.30103	13 11 9 8
-0.30103	15 11 9 8
-0.30103	19 11 9 5
-0.30103	9 11 9 11
-0.30103	10 12 9 5
-0.30103	15 12 9 6
-0.30103	16 12 9 8
-0.30103	17 12 9 8
-0.30103	15 13 9 7
-0.30103	18 13 9 6
-0.30103	17 16 9 8
-0.30103	17 18 9 17
-0.30103	18 18 9 19
-0.30103	19 19 9 19
-0.30103	3 7 9 11
-0.30103	5 7 9 10
-0.1760913	6 7 9 10
-0.9542425	6 7 9 9
-0.544068	7 7 9 10
-0.845098	7 7 9 11
-0.845098	7 7 9 9
-0.69897	8 7 9 10
-0.39794	8 7 9 9
-0.30103	10 8 9 8
-0.30103	3 8 9 11
-0.3467875	6 8 9 10
-0.5228788	6 8 9 11
-1	6 8 9 9
-0.544068	7 8 9 10
-0.6232493	7 8 9 11
-1.021189	7 8 9 7
-0.7201593	7 8 9 9
-0.243038	8 8 9 11
-0.845098	8 8 9 8
-0.60206	9 8 9 8
-0.60206	9 8 9 9
-0.7781513	10 9 9 10
-0.7781513	10 9 9 6
-0.7781513	10 9 9 7
-0.60206	11 9 9 10
-0.60206	11 9 9 8
-0.845098	7 9 9 10
-0.845098	7 9 9 6
-0.544068	7 9 9 9
-0.7403627	8 9 9 11
-0.7403627	8 9 9 7
-1.041393	8 9 9 8
-0.7403627	8 9 9 9
-0.544068	9 9 9 10
-0.845098	9 9 9 6
-0.845098	9 9 9 8

\end\
