
\data\
ngram 1=22
ngram 2=192
ngram 3=357
ngram 4=408

\1-grams:
-1.182622	0	-1.384616
-1.294596	1	-1.118435
-1.345349	10	-1.841212
-1.327764	11	-1.073326
-1.249158	12	-0.9576461
-1.341775	13	-1.867245
-1.363677	14	-1.845526
-1.291414	15	-1.912594
-1.28512	16	-1.96768
-1.266767	17	-1.088187
-1.28512	18	-2.029322
-1.406945	19	-1.939396
-1.272799	2	-1.696784
-1.341775	3	-1.035714
-1.272799	4	-1.520209
-1.367437	5	-1.64535
-1.314191	6	-1.875528
-1.356253	7	-1.764351
-1.331225	8	-1.90345
-1.352588	9	-1.757916
-1.712132	</s>
-99	<s>	0.1387956

\2-grams:
-0.2369125	0 0	0.02357054
-1.015064	0 1	0.2414998
-2.597695	0 2	-0.1538025
-1.944483	0 3
-0.5553166	0 </s>
-0.3074641	1 0	-0.1291118
-0.5424743	1 1	0.02766585
-2.133539	1 10
-2.133539	1 14
-0.9574476	1 2	0.8855978
-2.485721	1 3	0.1040886
-1.832509	1 4
-1.656418	1 5	-0.3857911
-2.133539	1 7
-2.133539	1 </s>
-0.7439371	10 10	0.4526272
-0.8076062	10 11	0.01133645
-1.007179	10 12	-0.08009146
-1.132117	10 13	-0.08527084
-1.78533	10 14
-1.78533	10 15
-1.78533	10 16
-0.8310874	10 8	-0.2614678
-0.5422918	10 9	-0.0837571
-0.509306	11 10	-0.3498019
-0.6690068	11 11	0.3237842
-0.9864272	11 12	0.1960379
-1.100371	11 13	-0.3875661
-2.452553	11 14	-1.264705
-1.799341	11 15
-1.623249	11 16
-2.100371	11 17
-2.100371	11 19
-0.7201593	11 9	-0.3979401
-0.877947	12 10	-0.4394162
-0.6226745	12 11	-0.5166297
-0.4307889	12 12	-0.1261368
-1.002886	12 13	0.5047969
-1.480007	12 14	-0.2609527
-1.473376	12 15	-0.4555274
-2.531159	12 16	-0.01223442
-1.877947	12 17
-2.178977	12 3
-2.178977	12 5
-2.178977	12 6
-2.178977	12 </s>
-0.7281772	13 11	-0.04558402
-0.5101215	13 12	0.03400743
-0.6427471	13 13	-0.4907782
-0.9437771	13 14	0.5669501
-0.9437771	13 15	0.4713188
-1.788875	13 16
-1.788875	13 17	-0.2842362
-2.089905	13 18
-2.068186	14 11
-0.8129134	14 12	-0.1529468
-0.4347174	14 13	-0.07239151
-0.6532125	14 14	-0.2482728
-0.9542425	14 15	0.3023219
-1.113943	14 16	0.02113035
-1.369216	14 17	-1.266906
-2.068186	14 18
-2.139879	15 12
-1.139879	15 13	0.1036437
-0.4238757	15 14	0.5313213
-0.6485174	15 15	-0.6067548
-0.7596679	15 16	1.291718
-1.025936	15 17	0.3977513
-1.440909	15 18	-0.2155998
-2.139879	15 4
-2.146128	16 13
-1.243038	16 14	-0.8890411
-0.375276	16 15	-0.2330327
-0.6276141	16 16	0.3289718
-0.7147643	16 17	0.414196
-1.146128	16 18	-0.2312282
-2.146128	16 19
-2.161368	17 10
-2.161368	17 11
-2.161368	17 12
-2.161368	17 13
-2.513551	17 15	-0.04891816
-0.4054931	17 16	-0.1875556
-0.4453647	17 17	0.1104448
-0.8189453	17 18	0.8579689
-1.860338	17 19
-2.161368	17 7
-2.161368	17 9
-0.5126596	18 17	-0.6182287
-0.30103	18 18	0.1249384
-0.7659168	18 19	0.2923577
-2.146128	18 7
-2.146128	18 8
-0.5781478	19 18	-0.732394
-0.1560742	19 19	-0.1449559
-2.025306	19 7
-1.724276	19 9
-2.155336	2 0
-0.310238	2 1	-0.2855904
-0.4740948	2 2	-0.01116705
-1.041393	2 3	0.4908603
-1.449735	2 4	-0.122333
-1.678215	2 5	-0.3857911
-2.155336	2 </s>
-2.08636	3 0
-2.438542	3 1	-0.01474394
-2.08636	3 10
-2.08636	3 12
-0.3229318	3 2	-0.3862433
-0.6392018	3 3	-0.005504131
-0.8559109	3 4	-0.1878761
-1.38739	3 5	-0.1305186
-1.4843	3 6
-2.08636	3 7
-2.155336	4 0
-2.155336	4 11
-2.155336	4 12
-2.155336	4 15
-1.201094	4 2	0.4777443
-0.4310602	4 3	-0.2630095
-0.4925782	4 4	0.3261914
-0.9000635	4 5	0.3631699
-1.449735	4 6	-0.1697836
-1.553276	4 7	-0.09471475
-1.854306	4 8	-0.4486327
-2.064458	5 1
-1.587337	5 10
-2.064458	5 11
-2.064458	5 13
-2.064458	5 16
-2.064458	5 2
-1.023065	5 3	-1.389382
-0.4412087	5 4	0.1269074
-0.7220353	5 5	0.4612308
-0.8340091	5 6	0.1023146
-1.161368	5 7	0.01479939
-1.365488	5 8	-0.3416087
-1.763428	5 9
-1.418301	6 10	-0.2965746
-1.64015	6 12
-1.816241	6 3
-0.7370601	6 4	-0.5672978
-0.5262067	6 5	-0.0009757876
-0.7193313	6 6	0.6859089
-1.03809	6 7	-0.1371107
-1.075879	6 8	-0.1249592
-1.163029	6 9	-0.1585502
-2.075547	7 10
-1.774517	7 11
-2.075547	7 12
-2.075547	7 16
-1.774517	7 19
-2.075547	7 3
-0.845098	7 5	-0.2799343
-0.4223345	7 6	-0.4113527
-0.6441832	7 7	0.4103135
-1.034154	7 8	0.0982382
-1.075547	7 9	-0.1568458
-1.197281	8 10	-0.1231552
-1.799341	8 11
-1.799341	8 14	-0.2781671
-2.100371	8 3
-0.7024305	8 6	-0.4182572
-0.4983106	8 7	-0.3310883
-0.5952206	8 8	-0.002925098
-0.9242793	8 9	0.05453742
-2.079181	9 1
-0.8239087	9 10	0.2064288
-1.037789	9 11	0.003084481
-1.477121	9 12
-1.778151	9 13
-2.079181	9 16
-1.778151	9 18
-2.079181	9 19
-0.8750613	9 7	0.09648469
-0.4457128	9 8	0.05310893
-0.7781513	9 9	0.4900333
-1.113943	<s> 0	-0.1717715
-1.414973	<s> 1
-1.414973	<s> 10
-1.414973	<s> 11
-1.414973	<s> 12	-0.2758679
-1.414973	<s> 13
-1.414973	<s> 15
-2.068186	<s> 2	-0.1046588
-1.113943	<s> 3	-0.2358595
-1.113943	<s> 4	-0.1324657
-1.010403	<s> 5	-0.4108087
-2.068186	<s> 6	-0.4329471
-2.068186	<s> 7	-0.4479372
-1.414973	<s> 8
-1.716003	<s> 9

\3-grams:
-0.1221094	0 0 0	0.1532302
-1.804281	0 0 1	0.02990337
-1.70757	0 0 2
-1.70757	0 0 3
-0.8044802	0 0 </s>
-0.5473212	1 0 0	-0.2243959
-0.7846821	1 0 1	0.4730573
-1.555761	1 0 2
-0.3075609	1 0 </s>
-0.1445445	<s> 0 0	0.428174
-0.512405	0 1 0	-0.01272759
-0.7729334	0 1 1
-0.7729334	0 1 2
-0.7729334	0 1 3
-0.3606157	1 1 0	0.3068815
-0.5118834	1 1 1	0.4151141
-1.386746	1 1 2	-0.08055562
-1.290035	1 1 3
-1.133549	1 1 5	0.2946351
-0.2323142	2 1 0	-0.06932592
-0.5663444	2 1 1	0.1810364
-1.066947	2 1 2	-0.088136
-0.5078377	3 1 1	0.07959265
-1.072109	10 10 10	-0.01144459
-0.8849071	10 10 11	-0.04284026
-1.041393	10 10 12
-1.072109	10 10 8	0.2411252
-0.6243788	10 10 9	0.03151704
-0.8129134	11 10 10	-0.0986186
-0.8129134	11 10 11	-0.5882706
-1.290035	11 10 12	-0.2406251
-1.290035	11 10 13
-0.5910646	11 10 8	0.4335321
-0.5118834	11 10 9	0.3846315
-0.8435144	12 10 10	-0.06473922
-1	12 10 13	-0.1473048
-0.8435144	12 10 8	0.166115
-0.30103	12 10 9	0.1234947
-0.2414545	6 10 11
-0.60206	8 10 10
-0.60206	8 10 11
-0.797757	9 10 10
-0.9849589	9 10 11	-0.08436178
-1.050954	9 10 12	-0.0688853
-0.797757	9 10 13	-0.08173305
-0.797757	9 10 9
-0.5607097	10 11 11	0.1070233
-1.00844	10 11 12	-0.06199955
-0.9777236	10 11 13
-1.00844	10 11 9	0.2746482
-0.4771213	11 11 10	0.1283355
-1.16105	11 11 11	-0.1379915
-0.9738482	11 11 12	-0.1152942
-0.9738482	11 11 13	-0.08557615
-0.9738482	11 11 14	0.09978507
-1.16105	11 11 9	0.2746482
-0.4423591	12 11 10	0.5303372
-0.60206	12 11 11	0.01917519
-1.255273	12 11 12
-0.5563025	12 11 9	0.4185174
-0.2477845	13 11 10	0.2534866
-1.091414	13 11 11	0.04689972
-1.060698	13 11 13
-1.091414	13 11 9	-0.2552725
-0.5838771	9 11 10
-0.7403627	9 11 11
-0.7403627	9 11 12	-0.2467234
-0.7781513	10 12 11	-0.1193407
-0.8088676	10 12 13	-0.06704363
-0.8088676	10 12 15	0.09970205
-0.8436298	11 12 11	0.01213762
-0.8129134	11 12 12
-0.8436298	11 12 13	-0.08018133
-0.8129134	11 12 14	0.05618185
-1.477874	12 12 10
-1.290673	12 12 11	-0.05754744
-0.1571234	12 12 12	-0.4712655
-1.290673	12 12 13	-0.133476
-1.290673	12 12 16
-0.5383909	13 12 10	-0.1605889
-0.3756636	13 12 11	0.4500758
-1.375465	13 12 12	-0.07726727
-1.122268	13 12 13
-0.797757	14 12 10
-0.2552725	14 12 11	0.4883343
-0.9849589	14 12 12	0.3885476
-0.1760913	<s> 12 12
-0.496727	10 13 12	-0.006698534
-0.6839289	10 13 15	-0.06715938
-0.69897	11 13 11
-0.69897	11 13 12	-0.07655445
-0.5424845	11 13 14
-0.69897	11 13 15
-0.8750613	12 13 11
-0.9717725	12 13 12	-0.1108749
-0.9717725	12 13 13	0.3716636
-0.8750613	12 13 15
-0.4929155	13 13 12	0.3917184
-0.3679768	13 13 13	0.1651151
-0.9896425	13 13 14
-1.146128	13 13 15	-0.2518832
-0.5195251	14 13 11	-0.1213993
-0.5195251	14 13 12	0.04097056
-0.7303784	14 13 13	0.4533967
-0.9154246	14 13 14	-0.04563181
-1.332438	14 13 15
-0.69897	15 13 11	0.04781246
-0.7956812	15 13 12	-0.5505502
-0.3206357	11 14 15	-0.07425599
-0.3206357	11 14 16	-0.09743237
-0.2414545	12 14 14	-0.03320609
-0.845098	13 14 12
-0.9418092	13 14 13	-0.01069529
-0.845098	13 14 14	-0.103062
-0.6886125	13 14 15
-0.845098	13 14 16
-1.14466	14 14 12	0.222991
-0.4607309	14 14 13	0.3526163
-0.4149733	14 14 14	0.3672704
-1.113943	14 14 17	0.05618185
-0.7617608	15 14 12	0.4142495
-0.3357921	15 14 13	0.7870311
-0.8129134	15 14 14	0.1396538
-1.511685	15 14 15	0.008134469
-1.258488	15 14 16	-0.09743237
-1.414973	15 14 17
-0.60206	16 14 12	0.03826714
-0.4455745	16 14 13	-0.02613896
-0.4455745	16 14 14	-0.1501883
-0.1760913	8 14 13
-0.544068	12 15 17
-0.3875825	12 15 18	0.03936259
-0.845098	13 15 14
-0.6886125	13 15 15	-0.01334377
-0.8758144	13 15 16
-0.8758144	13 15 17	0.09979606
-0.6564278	14 15 14	0.08635916
-0.6564278	14 15 15	-0.01334377
-0.8436298	14 15 16	-0.09921411
-0.8129134	14 15 17
-0.4121805	15 15 14	0.2617733
-0.4913617	15 15 15	0.5802091
-0.7132105	15 15 16	-0.07512907
-1.190332	15 15 17
-0.8166095	16 15 13	-0.1614985
-0.323694	16 15 14	0.2288799
-0.770852	16 15 15	0.1453654
-0.867762	16 15 16	-0.2299187
-1.469822	16 15 17
-0.5078377	17 15 14	0.1010579
-0.4771213	17 15 15	-0.1013073
-0.4771213	12 16 15
-0.4771213	12 16 16
-0.6532125	14 16 16	-0.05067396
-0.7499237	14 16 17	-0.0361704
-0.9226957	15 16 14	0.01028162
-0.60206	15 16 15	-0.3626074
-1.109898	15 16 16	0.1340499
-1.175892	15 16 17	-0.006700285
-1.175892	15 16 18	0.715596
-1.2482	16 16 14	0.02371852
-0.3424227	16 16 15	-0.02329803
-0.615424	16 16 16	-0.006872654
-1.314195	16 16 17	0.02158689
-0.2645132	17 16 15	0.2763045
-0.5797836	17 16 16	0.05175829
-1.037831	17 16 17	0.1410197
-1.298359	17 16 18	0.2154538
-0.1760913	13 17 17
-0.2414545	14 17 17	0.08635916
-0.39794	14 17 18
-0.8436298	15 17 16	0.003434017
-0.8129134	15 17 17	-0.04507005
-0.3357921	15 17 18	0.1252692
-1.130334	16 17 15
-0.7133199	16 17 16	0.2386982
-0.5282738	16 17 17	0.2045314
-0.7133199	16 17 18	0.3131468
-1.258488	17 17 15	-0.02097505
-0.3357921	17 17 16	0.04708391
-0.4855544	17 17 17	-0.2548082
-1.44569	17 17 18	0.3295372
-0.3112492	18 17 16	-0.6077372
-0.3547148	18 17 17	0.338111
-1.332438	18 17 18	-0.1756127
-0.39794	15 18 18
-0.39794	15 18 19	0.2211978
-0.5424845	16 18 17	0.009197757
-0.2218488	16 18 18	0.1857575
-0.5642715	17 18 17	0.9122878
-0.30103	17 18 18	-0.1057796
-1.138104	17 18 19	0.198074
-0.4301247	18 18 17	0.04240394
-0.39794	18 18 18	0.09690988
-0.69897	18 18 19	-0.04520309
-0.6690068	19 18 17	-0.00623861
-0.1249387	19 18 18	-0.04766423
-0.6621674	18 19 18	0.07640511
-0.1497623	18 19 19	0.1368378
-0.5904781	19 19 18	0.5303355
-0.1532284	19 19 19	0.4478635
-1.568202	19 19 9
-0.4771213	0 2 1
-0.4771213	0 2 4
-0.9717725	1 2 1	-0.03851087
-0.9057777	1 2 2	0.1206859
-0.9057777	1 2 3	-0.05664086
-0.3590219	2 2 1	-0.09206676
-0.4024876	2 2 2	0.5160238
-1.223726	2 2 3
-1.223726	2 2 4	-0.04806115
-0.1952263	3 2 1	0.07631093
-0.5329791	3 2 2	-0.1512676
-1.462398	3 2 3
-0.496727	4 2 1
-0.6839289	4 2 2	0.08082822
-0.6532125	4 2 3
-0.3206357	<s> 2 2	-0.02521622
-0.4771213	1 3 2
-0.8129134	2 3 2
-0.6564278	2 3 3	-0.07775081
-0.8436298	2 3 4	0.1470149
-0.2710668	3 3 2	0.3047199
-1.242839	3 3 3	-0.09285294
-0.6690068	3 3 4	0.1731684
-1.146128	3 3 6
-1.519957	4 3 1	0.03194529
-0.2471546	4 3 2	0.470627
-0.5481846	4 3 3	-0.03296727
-1.423246	4 3 4
-0.1383027	5 3 2	0.8615668
-0.5838771	5 3 3	0.1507285
-0.30103	<s> 3 4	-0.2709665
-0.5747845	2 4 3	0.01530074
-0.544068	2 4 6
-0.9294189	3 4 2
-0.3273589	3 4 4	-0.02696559
-1.02613	3 4 5
-1.361728	4 4 2	-0.2131623
-0.5488145	4 4 3	0.06917334
-0.4074853	4 4 4	0.3165623
-1.205242	4 4 5
-1.205242	4 4 6
-1.392444	4 4 7	0.1718384
-1.352936	5 4 2	0.0100022
-0.2615215	5 4 3	0.1358443
-0.9052054	5 4 4	0.3261443
-0.9052054	5 4 5	-0.02861992
-0.30103	6 4 3	-0.2124358
-0.3802112	6 4 4	0.00532198
-0.30103	<s> 4 4
-0.1760913	1 5 5
-0.1760913	2 5 5
-0.39794	3 5 5
-1.050954	4 5 4	0.2444
-0.9849589	4 5 5	-0.0907543
-0.797757	4 5 6
-0.9542425	4 5 7	-0.2169556
-1.138104	5 5 4	0.2444
-1.138104	5 5 5	-0.09675771
-1.072109	5 5 6	-0.07877003
-1.041393	5 5 7
-0.8849071	5 5 8
-1.290035	6 5 10
-0.8730207	6 5 3	0.03861654
-0.2900346	6 5 4	0.0310415
-1.320751	6 5 5	-0.09638342
-1.133549	6 5 6
-0.1890562	7 5 4	-0.395867
-0.9294189	7 5 5
-0.3875825	<s> 5 6
-0.544068	<s> 5 7	-0.2169556
-0.544068	4 6 5
-0.544068	4 6 9	-0.2131623
-0.9294189	5 6 10
-0.9601353	5 6 5	-0.386659
-0.7729334	5 6 6
-0.9294189	5 6 7
-0.9601353	5 6 8
-1.127626	6 6 4	0.1048917
-0.6798961	6 6 5	0.1823836
-1.127626	6 6 6	-0.09555046
-1.127626	6 6 7	-0.05001029
-1.09691	6 6 8
-1.09691	6 6 9
-1.352183	7 6 10	0.05618185
-0.4490925	7 6 4	-0.1249387
-0.5392691	7 6 5	-0.06311217
-0.8750613	7 6 6	-0.03769214
-1.195697	7 6 7	-0.06389079
-1.195697	7 6 9	-0.07744884
-0.9404245	8 6 4	0.1185438
-0.3565473	8 6 5	0.04414123
-0.49485	8 6 6	-0.0679969
-0.4771213	<s> 6 5
-0.3206357	<s> 6 6
-0.30103	4 7 6
-0.6987712	5 7 7
-0.6216657	6 7 5	0.2082382
-0.7781513	6 7 6
-0.6216657	6 7 7	0.01842868
-0.6216657	6 7 8	-0.1018766
-1.16105	7 7 5	0.3231062
-1.227045	7 7 6	0.06124869
-0.4313638	7 7 7	0.04873143
-1.16105	7 7 9
-0.69897	8 7 5	0.03869069
-0.20412	8 7 6	0.1074563
-1.331746	8 7 7
-1.30103	8 7 9
-0.4860761	9 7 6	-0.02070649
-0.9338064	9 7 7	-0.102649
-0.7466044	9 7 8	-0.1018766
-0.3206357	<s> 7 6	-0.1203383
-0.4771213	<s> 7 8	-0.2267652
-0.797757	10 8 6	-0.01499507
-0.2138798	10 8 7	0.14858
-0.9849589	10 8 8	0.1718384
-0.1760913	4 8 10
-0.2414545	5 8 10
-0.7403627	6 8 11
-0.7710791	6 8 9	-0.07158219
-0.5838771	7 8 7	0.2434826
-0.7710791	7 8 8	-0.004252806
-0.7403627	7 8 9
-1.047634	8 8 6	-0.01499507
-0.60206	8 8 7	0.01236174
-0.30103	8 8 8	-0.30103
-1.300831	8 8 9	-0.007951878
-0.4030195	9 8 6	0.4260378
-0.4030195	9 8 7	0.09394872
-1.42915	9 8 8	0.1714642
-1.332438	9 8 9
-1.086553	10 9 10
-0.544068	10 9 7	-0.1376128
-0.3679768	10 9 8	-0.460788
-1.339749	10 9 9	-0.05762082
-1.09691	11 9 10
-1.09691	11 9 11
-1.09691	11 9 7
-0.19382	11 9 8	0.202396
-1.09691	11 9 9	-0.1824279
-0.6839289	6 9 10	-0.1286012
-0.496727	6 9 9
-0.5424845	7 9 10	-0.1965981
-0.69897	7 9 8	-0.09542027
-0.5424845	7 9 9	-0.05099866
-0.8750613	8 9 10
-0.9057777	8 9 11	0.001981348
-0.8750613	8 9 12
-0.7185757	8 9 8
-0.7185757	8 9 9
-0.8435144	9 9 10	-0.107122
-1	9 9 11
-1.030716	9 9 7	-0.04341631
-0.5829861	9 9 8	0.128763
-1.030716	9 9 9	-0.1238815

\4-grams:
-0.08715018	0 0 0 0
-1.775988	0 0 0 1
-1.873977	0 0 0 2
-1.873977	0 0 0 3
-1.041393	0 0 0 </s>
-0.2787536	1 0 0 0
-0.3756636	1 0 0 </s>
-0.4646072	<s> 0 0 0
-0.832584	0 1 0 0
-0.7345954	0 1 0 2
-0.5390685	1 1 0 0
-1.217935	1 1 0 1
-0.2762064	1 1 0 </s>
-0.5713912	2 1 0 0
-0.9214034	2 1 0 1
-0.251056	2 1 0 </s>
-0.5884674	0 0 1 0
-0.9308901	1 0 1 0
-0.9308901	1 0 1 1
-1.028879	1 0 1 2
-0.9308901	1 0 1 3
-0.9686786	1 1 1 0
-0.6479905	1 1 1 1
-0.9686786	1 1 1 2
-0.2787536	2 1 1 0
-0.8475628	2 1 1 1
-1.26624	2 1 1 5
-0.4915574	3 1 1 0
-0.6864559	1 2 1 1
-0.6864559	1 2 1 2
-0.3679768	2 2 1 0
-0.3222193	2 2 1 1
-1.309705	2 2 1 2
-0.1210437	3 2 1 0
-1.137011	3 2 1 1
-0.5884674	4 3 1 1
-0.5895459	10 10 10 9
-0.7656372	11 10 10 10
-0.7656372	11 10 10 12
-0.4646072	12 10 10 9
-0.9417284	11 11 10 8
-0.5230517	11 11 10 9
-0.5118834	12 11 10 10
-1.101429	12 11 10 11
-1.003441	12 11 10 8
-1.101429	12 11 10 9
-1.101429	13 11 10 11
-0.6827525	13 11 10 8
-0.6827525	13 11 10 9
-0.9308901	13 12 10 8
-0.1962947	13 12 10 9
-0.2885159	7 6 10 11
-0.4915574	6 9 10 12
-0.3666186	7 9 10 11
-0.4646072	9 9 10 10
-0.4646072	10 10 11 11
-0.7656372	11 10 11 11
-0.1760913	11 10 11 9
-0.5895459	9 10 11 12
-0.832584	10 11 11 10
-0.4915574	11 11 11 9
-0.5230517	12 11 11 10
-0.9417284	12 11 11 12
-0.5895459	13 11 11 10
-0.2885159	10 12 11 10
-0.5895459	11 12 11 9
-0.4646072	12 12 11 11
-0.3590219	13 12 11 10
-1.093617	13 12 11 11
-0.7729292	13 12 11 9
-0.8894974	14 12 11 10
-0.39794	14 12 11 11
-0.8894974	14 12 11 9
-0.2108534	14 13 11 10
-1.003441	14 13 11 11
-1.101429	14 13 11 9
-0.2885159	15 13 11 10
-0.5895459	8 9 11 10
-0.2885159	11 10 12 13
-0.6864559	9 10 12 13
-0.6864559	9 10 12 15
-0.5895459	10 11 12 11
-0.4646072	11 11 12 11
-0.2885159	9 11 12 13
-0.04699656	12 12 12 12
-0.6864559	13 12 12 16
-0.5895459	14 12 12 12
-0.3666186	10 13 12 11
-0.2885159	11 13 12 11
-0.5884674	12 13 12 12
-0.8437399	13 13 12 10
-0.8437399	13 13 12 11
-0.5118834	14 13 12 10
-0.4225629	14 13 12 11
-1.101429	14 13 12 13
-0.09691001	15 13 12 10
-0.5895459	14 14 12 11
-0.9417284	15 14 12 10
-0.5230517	15 14 12 11
-0.9417284	15 14 12 12
-0.2885159	16 14 12 11
-0.2885159	12 10 13 12
-0.4646072	9 10 13 15
-0.4646072	11 11 13 15
-0.5895459	10 12 13 15
-0.5895459	11 12 13 12
-0.4646072	12 12 13 13
-0.6864559	12 13 13 12
-0.6864559	12 13 13 13
-0.6479905	13 13 13 12
-0.3878008	13 13 13 13
-0.8905759	14 13 13 12
-0.7925873	14 13 13 13
-0.6864559	13 14 13 13
-0.9417284	14 14 13 11
-0.5230517	14 14 13 12
-0.9417284	14 14 13 13
-0.4771213	15 14 13 11
-0.6888308	15 14 13 12
-1.269709	15 14 13 13
-0.9490204	15 14 13 14
-1.367697	15 14 13 15
-0.4646072	16 14 13 11
-0.9417284	16 15 13 11
-0.3521825	16 15 13 12
-0.4646072	11 11 14 16
-0.2885159	11 12 14 14
-0.832584	14 13 14 12
-0.7345954	14 13 14 13
-0.3666186	12 14 14 14
-0.2885159	13 14 14 14
-0.5688092	14 14 14 13
-0.9874859	14 14 14 14
-0.30103	15 14 14 13
-0.8905759	15 14 14 14
-0.4646072	16 14 14 12
-0.4646072	14 15 14 13
-0.9686786	15 15 14 12
-0.6479905	15 15 14 13
-1.015967	16 15 14 12
-0.3332147	16 15 14 13
-1.015967	16 15 14 14
-1.434644	16 15 14 15
-0.5895459	17 15 14 13
-0.5895459	17 15 14 14
-0.4646072	15 16 14 13
-0.4915574	16 16 14 14
-0.5895459	10 12 15 18
-0.5895459	10 13 15 16
-0.2885159	13 13 15 17
-0.4646072	11 14 15 14
-0.6864559	15 14 15 15
-0.4646072	13 15 15 15
-0.4646072	14 15 15 15
-0.8894974	15 15 15 14
-0.9874859	15 15 15 15
-0.39794	15 15 15 16
-0.3086196	16 15 15 14
-0.9874859	16 15 15 15
-0.2885159	17 15 15 14
-0.7656372	15 16 15 13
-0.1760913	15 16 15 14
-0.7449005	16 16 15 13
-0.3309932	16 16 15 14
-1.478848	17 16 15 13
-0.3152704	17 16 15 14
-0.8893017	17 16 15 15
-0.6462637	17 16 15 16
-0.4646072	17 17 15 14
-0.4646072	11 14 16 17
-0.4646072	15 14 16 17
-0.5895459	14 15 16 17
-0.6676486	15 15 16 18
-0.8905759	16 15 16 14
-0.30103	16 15 16 15
-0.2885159	14 16 16 15
-0.5895459	15 16 16 15
-0.8905759	16 16 16 14
-0.30103	16 16 16 15
-0.8905759	16 16 16 16
-0.7449005	17 16 16 15
-0.5740313	17 16 16 16
-0.5740313	17 16 16 17
-0.5895459	15 17 16 16
-0.7345954	16 17 16 15
-0.7345954	16 17 16 17
-0.3388186	17 17 16 15
-0.4259687	17 17 16 16
-1.269709	17 17 16 17
-0.1180993	18 17 16 15
-0.7201593	18 17 16 16
-0.2885159	14 14 17 17
-0.4915574	13 15 17 18
-0.5884674	14 16 17 16
-0.6864559	15 16 17 16
-0.5884674	16 16 17 17
-0.6864559	16 16 17 18
-0.832584	17 16 17 16
-0.832584	17 16 17 17
-0.4646072	14 17 17 16
-0.2885159	15 17 17 16
-0.30103	16 17 17 16
-0.7925873	16 17 17 17
-0.3273589	17 17 17 16
-0.3853509	17 17 17 17
-0.3756636	18 17 17 16
-0.8475628	18 17 17 17
-1.26624	18 17 17 18
-0.3666186	16 18 17 17
-0.6676486	17 18 17 16
-0.6676486	17 18 17 17
-0.1845244	18 18 17 16
-0.5698753	18 18 17 17
-0.3469605	19 18 17 17
-0.4646072	12 15 18 18
-0.6864559	15 16 18 17
-0.6864559	15 16 18 18
-0.4646072	17 16 18 18
-0.6676486	15 17 18 18
-0.6676486	15 17 18 19
-0.832584	16 17 18 17
-0.4139073	16 17 18 18
-0.5895459	17 17 18 17
-0.5895459	17 17 18 18
-0.2885159	18 17 18 17
-0.6676486	16 18 18 18
-0.7656372	16 18 18 19
-1.028879	17 18 18 17
-0.1383027	17 18 18 18
-0.544068	18 18 18 17
-0.4057654	18 18 18 18
-0.544068	18 18 18 19
-0.1760913	19 18 18 17
-0.8910285	19 18 18 18
-0.1537176	18 19 18 18
-0.8475628	19 19 18 17
-0.1326256	19 19 18 18
-0.2885159	15 18 19 19
-0.2677792	17 18 19 19
-0.5740313	18 18 19 18
-0.1760913	18 18 19 19
-0.6532125	18 19 19 18
-0.1413292	18 19 19 19
-0.5698753	19 19 19 18
-0.1719353	19 19 19 19
-1.703489	19 19 19 9
-0.5884674	1 1 2 1
-0.7656372	2 1 2 2
-0.6676486	2 1 2 3
-0.5895459	1 2 2 1
-0.4336556	2 2 2 1
-0.4336556	2 2 2 2
-1.26624	2 2 2 3
-1.26624	2 2 2 4
-0.3273589	3 2 2 1
-0.3853509	3 2 2 2
-0.4915574	4 2 2 1
-0.3666186	<s> 2 2 2
-0.2730013	3 3 2 1
-0.4847108	3 3 2 2
-0.154902	4 3 2 1
-0.7857408	4 3 2 2
-1.464607	4 3 2 3
-0.4718992	5 3 2 1
-0.7925873	5 3 2 2
-0.2885159	4 4 2 2
-0.5895459	5 4 2 1
-0.5895459	5 4 2 2
-0.5895459	1 2 3 2
-0.4646072	2 3 3 4
-0.6864559	3 3 3 3
-0.6864559	3 3 3 4
-0.1760913	4 3 3 2
-1.065589	4 3 3 3
-1.163577	4 3 3 4
-0.4646072	5 3 3 2
-0.5895459	2 4 3 3
-0.2108534	4 4 3 2
-0.6827525	4 4 3 3
-1.251225	5 4 3 1
-0.2477845	5 4 3 2
-0.6703474	5 4 3 3
-1.066667	6 4 3 1
-0.1760913	6 4 3 2
-0.1537176	6 5 3 2
-0.4646072	2 2 4 3
-0.5895459	2 3 4 4
-0.7656372	3 3 4 2
-0.6676486	3 3 4 4
-0.2885159	<s> 3 4 5
-0.4718992	3 4 4 4
-0.8905759	3 4 4 7
-0.5638921	4 4 4 3
-0.8240817	4 4 4 4
-1.242758	4 4 4 6
-1.242758	4 4 4 7
-0.832584	5 4 4 3
-0.832584	5 4 4 4
-0.832584	5 4 4 5
-0.5688092	6 4 4 3
-0.39794	6 4 4 4
-0.6864559	4 5 4 3
-0.6864559	5 5 4 3
-1.190527	6 5 4 2
-0.30103	6 5 4 3
-0.69897	6 5 4 4
-1.190527	6 5 4 5
-0.08715018	7 5 4 3
-0.5895459	6 6 4 4
-0.30103	7 6 4 3
-0.3590219	7 6 4 4
-0.4646072	8 6 4 3
-0.4646072	1 1 5 5
-0.832584	5 4 5 4
-0.5895459	4 5 5 6
-0.5884674	5 5 5 4
-0.5895459	6 5 5 5
-0.09691001	5 6 5 4
-0.7345954	6 6 5 4
-0.832584	6 6 5 5
-1.101429	7 6 5 3
-0.2108534	7 6 5 4
-0.6102019	8 6 5 3
-0.4393327	8 6 5 4
-0.3666186	6 7 5 4
-0.5895459	7 7 5 4
-0.2117095	8 7 5 4
-0.5895459	5 5 6 8
-0.5895459	6 6 6 7
-0.7656372	7 6 6 5
-0.7656372	7 6 6 7
-0.7925873	8 6 6 4
-0.8905759	8 6 6 5
-0.7925873	8 6 6 6
-0.5884674	7 7 6 4
-1.385426	8 7 6 10
-0.552842	8 7 6 4
-0.3565473	8 7 6 5
-1.385426	8 7 6 6
-1.287437	8 7 6 7
-0.4139073	9 7 6 4
-0.4646072	<s> 7 6 6
-0.4646072	10 8 6 6
-0.4646072	8 8 6 6
-1.217935	9 8 6 4
-0.2762064	9 8 6 5
-1.119946	9 8 6 6
-0.5895459	4 4 7 6
-0.2885159	4 5 7 7
-0.2885159	<s> 5 7 7
-0.5895459	6 6 7 6
-0.4646072	7 6 7 5
-0.4646072	6 7 7 7
-0.5688092	7 7 7 7
-0.9874859	7 7 7 9
-0.5895459	9 7 7 6
-0.9308901	10 8 7 5
-0.1962947	10 8 7 6
-0.4646072	7 8 7 6
-0.2117095	8 8 7 6
-0.6283889	9 8 7 5
-0.2762064	9 8 7 6
-1.119946	9 8 7 7
-0.3086196	10 9 7 6
-0.9874859	10 9 7 7
-0.5895459	9 9 7 8
-0.4915574	10 10 8 7
-0.8894974	11 10 8 6
-0.39794	11 10 8 7
-0.8894974	11 10 8 8
-0.3666186	12 10 8 7
-0.4646072	6 7 8 8
-0.4646072	9 7 8 8
-0.2885159	<s> 7 8 9
-0.5895459	10 8 8 8
-0.5895459	7 8 8 7
-0.60206	8 8 8 7
-0.20412	8 8 8 8
-0.5884674	9 8 8 8
-0.2218488	10 9 8 6
-0.4847108	10 9 8 7
-0.5127395	11 9 8 6
-0.7729292	11 9 8 7
-0.60206	11 9 8 8
-0.2885159	7 9 8 7
-0.832584	9 9 8 6
-0.243038	9 9 8 7
-0.4139073	10 10 9 8
-0.6479905	11 10 9 7
-0.9686786	11 10 9 8
-1.066667	11 10 9 9
-0.8894974	12 10 9 7
-0.3086196	12 10 9 8
-0.4915574	10 11 9 8
-0.4915574	11 11 9 8
-0.9874859	12 11 9 7
-0.5688092	12 11 9 8
-0.9874859	12 11 9 9
-0.09691001	13 11 9 8
-0.2885159	4 6 9 10
-0.3666186	7 6 9 9
-0.5895459	6 8 9 11
-0.6864559	8 8 9 8
-0.6864559	10 9 9 9
-0.2885159	11 9 9 8
-0.4646072	7 9 9 8
-0.5895459	9 9 9 7
-0.5895459	9 9 9 8

\end\
