
\data\
ngram 1=23
ngram 2=192
ngram 3=357
ngram 4=408

\1-grams:
-1.186012	0	-1.443574
-1.297986	1	-0.8968835
-1.348739	10	-0.9171048
-1.331154	11	-0.8543026
-1.252548	12	-0.789618
-1.345165	13	-0.9904493
-1.367067	14	-0.9699277
-1.294804	15	-1.033309
-1.28851	16	-1.14252
-1.270157	17	-0.8270778
-1.28851	18	-1.343628
-1.410335	19	-1.350195
-1.276188	2	-1.158106
-1.345165	3	-0.8180944
-1.276188	4	-0.7991797
-1.370827	5	-0.5796097
-1.317581	6	-0.9495361
-1.359643	7	-0.7615241
-1.334615	8	-1.025775
-1.355978	9	-0.7549695
-1.715521	</s>
-99	<s>	-0.07397813
-2.109307	<unk>

\2-grams:
-0.2490784	0 0	0.2282948
-1.02723	0 1	0.3213279
-1.479527	0 2	0.09091969
-1.956649	0 3
-0.5674825	0 </s>
-0.3382781	1 0	0.1633823
-0.5732883	1 1	0.01575023
-2.164353	1 10
-2.164353	1 14
-0.9882616	1 2	0.4414059
-1.386202	1 3	0.164192
-1.863323	1 4
-1.687232	1 5	-0.1399447
-2.164353	1 7
-2.164353	1 </s>
-0.7715207	10 10	0.2255766
-0.8351898	10 11	-0.1537028
-1.034762	10 12	-0.1943526
-1.159701	10 13	-0.1139434
-1.812913	10 14
-1.812913	10 15
-1.812913	10 16
-0.8586708	10 8	-0.277549
-0.5698753	10 9	-0.1142645
-0.5424743	11 10	0.1781842
-0.7021751	11 11	0.274701
-1.019596	11 12	0.02749619
-1.133539	11 13	0.1032195
-1.355388	11 14	-0.5172384
-1.832509	11 15
-1.656418	11 16
-2.133539	11 17
-2.133539	11 19
-0.7533277	11 9	0.008092761
-0.9111576	12 10	-0.06069785
-0.6558851	12 11	-0.1051343
-0.4639996	12 12	0.03609633
-1.036096	12 13	0.1597009
-1.513218	12 14	-0.1019244
-1.36709	12 15	-0.2056771
-1.434036	12 16	0.2101104
-1.911158	12 17
-2.212188	12 3
-2.212188	12 5
-2.212188	12 6
-2.212188	12 </s>
-0.7522155	13 11	-0.2520673
-0.5341598	13 12	0.002672613
-0.6667853	13 13	-0.07074809
-0.9678153	13 14	0.3375469
-0.9678153	13 15	0.2628255
-1.812913	13 16
-1.812913	13 17	-0.30103
-2.113943	13 18
-2.093422	14 11
-0.8381492	14 12	-0.1388352
-0.4599532	14 13	0.01772869
-0.6784483	14 14	-0.1249386
-0.9794784	14 15	0.2863067
-1.139179	14 16	-0.1059377
-1.394452	14 17	-0.2647573
-2.093422	14 18
-2.161368	15 12
-1.161368	15 13	0.002092987
-0.4453647	15 14	0.2256597
-0.6700063	15 15	-0.0147233
-0.7811568	15 16	0.5780873
-1.047425	15 17	0.2637056
-1.462398	15 18	0.1583625
-2.161368	15 4
-2.164353	16 13
-1.261263	16 14	-0.03905141
-0.3935008	16 15	0.1199753
-0.6458389	16 16	0.08396697
-0.7329891	16 17	0.382892
-1.164353	16 18	0.1551174
-2.164353	16 19
-2.193125	17 10
-2.193125	17 11
-2.193125	17 12
-2.193125	17 13
-1.414973	17 15	-0.2330837
-0.4372497	17 16	-0.08033651
-0.4771213	17 17	0.2154009
-0.8507019	17 18	0.3924454
-1.892095	17 19
-2.193125	17 7
-2.193125	17 9
-0.5248941	18 17	-0.1779433
-0.3132645	18 18	0.2833009
-0.7781513	18 19	0.07838511
-2.158362	18 7
-2.158362	18 8
-0.5902685	19 18	-0.2223009
-0.1681948	19 19	0.1453316
-2.037426	19 7
-1.736397	19 9
-2.176091	2 0
-0.3309932	2 1	-0.07868516
-0.49485	2 2	0.2676064
-1.062148	2 3	0.3985386
-1.330993	2 4	-0.1835472
-1.69897	2 5	-0.1399447
-2.176091	2 </s>
-2.120574	3 0
-1.342423	3 1	-0.1203034
-2.120574	3 10
-2.120574	3 12
-0.3571459	3 2	-0.05690467
-0.6734159	3 3	-0.180456
-0.890125	3 4	-0.2182889
-1.421604	3 5	-0.02724038
-1.518514	3 6
-2.120574	3 7
-2.187521	4 0
-2.187521	4 11
-2.187521	4 12
-2.187521	4 15
-1.233278	4 2	0.2952778
-0.4632449	4 3	-0.2264307
-0.5247629	4 4	0.2958905
-0.9322482	4 5	0.1803533
-1.342423	4 6	0.007882148
-1.585461	4 7	0.04018238
-1.886491	4 8	-0.4501796
-2.10721	5 1
-1.630089	5 10
-2.10721	5 11
-2.10721	5 13
-2.10721	5 16
-2.10721	5 2
-1.065817	5 3	-0.3550973
-0.4839607	5 4	-0.1535838
-0.7647873	5 5	0.1400025
-0.876761	5 6	0.04494816
-1.20412	5 7	-0.1320937
-1.40824	5 8	-0.1771784
-1.80618	5 9
-1.444045	6 10	-0.1354996
-1.665894	6 12
-1.841985	6 3
-0.7628036	6 4	-0.2218487
-0.5519502	6 5	-0.04200912
-0.7450748	6 6	0.3457472
-1.063834	6 7	0.1958941
-1.101622	6 8	-0.1166976
-1.188772	6 9	-0.1856366
-2.11059	7 10
-1.80956	7 11
-2.11059	7 12
-2.11059	7 16
-1.80956	7 19
-2.11059	7 3
-0.8801408	7 5	-0.06069785
-0.4573772	7 6	0.0207988
-0.6792259	7 7	0.1685817
-1.069197	7 8	0.1020719
-1.11059	7 9	0.09275407
-1.220762	8 10	0.0184253
-1.822822	8 11
-1.822822	8 14	-0.2921846
-2.123852	8 3
-0.7259116	8 6	-0.1016746
-0.5217916	8 7	-0.2415928
-0.6187016	8 8	-0.1526103
-0.9477604	8 9	0.1053432
-2.113943	9 1
-0.8586708	9 10	-0.06732839
-1.072551	9 11	0.1637843
-1.511883	9 12
-1.812913	9 13
-2.113943	9 16
-1.812913	9 18
-2.113943	9 19
-0.9098234	9 7	-0.02928936
-0.4804749	9 8	0.01452637
-0.8129134	9 9	0.07255071
-1.224015	<s> 0	0.0590215
-1.525045	<s> 1
-1.525045	<s> 10
-1.525045	<s> 11
-1.525045	<s> 12	-0.2943174
-1.525045	<s> 13
-1.525045	<s> 15
-1.047924	<s> 2	0.01258914
-1.224015	<s> 3	-0.08625196
-1.224015	<s> 4	0.007968932
-0.9809768	<s> 5	-0.1688687
-1.047924	<s> 6	-0.08422902
-1.047924	<s> 7	-0.1049157
-1.525045	<s> 8
-1.826075	<s> 9

\3-grams:
-0.142893	0 0 0	0.1155701
-1.330414	0 0 1	-0.03778856
-1.728354	0 0 2
-1.728354	0 0 3
-0.8252638	0 0 </s>
-0.5725048	1 0 0	0.1428931
-0.8098657	1 0 1	-0.009759843
-1.249198	1 0 2
-0.3327444	1 0 </s>
-0.30103	<s> 0 0	0.3304138
-0.4973246	0 1 0	-0.0932243
-0.8653014	0 1 1
-0.8653014	0 1 2
-0.8653014	0 1 3
-0.4130037	1 1 0	0.1242596
-0.5642715	1 1 1	0.1383027
-0.9444827	1 1 2	-0.07918125
-1.342423	1 1 3
-1.166331	1 1 5	0
-0.2737069	2 1 0	-0.00607425
-0.6077371	2 1 1	0.02915823
-1.108339	2 1 2	-0.1303338
-0.3521825	3 1 1	-0.08894107
-0.860338	10 10 10	-0.02615273
-0.9852768	10 10 11	-0.07918125
-1.161368	10 10 12
-0.860338	10 10 8	0.02118933
-0.6173	10 10 9	-0.1032195
-0.8846066	11 10 10	-0.1211786
-0.8846066	11 10 11	-0.350248
-1.361728	11 10 12	-0.3606157
-1.361728	11 10 13
-0.6627578	11 10 8	0.2082761
-0.5835766	11 10 9	0.1860403
-0.9378521	12 10 10	-0.1018734
-1.113943	12 10 13	-0.3631779
-0.9378521	12 10 8	-0.2798407
-0.4149733	12 10 9	-0.1032195
-0.4259687	6 10 11
-0.845098	8 10 10
-0.845098	8 10 11
-0.8846066	9 10 10
-0.7596679	9 10 11	-0.07040733
-0.6627578	9 10 12	-0.02482358
-0.8846066	9 10 13	-0.06214792
-0.8846066	9 10 9
-0.552842	10 11 11	0.06098823
-0.79588	10 11 12	-0.03698356
-1.09691	10 11 13
-0.79588	10 11 9	0.04742467
-0.5772364	11 11 10	-0.05324548
-0.9294189	11 11 11	-0.2466723
-1.054358	11 11 12	-0.1127043
-1.054358	11 11 13	-0.1597009
-1.054358	11 11 14	-0.01772878
-0.9294189	11 11 9	0.04742467
-0.509306	12 11 10	0.207913
-0.6690068	12 11 11	-0.1467359
-1.322219	12 11 12
-0.6232493	12 11 9	0.06099743
-0.3174204	13 11 10	-0.1239935
-0.8293038	13 11 11	-0.01258914
-1.130334	13 11 13
-0.8293038	13 11 9	-0.3505154
-0.7781513	9 11 10
-0.9542425	9 11 11
-0.9542425	9 11 12	-0.3679768
-0.9294189	10 12 11	-0.31627
-0.6283889	10 12 13	-0.1003706
-0.6283889	10 12 15	-0.00782536
-0.6532125	11 12 11	-0.02802873
-0.9542425	11 12 12
-0.6532125	11 12 13	-0.02118932
-0.9542425	11 12 14	-0.2730013
-1.210853	12 12 10
-1.335792	12 12 11	-0.1171134
-0.2218488	12 12 12	-0.2912702
-1.335792	12 12 13	-0.09691003
-1.335792	12 12 16
-0.6118198	13 12 10	-0.243038
-0.4490925	13 12 11	0.02118933
-0.9542425	13 12 12	-0.08862281
-1.176091	13 12 13
-0.8653014	14 12 10
-0.3424227	14 12 11	-0.01357275
-0.7403627	14 12 12	0.251812
-0.1760913	<s> 12 12
-0.6368221	10 13 12	-0.4112455
-0.5118834	10 13 15	-0.0434657
-0.8750613	11 13 11
-0.8750613	11 13 12	-0.2863067
-0.69897	11 13 14
-0.8750613	11 13 15
-1	12 13 11
-0.60206	12 13 12	-0.1529675
-0.60206	12 13 13	0.1165056
-1	12 13 15
-0.5772364	13 13 12	0.154902
-0.4522977	13 13 13	-0.1564957
-1.054358	13 13 14
-1.230449	13 13 15	-0.3744589
-0.5672979	14 13 11	-0.07378626
-0.5672979	14 13 12	-0.05435768
-0.7781513	14 13 13	0.2066822
-0.8361432	14 13 14	-0.06366907
-1.380211	14 13 15
-0.8750613	15 13 11	-0.1918855
-0.4771213	15 13 12	-0.2462432
-0.4259687	11 14 15	-0.1426675
-0.4259687	11 14 16	-0.01099539
-0.4259687	12 14 14	-0.4329176
-0.9777236	13 14 12
-0.5797836	13 14 13	-0.02996324
-0.9777236	13 14 14	-0.3079789
-0.8016323	13 14 15
-0.9777236	13 14 16
-0.8893017	14 14 12	0.1171134
-0.5371192	14 14 13	-0.06694674
-0.4913617	14 14 14	0.1391792
-1.190332	14 14 17	-0.2340832
-0.8166095	15 14 12	0.04139268
-0.3906408	15 14 13	0.2188432
-0.867762	15 14 14	0.1111504
-1.071882	15 14 15	-0.02996324
-1.293731	15 14 16	-0.01099539
-1.469822	15 14 17
-0.7403627	16 14 12	-0.2138799
-0.5642715	16 14 13	-0.08467557
-0.5642715	16 14 14	-0.1618508
-0.1760913	8 14 13
-0.7403627	12 15 17
-0.5642715	12 15 18	-0.09691003
-0.9777236	13 15 14
-0.8016323	13 15 15	-0.0805196
-0.6766936	13 15 16
-0.6766936	13 15 17	-0.1119737
-0.7781513	14 15 14	0.00493522
-0.7781513	14 15 15	-0.0805196
-0.6532125	14 15 16	-0.0669468
-0.9542425	14 15 17
-0.4771213	15 15 14	0.1006062
-0.5563025	15 15 15	0.2060544
-0.7781513	15 15 16	-0.07572071
-1.255273	15 15 17
-0.8653014	16 15 13	0.0299632
-0.3723859	16 15 14	0.1128407
-0.819544	16 15 15	0.04219767
-0.916454	16 15 16	-0.146128
-1.518514	16 15 17
-0.30103	17 15 14	-0.137633
-0.60206	17 15 15	-0.30103
-0.69897	12 16 15
-0.69897	12 16 16
-0.8129134	14 16 16	-0.2590655
-0.4149733	14 16 17	-0.1040048
-1	15 16 14	-0.08354607
-0.69897	15 16 15	-0.244914
-0.8750613	15 16 16	0.07192771
-0.7781513	15 16 17	-0.009029321
-0.7781513	15 16 18	0.2108534
-0.9777236	16 16 14	-0.1627273
-0.4036923	16 16 15	-0.04079404
-0.6766936	16 16 16	-0.02588046
-0.8808136	16 16 17	-0.2913427
-0.30103	17 16 15	0.1983675
-0.6163004	17 16 16	0.1238517
-0.9472936	17 16 17	0.07663405
-1.31527	17 16 18	0.04699656
-0.1760913	13 17 17
-0.3679768	14 17 17	0
-0.544068	14 17 18
-0.6283889	15 17 16	-0.0258342
-0.9294189	15 17 17	-0.2552725
-0.4522977	15 17 18	-0.1583625
-1.230449	16 17 15
-0.6863809	16 17 16	0.01424044
-0.6283889	16 17 17	0.06006497
-0.6863809	16 17 18	-0.1583625
-1.30103	17 17 15	0.07918122
-0.39794	17 17 16	0.08996117
-0.5477023	17 17 17	-0.04467037
-1.176091	17 17 18	0.01772878
-0.3498785	18 17 16	-0.1898796
-0.3933443	18 17 17	0.2284794
-1.371068	18 17 18	-0.3579349
-0.60206	15 18 18
-0.60206	15 18 19	-0.01639044
-0.6368221	16 18 17	-0.3771202
-0.3357921	16 18 18	0.004364789
-0.6197888	17 18 17	0.2249399
-0.3565473	17 18 18	0.008773923
-0.69897	17 18 19	-0.3174205
-0.4600879	18 18 17	0.1280298
-0.4279032	18 18 18	0.2237834
-0.7289332	18 18 19	0.2108534
-0.7132105	19 18 17	-0.2010289
-0.1691424	19 18 18	-0.06694674
-0.5698753	18 19 18	0.01424044
-0.1845244	18 19 19	0.06927317
-0.613341	19 19 18	-0.1318876
-0.1760913	19 19 19	0.1439068
-1.591065	19 19 9
-0.69897	0 2 1
-0.69897	0 2 4
-0.60206	1 2 1	-0.1305426
-0.69897	1 2 2	0.06775178
-0.69897	1 2 3	-0.1003706
-0.4101745	2 2 1	-0.05799204
-0.4536402	2 2 2	0.2272438
-1.255273	2 2 3
-1.255273	2 2 4	0
-0.2311388	3 2 1	0.02257329
-0.5688916	3 2 2	0.0421977
-1.498311	3 2 3
-0.60206	4 2 1
-0.4771213	4 2 2	-0.08715016
-0.7781513	4 2 3
-0.5228788	<s> 2 2	-0.4137343
-0.7403627	1 3 2
-1	2 3 2
-0.8239087	2 3 3	-0.1316721
-0.69897	2 3 4	0.05016661
-0.3290587	3 3 2	0.1918855
-0.80618	3 3 3	-0.1180993
-0.7269987	3 3 4	-0.0889411
-1.20412	3 3 6
-1.064458	4 3 1	0.05115253
-0.2863067	4 3 2	0.1217336
-0.5873367	4 3 3	-0.05115247
-1.462398	4 3 4
-0.2108534	5 3 2	0.1461281
-0.6368221	5 3 3	0.0528523
-0.544068	<s> 3 4	-0.3651475
-0.39794	2 4 3	-0.0161685
-0.69897	2 4 6
-1.041393	3 4 2
-0.4393327	3 4 4	-0.2174839
-0.6434527	3 4 5
-1.439333	4 4 2	-0.30103
-0.6264194	4 4 3	-0.2255766
-0.4850902	4 4 4	0.1119737
-1.263241	4 4 5
-1.263241	4 4 6
-1.138303	4 4 7	0
-1.070038	5 4 2	-0.09691003
-0.31037	5 4 3	0.1279443
-0.8269998	5 4 4	0.0757207
-0.8269998	5 4 5	0.02020338
-0.3679768	6 4 3	-0.02426857
-0.447158	6 4 4	-0.1517319
-0.544068	<s> 4 4
-0.39794	1 5 5
-0.39794	2 5 5
-0.6532125	3 5 5
-0.7160034	4 5 4	0.1827421
-0.8129134	4 5 5	-0.08398014
-0.9378521	4 5 6
-1.113943	4 5 7	-0.2430381
-0.7781513	5 5 4	0.1827421
-0.7781513	5 5 5	-0.1249387
-0.8750613	5 5 6	-0.0669468
-1.176091	5 5 7
-1	5 5 8
-1.371068	6 5 10
-0.8269998	6 5 3	-0.06214792
-0.3710679	6 5 4	0.1157953
-1.070038	6 5 5	-0.0669468
-1.194977	6 5 6
-0.3203351	7 5 4	-0.1552714
-1.060698	7 5 5
-0.5642715	<s> 5 6
-0.7403627	<s> 5 7	-0.2430381
-0.7781513	4 6 5
-0.7781513	4 6 9	-0.3174204
-1.079181	5 6 10
-0.7781513	5 6 5	-0.4582359
-0.90309	5 6 6
-1.079181	5 6 7
-0.7781513	5 6 8
-0.916454	6 6 4	0.04575747
-0.6734159	6 6 5	0.04712862
-0.916454	6 6 6	-0.0900121
-0.916454	6 6 7	-0.09177038
-1.217484	6 6 8
-1.217484	6 6 9
-1.423246	7 6 10	-0.2730013
-0.5201559	7 6 4	-0.007686853
-0.6103325	7 6 5	0.01888531
-0.9461246	7 6 6	-0.04575749
-1.247155	7 6 7	-0.1375279
-1.247155	7 6 9	-0.4881167
-1.01424	8 6 4	0.02118929
-0.449969	8 6 5	-0.02687213
-0.5882717	8 6 6	-0.30103
-0.6532125	<s> 6 5
-0.4771213	<s> 6 6
-0.544068	4 7 6
-0.3802112	5 7 7
-0.7533277	6 7 5	-0.3195134
-0.9294189	6 7 6
-0.7533277	6 7 7	-0.07572071
-0.7533277	6 7 8	-0.09691003
-0.9420081	7 7 5	0.1364185
-0.845098	7 7 6	-0.04804584
-0.544068	7 7 7	-0.05115251
-0.9420081	7 7 9
-0.7501225	8 7 5	-0.05987608
-0.2552725	8 7 6	-0.1678186
-1.051152	8 7 7
-1.352183	8 7 9
-0.4771213	9 7 6	-0.1449558
-0.7201593	9 7 7	-0.07918125
-0.845098	9 7 8	-0.09691003
-0.4771213	<s> 7 6	-0.1696707
-0.6532125	<s> 7 8	-0.4191293
-0.845098	10 8 6	-0.09221488
-0.2808266	10 8 7	0.0299632
-0.7201593	10 8 8	0.1091445
-0.1760913	4 8 10
-0.4259687	5 8 10
-0.9542425	6 8 11
-0.6532125	6 8 9	-0.05435767
-0.7269987	7 8 7	0.1303338
-0.60206	7 8 8	-0.03698356
-0.90309	7 8 9
-1.079181	8 8 6	-0.09221488
-0.6532125	8 8 7	0.009759843
-0.3521825	8 8 8	-0.04575741
-0.8573325	8 8 9	-0.04219769
-0.4597472	9 8 6	0.1296339
-0.4597472	9 8 7	0.1268733
-0.9912261	9 8 8	0.05115253
-1.389166	9 8 9
-1.135663	10 9 10
-0.6127838	10 9 7	-0.0457575
-0.4366926	10 9 8	-0.4153142
-0.9138138	10 9 9	-0.03342377
-1.161368	11 9 10
-1.161368	11 9 11
-1.161368	11 9 7
-0.258278	11 9 8	0.08813614
-1.161368	11 9 9	-0.3344538
-0.5118834	6 9 10	-0.1945747
-0.6368221	6 9 9
-0.69897	7 9 10	-0.5190858
-0.8750613	7 9 8	-0.2920752
-0.69897	7 9 9	-0.07918125
-1.021189	8 9 10
-0.7201593	8 9 11	-0.0669468
-1.021189	8 9 12
-0.845098	8 9 8
-0.845098	8 9 9
-0.9208187	9 9 10	-0.1611509
-1.09691	9 9 11
-0.79588	9 9 7	-0.07918125
-0.552842	9 9 8	0.1161648
-0.79588	9 9 9	-0.2253093

\4-grams:
-0.1144733	0 0 0 0
-1.436693	0 0 0 1
-1.612784	0 0 0 2
-1.612784	0 0 0 3
-1.068716	0 0 0 </s>
-0.3424227	1 0 0 0
-0.4393327	1 0 0 </s>
-0.39794	<s> 0 0 0
-0.7403627	0 1 0 0
-0.5642715	0 1 0 2
-0.5228788	1 1 0 0
-1	1 1 0 1
-0.3467875	1 1 0 </s>
-0.6118198	2 1 0 0
-0.8750613	2 1 0 1
-0.2914847	2 1 0 </s>
-0.4259687	0 0 1 0
-0.69897	1 0 1 0
-0.69897	1 0 1 1
-0.8750613	1 0 1 2
-0.69897	1 0 1 3
-0.7269987	1 1 1 0
-0.50515	1 1 1 1
-0.7269987	1 1 1 2
-0.3802112	2 1 1 0
-0.6812412	2 1 1 1
-1.079181	2 1 1 5
-0.30103	3 1 1 0
-0.60206	1 2 1 1
-0.60206	1 2 1 2
-0.4259687	2 2 1 0
-0.3802112	2 2 1 1
-1.079181	2 2 1 2
-0.1863104	3 2 1 0
-0.9344984	3 2 1 1
-0.4259687	4 3 1 1
-0.544068	10 10 10 9
-0.69897	11 10 10 10
-0.69897	11 10 10 12
-0.39794	12 10 10 9
-0.8129134	11 11 10 8
-0.4149733	11 11 10 9
-0.6766936	12 11 10 10
-0.9777236	12 11 10 11
-0.8016323	12 11 10 8
-0.9777236	12 11 10 9
-0.9294189	13 11 10 11
-0.5314789	13 11 10 8
-0.5314789	13 11 10 9
-0.6690068	13 12 10 8
-0.30103	13 12 10 9
-0.1760913	7 6 10 11
-0.30103	6 9 10 12
-0.1249387	7 9 10 11
-0.39794	9 9 10 10
-0.39794	10 10 11 11
-0.60206	11 10 11 11
-0.30103	11 10 11 9
-0.544068	9 10 11 12
-0.8129134	10 11 11 10
-0.30103	11 11 11 9
-0.4149733	12 11 11 10
-0.8129134	12 11 11 12
-0.544068	13 11 11 10
-0.1760913	10 12 11 10
-0.544068	11 12 11 9
-0.39794	12 12 11 11
-0.455932	13 12 11 10
-0.8239087	13 12 11 11
-0.60206	13 12 11 9
-0.6368221	14 12 11 10
-0.5118834	14 12 11 11
-0.6368221	14 12 11 9
-0.30103	14 13 11 10
-0.7269987	14 13 11 11
-0.90309	14 13 11 9
-0.1760913	15 13 11 10
-0.544068	8 9 11 10
-0.1760913	11 10 12 13
-0.60206	9 10 12 13
-0.60206	9 10 12 15
-0.544068	10 11 12 11
-0.39794	11 11 12 11
-0.1760913	9 11 12 13
-0.09938464	12 12 12 12
-0.6532125	13 12 12 16
-0.544068	14 12 12 12
-0.1249387	10 13 12 11
-0.1760913	11 13 12 11
-0.4259687	12 13 12 12
-0.6690068	13 13 12 10
-0.6690068	13 13 12 11
-0.6283889	14 13 12 10
-0.4522977	14 13 12 11
-0.9294189	14 13 12 13
-0.243038	15 13 12 10
-0.544068	14 14 12 11
-0.7781513	15 14 12 10
-0.3802112	15 14 12 11
-0.7781513	15 14 12 12
-0.1760913	16 14 12 11
-0.1760913	12 10 13 12
-0.39794	9 10 13 15
-0.39794	11 11 13 15
-0.544068	10 12 13 15
-0.544068	11 12 13 12
-0.39794	12 12 13 13
-0.60206	12 13 13 12
-0.60206	12 13 13 13
-0.4771213	13 13 13 12
-0.39794	13 13 13 13
-0.8129134	14 13 13 12
-0.6368221	14 13 13 13
-0.6532125	13 14 13 13
-0.7781513	14 14 13 11
-0.3802112	14 14 13 12
-0.7781513	14 14 13 13
-0.559308	15 14 13 11
-0.6842467	15 14 13 12
-0.9852768	15 14 13 13
-0.763428	15 14 13 14
-1.161368	15 14 13 15
-0.39794	16 14 13 11
-0.845098	16 15 13 11
-0.544068	16 15 13 12
-0.39794	11 11 14 16
-0.1760913	11 12 14 14
-0.7403627	14 13 14 12
-0.5642715	14 13 14 13
-0.1249387	12 14 14 14
-0.1760913	13 14 14 14
-0.4771213	14 14 14 13
-0.8750613	14 14 14 14
-0.4771213	15 14 14 13
-0.7781513	15 14 14 14
-0.39794	16 14 14 12
-0.39794	14 15 14 13
-0.7781513	15 15 14 12
-0.5563025	15 15 14 13
-0.845098	16 15 14 12
-0.4301247	16 15 14 13
-0.845098	16 15 14 14
-1.243038	16 15 14 15
-0.4771213	17 15 14 13
-0.4771213	17 15 14 14
-0.39794	15 16 14 13
-0.30103	16 16 14 14
-0.544068	10 12 15 18
-0.544068	10 13 15 16
-0.1760913	13 13 15 17
-0.39794	11 14 15 14
-0.6532125	15 14 15 15
-0.39794	13 15 15 15
-0.39794	14 15 15 15
-0.6690068	15 15 15 14
-0.845098	15 15 15 15
-0.544068	15 15 15 16
-0.3679768	16 15 15 14
-0.845098	16 15 15 15
-0.1760913	17 15 15 14
-0.60206	15 16 15 13
-0.30103	15 16 15 14
-0.60206	16 16 15 13
-0.455932	16 16 15 14
-1.278754	17 16 15 13
-0.4036923	17 16 15 14
-0.9777236	17 16 15 15
-0.7346855	17 16 15 16
-0.39794	17 17 15 14
-0.39794	11 14 16 17
-0.39794	15 14 16 17
-0.544068	14 15 16 17
-0.5228788	15 15 16 18
-0.7781513	16 15 16 14
-0.4771213	16 15 16 15
-0.1760913	14 16 16 15
-0.544068	15 16 16 15
-0.7403627	16 16 16 14
-0.4393327	16 16 16 15
-0.7403627	16 16 16 16
-0.60206	17 16 16 15
-0.69897	17 16 16 16
-0.69897	17 16 16 17
-0.544068	15 17 16 16
-0.5228788	16 17 16 15
-0.5228788	16 17 16 17
-0.4057654	17 17 16 15
-0.4929155	17 17 16 16
-0.9700368	17 17 16 17
-0.1760913	18 17 16 15
-0.7781513	18 17 16 16
-0.1760913	14 14 17 17
-0.30103	13 15 17 18
-0.4259687	14 16 17 16
-0.6532125	15 16 17 16
-0.3679768	16 16 17 17
-0.544068	16 16 17 18
-0.7781513	17 16 17 16
-0.7781513	17 16 17 17
-0.39794	14 17 17 16
-0.1760913	15 17 17 16
-0.4393327	16 17 17 16
-0.5642715	16 17 17 17
-0.4191293	17 17 17 16
-0.4771213	17 17 17 17
-0.5118834	18 17 17 16
-0.7160034	18 17 17 17
-1.113943	18 17 17 18
-0.1249387	16 18 17 17
-0.4259687	17 18 17 16
-0.4259687	17 18 17 17
-0.2466723	18 18 17 16
-0.6320232	18 18 17 17
-0.20412	19 18 17 17
-0.39794	12 15 18 18
-0.60206	15 16 18 17
-0.60206	15 16 18 18
-0.39794	17 16 18 18
-0.4259687	15 17 18 18
-0.4259687	15 17 18 19
-0.6532125	16 17 18 17
-0.2552725	16 17 18 18
-0.4771213	17 17 18 17
-0.4771213	17 17 18 18
-0.1760913	18 17 18 17
-0.4771213	16 18 18 18
-0.6532125	16 18 18 19
-0.845098	17 18 18 17
-0.243038	17 18 18 18
-0.60206	18 18 18 17
-0.4637573	18 18 18 18
-0.60206	18 18 18 19
-0.251812	19 18 18 17
-0.69897	19 18 18 18
-0.1760913	18 19 18 18
-0.6232493	19 19 18 17
-0.1760913	19 19 18 18
-0.1760913	15 18 19 19
-0.07918125	17 18 19 19
-0.60206	18 18 19 18
-0.20412	18 18 19 19
-0.6766936	18 19 19 18
-0.1648103	18 19 19 19
-0.60206	19 19 19 18
-0.20412	19 19 19 19
-1.447158	19 19 19 9
-0.4259687	1 1 2 1
-0.6532125	2 1 2 2
-0.4771213	2 1 2 3
-0.544068	1 2 2 1
-0.5351132	2 2 2 1
-0.5351132	2 2 2 2
-1.079181	2 2 2 3
-1.079181	2 2 2 4
-0.4191293	3 2 2 1
-0.4771213	3 2 2 2
-0.30103	4 2 2 1
-0.1249387	<s> 2 2 2
-0.3521825	3 3 2 1
-0.4771213	3 3 2 2
-0.2092596	4 3 2 1
-0.7533277	4 3 2 2
-1.230449	4 3 2 3
-0.30103	5 3 2 1
-0.5228788	5 3 2 2
-0.1760913	4 4 2 2
-0.4771213	5 4 2 1
-0.4771213	5 4 2 2
-0.544068	1 2 3 2
-0.39794	2 3 3 4
-0.60206	3 3 3 3
-0.60206	3 3 3 4
-0.2552725	4 3 3 2
-0.7781513	4 3 3 3
-0.9542425	4 3 3 4
-0.39794	5 3 3 2
-0.544068	2 4 3 3
-0.2730013	4 4 3 2
-0.4771213	4 4 3 3
-0.9542425	5 4 3 1
-0.3174204	5 4 3 2
-0.6532125	5 4 3 3
-0.90309	6 4 3 1
-0.30103	6 4 3 2
-0.1760913	6 5 3 2
-0.39794	2 2 4 3
-0.544068	2 3 4 4
-0.6532125	3 3 4 2
-0.4771213	3 3 4 4
-0.1760913	<s> 3 4 5
-0.3424227	3 4 4 4
-0.7403627	3 4 4 7
-0.6197888	4 4 4 3
-0.69897	4 4 4 4
-1.09691	4 4 4 6
-1.09691	4 4 4 7
-0.7403627	5 4 4 3
-0.7403627	5 4 4 4
-0.7403627	5 4 4 5
-0.4149733	6 4 4 3
-0.5118834	6 4 4 4
-0.6532125	4 5 4 3
-0.6532125	5 5 4 3
-0.90309	6 5 4 2
-0.3802112	6 5 4 3
-0.7781513	6 5 4 4
-0.90309	6 5 4 5
-0.1918855	7 5 4 3
-0.544068	6 6 4 4
-0.3756636	7 6 4 3
-0.4336556	7 6 4 4
-0.39794	8 6 4 3
-0.39794	1 1 5 5
-0.8129134	5 4 5 4
-0.544068	4 5 5 6
-0.4259687	5 5 5 4
-0.544068	6 5 5 5
-0.09691001	5 6 5 4
-0.5642715	6 6 5 4
-0.7403627	6 6 5 5
-0.9542425	7 6 5 3
-0.3521825	7 6 5 4
-0.4771213	8 6 5 3
-0.5740313	8 6 5 4
-0.1249387	6 7 5 4
-0.544068	7 7 5 4
-0.2632414	8 7 5 4
-0.544068	5 5 6 8
-0.544068	6 6 6 7
-0.69897	7 6 6 5
-0.69897	7 6 6 7
-0.5642715	8 6 6 4
-0.7403627	8 6 6 5
-0.5642715	8 6 6 6
-0.4259687	7 7 6 4
-1.176091	8 7 6 10
-0.6320232	8 7 6 4
-0.4357286	8 7 6 5
-1.176091	8 7 6 6
-1	8 7 6 7
-0.30103	9 7 6 4
-0.39794	<s> 7 6 6
-0.39794	10 8 6 6
-0.39794	8 8 6 6
-1.060698	9 8 6 4
-0.4074853	9 8 6 5
-0.8846066	9 8 6 6
-0.544068	4 4 7 6
-0.1760913	4 5 7 7
-0.1760913	<s> 5 7 7
-0.544068	6 6 7 6
-0.39794	7 6 7 5
-0.39794	6 7 7 7
-0.4771213	7 7 7 7
-0.8750613	7 7 7 9
-0.544068	9 7 7 6
-0.6690068	10 8 7 5
-0.30103	10 8 7 6
-0.39794	7 8 7 6
-0.2632414	8 8 7 6
-0.7201593	9 8 7 5
-0.3679768	9 8 7 6
-0.845098	9 8 7 7
-0.3679768	10 9 7 6
-0.845098	10 9 7 7
-0.544068	9 9 7 8
-0.30103	10 10 8 7
-0.6368221	11 10 8 6
-0.5118834	11 10 8 7
-0.6368221	11 10 8 8
-0.1249387	12 10 8 7
-0.39794	6 7 8 8
-0.39794	9 7 8 8
-0.1760913	<s> 7 8 9
-0.544068	10 8 8 8
-0.544068	7 8 8 7
-0.69897	8 8 8 7
-0.30103	8 8 8 8
-0.4259687	9 8 8 8
-0.2762064	10 9 8 6
-0.4522977	10 9 8 7
-0.5228788	11 9 8 6
-0.60206	11 9 8 7
-0.69897	11 9 8 8
-0.1760913	7 9 8 7
-0.69897	9 9 8 6
-0.39794	9 9 8 7
-0.30103	10 10 9 8
-0.5314789	11 10 9 7
-0.7533277	11 10 9 8
-0.9294189	11 10 9 9
-0.6368221	12 10 9 7
-0.3357921	12 10 9 8
-0.30103	10 11 9 8
-0.30103	11 11 9 8
-0.845098	12 11 9 7
-0.447158	12 11 9 8
-0.845098	12 11 9 9
-0.09691001	13 11 9 8
-0.1760913	4 6 9 10
-0.1249387	7 6 9 9
-0.544068	6 8 9 11
-0.6532125	8 8 9 8
-0.6532125	10 9 9 9
-0.1760913	11 9 9 8
-0.39794	7 9 9 8
-0.4771213	9 9 9 7
-0.4771213	9 9 9 8

\end\
