
\data\
ngram 1=23
ngram 2=192
ngram 3=647
ngram 4=1264

\1-grams:
-1.186012	0	-1.443574
-1.297986	1	-0.8968835
-1.348739	10	-0.9171048
-1.331154	11	-0.8543026
-1.252548	12	-0.789618
-1.345165	13	-0.9904493
-1.367067	14	-0.9699277
-1.294804	15	-1.033309
-1.28851	16	-1.14252
-1.270157	17	-0.8270778
-1.28851	18	-1.343628
-1.410335	19	-1.350195
-1.276188	2	-1.158106
-1.345165	3	-0.8180944
-1.276188	4	-0.7991797
-1.370827	5	-0.5796097
-1.317581	6	-0.9495361
-1.359643	7	-0.7615241
-1.334615	8	-1.025775
-1.355978	9	-0.7549695
-1.715521	</s>
-99	<s>	-0.07397813
-2.109307	<unk>

\2-grams:
-0.2490784	0 0	0.2282948
-1.02723	0 1	0.2904513
-1.479527	0 2	0.6989703
-1.956649	0 3	-0.2218487
-0.5674825	0 </s>
-0.3382781	1 0	0.1633823
-0.5732883	1 1	0.01575023
-2.164353	1 10	-0.2205104
-2.164353	1 14	-0.2683061
-0.9882616	1 2	0.6197892
-1.386202	1 3	0.4771212
-1.863323	1 4	0.1461281
-1.687232	1 5	-0.2401201
-2.164353	1 7	-0.2659872
-2.164353	1 </s>
-0.7715207	10 10	0.3827001
-0.8351898	10 11	-0.2105257
-1.034762	10 12	0.03725606
-1.159701	10 13	-0.1222158
-1.812913	10 14	-0.2794903
-1.812913	10 15	-0.0939045
-1.812913	10 16	0.08517164
-0.8586708	10 8	-0.277549
-0.5698753	10 9	-0.04290855
-0.5424743	11 10	0.1823402
-0.7021751	11 11	0.2430379
-1.019596	11 12	0.1645234
-1.133539	11 13	0.5228787
-1.355388	11 14	-0.5172384
-1.832509	11 15	-0.04275197
-1.656418	11 16	0.4319592
-2.133539	11 17	-0.1249387
-2.133539	11 19	0.1923285
-0.7533277	11 9	0.008092761
-0.9111576	12 10	0.07918125
-0.6558851	12 11	-0.01258916
-0.4639996	12 12	0.03129745
-1.036096	12 13	0.1139435
-1.513218	12 14	-0.1586218
-1.36709	12 15	0.01446515
-1.434036	12 16	0.535964
-1.911158	12 17	0.00560388
-2.212188	12 3	-0.2977273
-2.212188	12 5	-0.29073
-2.212188	12 6	-0.2915541
-2.212188	12 </s>
-0.7522155	13 11	-0.2520673
-0.5341598	13 12	0.04234535
-0.6667853	13 13	0.319223
-0.9678153	13 14	0.3375469
-0.9678153	13 15	0.2805544
-1.812913	13 16	0.1309291
-1.812913	13 17	-0.30103
-2.113943	13 18	-0.2218487
-2.093422	14 11	-0.2167091
-0.8381492	14 12	-0.08447754
-0.4599532	14 13	0.01772869
-0.6784483	14 14	0.02227652
-0.9794784	14 15	0.3040354
-1.139179	14 16	0.4220206
-1.394452	14 17	-0.2647573
-2.093422	14 18	-0.0118992
-2.161368	15 12	-0.284742
-1.161368	15 13	0.2388822
-0.4453647	15 14	0.2134251
-0.6700063	15 15	0.1279442
-0.7811568	15 16	0.5622929
-1.047425	15 17	0.2030078
-1.462398	15 18	0.8872955
-2.161368	15 4	-0.2982007
-2.164353	16 13	-0.2164704
-1.261263	16 14	-0.03905141
-0.3935008	16 15	0.07297879
-0.6458389	16 16	0.02826679
-0.7329891	16 17	0.3306523
-1.164353	16 18	0.676442
-2.164353	16 19	0.1923285
-2.193125	17 10	-0.2942966
-2.193125	17 11	-0.2913427
-2.193125	17 12	-0.1182262
-2.193125	17 13	-0.2164704
-1.414973	17 15	-0.2330837
-0.4372497	17 16	0.1166887
-0.4771213	17 17	0.141972
-0.8507019	17 18	0.3924454
-1.892095	17 19	0.8912985
-2.193125	17 7	-0.2976502
-2.193125	17 9	-0.2942966
-0.5248941	18 17	-0.155667
-0.3132645	18 18	0.2833009
-0.7781513	18 19	0.07838511
-2.158362	18 7	-0.294244
-2.158362	18 8	-0.1814997
-0.5902685	19 18	0.2990237
-0.1681948	19 19	0.1453316
-2.037426	19 7	-0.294244
-1.736397	19 9	-0.2908903
-2.176091	2 0	0.0590215
-0.3309932	2 1	-0.0531311
-0.49485	2 2	0.318759
-1.062148	2 3	0.5506986
-1.330993	2 4	-0.2161716
-1.69897	2 5	-0.2401201
-2.176091	2 </s>
-2.120574	3 0	0.0590215
-1.342423	3 1	0.2892916
-2.120574	3 10	-0.2205104
-2.120574	3 12	-0.1182262
-0.3571459	3 2	0.03432834
-0.6734159	3 3	-0.180456
-0.890125	3 4	-0.3192548
-1.421604	3 5	0.198725
-1.518514	3 6	-0.1666154
-2.120574	3 7	-0.1990404
-2.187521	4 0	0.0590215
-2.187521	4 11	-0.2945959
-2.187521	4 12	-0.284742
-2.187521	4 15	-0.1965668
-1.233278	4 2	0.2952778
-0.4632449	4 3	-0.2863068
-0.5247629	4 4	0.2874572
-0.9322482	4 5	0.2151154
-1.342423	4 6	0.129335
-1.585461	4 7	-0.05672768
-1.886491	4 8	-0.4501796
-2.10721	5 1	-0.2980451
-1.630089	5 10	0.07255068
-2.10721	5 11	-0.1542628
-2.10721	5 13	-0.2515446
-2.10721	5 16	-0.2122241
-2.10721	5 2	-0.0280287
-1.065817	5 3	-0.3550973
-0.4839607	5 4	-0.2005804
-0.7647873	5 5	0.2321487
-0.876761	5 6	0.4617734
-1.20412	5 7	0.1563472
-1.40824	5 8	-0.1942117
-1.80618	5 9	-0.2477845
-1.444045	6 10	-0.1985161
-1.665894	6 12	-0.08447756
-1.841985	6 3	0.06366909
-0.7628036	6 4	-0.1346986
-0.5519502	6 5	0.05944842
-0.7450748	6 6	0.3814627
-1.063834	6 7	0.3003572
-1.101622	6 8	0.7594348
-1.188772	6 9	-0.3324384
-2.11059	7 10	-0.2589687
-1.80956	7 11	-0.2356769
-2.11059	7 12	-0.1926461
-2.11059	7 16	-0.07619637
-1.80956	7 19	0.8912985
-2.11059	7 3	-0.2842598
-0.8801408	7 5	0.0922696
-0.4573772	7 6	0.2804361
-0.6792259	7 7	0.2935204
-1.069197	7 8	0.3399482
-1.11059	7 9	0.08051965
-1.220762	8 10	0.166183
-1.822822	8 11	-0.1803283
-1.822822	8 14	-0.2921846
-2.123852	8 3	-0.2977273
-0.7259116	8 6	0.01483095
-0.5217916	8 7	-0.1224064
-0.6187016	8 8	-0.1526103
-0.9477604	8 9	0.05136138
-2.113943	9 1	-0.2980451
-0.8586708	9 10	-0.06732839
-1.072551	9 11	0.4223344
-1.511883	9 12	-0.1960523
-1.812913	9 13	-0.2477845
-2.113943	9 16	-0.2122241
-1.812913	9 18	0.3659708
-2.113943	9 19	0.1923285
-0.9098234	9 7	0.04018241
-0.4804749	9 8	0.1326256
-0.8129134	9 9	0.07255071
-1.224015	<s> 0	-0.01183435
-1.525045	<s> 1	0.2612629
-1.525045	<s> 10	-0.1215851
-1.525045	<s> 11	-0.2205695
-1.525045	<s> 12	-0.2943174
-1.525045	<s> 13	0.006733388
-1.525045	<s> 15	0.06794631
-1.047924	<s> 2	0.5740314
-1.224015	<s> 3	-0.1612167
-1.224015	<s> 4	-0.0889411
-0.9809768	<s> 5	-0.2129363
-1.047924	<s> 6	-0.1402864
-1.047924	<s> 7	-0.2177899
-1.525045	<s> 8	-0.218571
-1.826075	<s> 9	-0.2363046

\3-grams:
-0.142893	0 0 0	0.1155701
-1.330414	0 0 1	-0.1249387
-1.728354	0 0 2	-0.07918124
-1.728354	0 0 3	0
-0.8252638	0 0 </s>
-0.5725048	1 0 0	0.2098399
-0.8098657	1 0 1	-0.009759843
-1.249198	1 0 2	0.09691
-0.3327444	1 0 </s>
-0.30103	2 0 0	-0.2306876
-0.30103	3 0 0	0.2512326
-0.30103	4 0 0	0.2512326
-0.30103	<s> 0 0	0.2335038
-0.7781513	<s> 0 1	-0.1346986
-0.4973246	0 1 0	0.8098657
-0.8653014	0 1 1	0.06366912
-0.8653014	0 1 2	-0.04139268
-0.8653014	0 1 3	-0.1047353
-1.342423	0 1 4	-0.1760913
-0.4130037	1 1 0	0.1242596
-0.5642715	1 1 1	0.1383027
-0.9444827	1 1 2	-0.1249387
-1.342423	1 1 3	-0.1627273
-1.166331	1 1 5	0
-0.2737069	2 1 0	0.1980457
-0.6077371	2 1 1	0.2632414
-1.108339	2 1 2	-0.02118933
-1.886491	2 1 3	-0.2596373
-1.886491	2 1 4	-0.1760913
-1.886491	2 1 7	0
-1.886491	2 1 </s>
-0.9542425	3 1 0	-0.2279229
-0.3521825	3 1 1	-0.009759814
-0.9542425	3 1 2	-0.1760913
-0.30103	5 1 14	0
-0.30103	9 1 10	0
-0.60206	<s> 1 0	-0.2279229
-0.60206	<s> 1 1	-0.1627273
-0.30103	1 10 10	-0.2536053
-0.860338	10 10 10	-0.08167011
-0.9852768	10 10 11	-0.20412
-1.161368	10 10 12	-0.2466723
-1.462398	10 10 13	-0.1413291
-1.462398	10 10 14	-0.1760913
-0.860338	10 10 8	0.06694686
-0.6173	10 10 9	-0.2111248
-0.8846066	11 10 10	-0.01472327
-0.8846066	11 10 11	-0.350248
-1.361728	11 10 12	-0.3606157
-1.361728	11 10 13	-0.1413291
-1.662758	11 10 15	-0.1760913
-0.6627578	11 10 8	0.2082761
-0.5835766	11 10 9	0.236207
-0.9378521	12 10 10	-0.1908145
-1.414973	12 10 11	-0.1583625
-1.113943	12 10 13	-0.3631779
-1.414973	12 10 15	-0.1760913
-0.9378521	12 10 8	-0.2798407
-0.4149733	12 10 9	-0.06543094
-0.30103	17 10 16	-0.1760913
-0.30103	3 10 10	-0.236572
-0.7781513	5 10 10	-0.28579
-0.7781513	5 10 8	0.02118933
-0.7781513	5 10 9	-0.1796078
-0.90309	6 10 10	-0.2536053
-0.4259687	6 10 11	-0.01703331
-0.90309	6 10 12	-0.1845244
-0.30103	7 10 12	-0.2466723
-0.845098	8 10 10	-0.0939045
-0.845098	8 10 11	-0.1818436
-1.146128	8 10 12	-0.1845244
-1.146128	8 10 14	-0.1760913
-1.146128	8 10 16	-0.1760913
-1.146128	8 10 9	-0.1032195
-0.8846066	9 10 10	-0.06908092
-0.7596679	9 10 11	-0.08398014
-0.6627578	9 10 12	-0.04061779
-0.8846066	9 10 13	-0.1870867
-0.8846066	9 10 9	-0.04997393
-0.60206	<s> 10 13	-0.1413291
-0.60206	<s> 10 9	-0.2680297
-0.552842	10 11 11	0.1956868
-0.79588	10 11 12	-0.01579428
-1.09691	10 11 13	-0.1249387
-1.39794	10 11 14	-0.09691
-1.39794	10 11 16	-0.2218487
-0.79588	10 11 9	-0.05611593
-0.5772364	11 11 10	-0.05324551
-0.9294189	11 11 11	-0.3770061
-1.054358	11 11 12	-0.2218487
-1.054358	11 11 13	-0.30103
-1.054358	11 11 14	0.20412
-1.531479	11 11 17	0
-0.9294189	11 11 9	-0.05611593
-0.509306	12 11 10	0.2590655
-0.6690068	12 11 11	-0.1564957
-1.322219	12 11 12	-0.2218487
-1.623249	12 11 13	-0.20412
-1.623249	12 11 16	-0.2218487
-0.6232493	12 11 9	0.07323194
-0.3174204	13 11 10	-0.04481226
-0.8293038	13 11 11	-0.09177041
-1.130334	13 11 13	-0.1249387
-0.8293038	13 11 9	-0.3505154
-0.30103	14 11 9	0.04742467
-0.30103	17 11 16	-0.2218487
-0.30103	4 11 15	-0.1760913
-0.30103	5 11 10	-0.2914847
-0.60206	7 11 12	-0.1918855
-0.60206	7 11 14	-0.09691
-0.60206	8 11 11	-0.2609127
-0.60206	8 11 14	-0.09691
-0.7781513	9 11 10	-0.1434221
-0.9542425	9 11 11	-0.2009148
-0.9542425	9 11 12	-0.3679768
-1.255273	9 11 13	-0.2388821
-1.255273	9 11 15	-0.1760913
-1.255273	9 11 19	0
-1.255273	9 11 9	-0.2699957
-0.60206	<s> 11 12	-0.2498775
-0.60206	<s> 11 13	-0.2388821
-0.9294189	10 12 11	-0.31627
-1.230449	10 12 12	-0.2805083
-0.6283889	10 12 13	0.02996317
-1.230449	10 12 14	-0.243038
-0.6283889	10 12 15	-0.02555415
-1.255273	11 12 10	-0.09017661
-0.6532125	11 12 11	0.02482355
-0.9542425	11 12 12	-0.2515446
-0.6532125	11 12 13	-0.1461281
-0.9542425	11 12 14	-0.2730013
-1.210853	12 12 10	0.1139434
-1.335792	12 12 11	-0.2798407
-0.2218488	12 12 12	-0.3620182
-1.335792	12 12 13	-0.09691003
-1.812913	12 12 14	-0.09691
-1.335792	12 12 16	-0.07918124
-1.812913	12 12 17	-0.1760913
-1.812913	12 12 6	0
-1.812913	12 12 </s>
-0.6118198	13 12 10	-0.2540334
-0.4490925	13 12 11	-0.0299632
-0.9542425	13 12 12	-0.2716629
-1.176091	13 12 13	0.09691
-1.653213	13 12 14	-0.243038
-1.653213	13 12 15	-0.2138798
-1.653213	13 12 5	0
-0.8653014	14 12 10	0.07255068
-0.3424227	14 12 11	-0.01357275
-0.7403627	14 12 12	0.166183
-1.342423	14 12 13	-0.1760913
-0.30103	15 12 16	-0.20412
-0.30103	17 12 12	0.09691003
-0.30103	3 12 12	-0.2805083
-0.30103	4 12 16	-0.20412
-0.7781513	6 12 12	-0.2805083
-0.7781513	6 12 15	-0.1627273
-0.7781513	6 12 3	0
-0.30103	7 12 11	-0.2798407
-0.90309	9 12 10	-0.2839966
-0.90309	9 12 15	-0.2596373
-0.90309	9 12 16	-0.20412
-0.90309	9 12 17	-0.1760913
-0.1760913	<s> 12 12	0.1139434
-1.113943	10 13 11	-0.01579425
-0.6368221	10 13 12	-0.4112455
-0.5118834	10 13 15	-0.08922324
-1.113943	10 13 16	-0.1760913
-0.8750613	11 13 11	-0.1918855
-0.8750613	11 13 12	-0.2863067
-1.176091	11 13 13	-0.2747011
-0.69897	11 13 14	0.0234811
-0.8750613	11 13 15	-0.1014576
-1	12 13 11	-0.1918855
-0.60206	12 13 12	-0.1344841
-0.60206	12 13 13	0.1055103
-1	12 13 15	-0.1014576
-1.30103	12 13 17	0.1760913
-1.531479	13 13 11	-0.01579425
-0.5772364	13 13 12	0.251812
-0.4522977	13 13 13	-0.167491
-1.054358	13 13 14	0.0234811
-1.230449	13 13 15	-0.3744589
-1.531479	13 13 17	0.1760913
-0.5672979	14 13 11	-0.07378626
-0.5672979	14 13 12	-0.1213045
-0.7781513	14 13 13	0.1622631
-0.8361432	14 13 14	-0.005677104
-1.380211	14 13 15	-0.1684044
-0.8750613	15 13 11	-0.1918855
-0.4771213	15 13 12	-0.146128
-1.176091	15 13 13	-0.1119737
-1.176091	15 13 14	-0.2527253
-1.176091	15 13 16	-0.1760913
-0.30103	16 13 11	-0.01579425
-0.30103	17 13 11	-0.2313941
-0.30103	5 13 15	-0.2527253
-0.60206	9 13 15	-0.1983676
-0.60206	9 13 18	0
-0.60206	<s> 13 12	-0.2498775
-0.60206	<s> 13 13	-0.2609127
-0.30103	1 14 16	-0.2284793
-0.60206	10 14 17	-0.1549019
-0.60206	10 14 18	0
-0.4259687	11 14 15	-0.2887955
-0.4259687	11 14 16	-0.06214792
-0.90309	12 14 12	-0.2808266
-0.4259687	12 14 14	-0.4329176
-0.90309	12 14 15	-0.1918855
-0.9777236	13 14 12	0.1383027
-0.5797836	13 14 13	0.4839607
-0.9777236	13 14 14	-0.3079789
-0.8016323	13 14 15	2.980232e-08
-0.9777236	13 14 16	-0.03218466
-0.8893017	14 14 12	0.2754758
-0.5371192	14 14 13	-0.06694674
-0.4913617	14 14 14	0.3152704
-1.491362	14 14 15	-0.1918855
-1.190332	14 14 17	-0.2340832
-1.770852	15 14 11	0
-0.8166095	15 14 12	0.04139268
-0.3906408	15 14 13	0.2188432
-0.867762	15 14 14	0.2360891
-1.071882	15 14 15	0.1249387
-1.293731	15 14 16	-0.1290947
-1.469822	15 14 17	0.2430381
-0.7403627	16 14 12	-0.2138799
-0.5642715	16 14 13	-0.1480625
-0.5642715	16 14 14	-0.1370273
-0.1760913	8 14 13	-0.06694677
-0.60206	10 15 15	-0.1249387
-0.60206	10 15 16	-0.2218487
-0.60206	11 15 14	-0.2625717
-0.60206	11 15 17	-0.1845244
-1.041393	12 15 14	-0.074246
-1.041393	12 15 16	-0.2863067
-0.7403627	12 15 17	-0.02482355
-0.5642715	12 15 18	-0.19382
-0.9777236	13 15 14	-0.03532794
-0.8016323	13 15 15	-0.1426675
-0.6766936	13 15 16	0.09691
-0.6766936	13 15 17	-0.2466723
-1.278754	13 15 18	-0.1760913
-0.7781513	14 15 14	-0.04206133
-0.7781513	14 15 15	-0.2218487
-0.6532125	14 15 16	-0.09497556
-0.9542425	14 15 17	-0.1119737
-1.255273	14 15 18	-0.1760913
-1.556303	15 15 13	-0.1249387
-0.4771213	15 15 14	0.3906408
-0.5563025	15 15 15	0.2340832
-0.7781513	15 15 16	0.07918122
-1.255273	15 15 17	0.0843209
-1.819544	16 15 12	0
-0.8653014	16 15 13	0.02996317
-0.3723859	16 15 14	0.226784
-0.819544	16 15 15	0.1671364
-0.916454	16 15 16	-0.07918128
-1.518514	16 15 17	0.0843209
-1.819544	16 15 4	0
-0.30103	17 15 14	-0.137633
-0.60206	17 15 15	-0.30103
-0.30103	4 15 15	-0.1597008
-0.60206	<s> 15 14	-0.2625717
-0.60206	<s> 15 15	-0.1597008
-0.60206	10 16 15	-0.2296741
-0.60206	10 16 17	-0.288065
-0.7781513	11 16 15	-0.2296741
-0.7781513	11 16 16	-0.08297423
-0.7781513	11 16 17	-0.2009148
-0.69897	12 16 15	0.07135591
-0.69897	12 16 16	0.1026624
-1	12 16 17	-0.2009148
-1	12 16 18	-0.03218466
-0.60206	13 16 15	-0.2296741
-0.60206	13 16 16	-0.1983676
-1.113943	14 16 15	-0.06126966
-0.8129134	14 16 16	-0.2590655
-0.4149733	14 16 17	0.02632898
-1.113943	14 16 18	-0.03218466
-1	15 16 14	-0.1346986
-0.69897	15 16 15	-0.244914
-0.8750613	15 16 16	0.06567875
-0.7781513	15 16 17	-0.0511525
-0.7781513	15 16 18	0.2108534
-1.477121	15 16 19	0
-1.579784	16 16 13	0
-0.9777236	16 16 14	-0.2138798
-0.4036923	16 16 15	0.2632415
-0.6766936	16 16 16	-0.02588046
-0.8808136	16 16 17	-0.2913427
-1.792392	17 16 14	-0.1627273
-0.30103	17 16 15	0.2397602
-0.6163004	17 16 16	0.2787537
-0.9472936	17 16 17	0.1970252
-1.31527	17 16 18	0.1139434
-0.30103	5 16 17	-0.1845244
-0.30103	7 16 15	-0.2296741
-0.30103	9 16 17	-0.1845244
-0.30103	11 17 17	-0.1563472
-0.60206	12 17 16	-0.2794903
-0.60206	12 17 18	-0.20412
-0.1760913	13 17 17	-0.2471546
-0.3679768	14 17 17	0.1014577
-0.544068	14 17 18	0.1426675
-0.6283889	15 17 16	0.4701724
-0.9294189	15 17 17	-0.2552725
-0.4522977	15 17 18	-0.1583625
-1.230449	15 17 19	-0.1760913
-1.531479	16 17 10	0
-1.230449	16 17 15	0.30103
-0.6863809	16 17 16	-0.05270633
-0.6283889	16 17 17	-0.04139262
-0.6863809	16 17 18	-0.1583625
-1.531479	16 17 19	-0.1760913
-1.531479	16 17 7	0
-1.778151	17 17 11	0
-1.778151	17 17 12	0
-1.778151	17 17 13	0
-1.30103	17 17 15	0.20412
-0.39794	17 17 16	0.1691425
-0.5477023	17 17 17	-0.02118927
-1.176091	17 17 18	0.01772878
-1.778151	17 17 9	0
-1.672098	18 17 15	0
-0.3498785	18 17 16	-0.2867896
-0.3933443	18 17 17	0.2540335
-1.371068	18 17 18	-0.3579349
-0.30103	13 18 19	-0.1648102
-0.30103	14 18 18	-0.2112986
-0.90309	15 18 17	-0.2821446
-0.60206	15 18 18	0.05551735
-0.60206	15 18 19	-0.01639044
-0.6368221	16 18 17	-0.3771202
-0.3357921	16 18 18	0.552842
-1.113943	16 18 19	-0.1648102
-0.6197888	17 18 17	0.2249399
-0.3565473	17 18 18	0.3609564
-0.69897	17 18 19	-0.3174205
-0.4600879	18 18 17	0.1949767
-0.4279032	18 18 18	0.1938202
-0.7289332	18 18 19	0.2108534
-1.875061	18 18 7	0
-1.875061	18 18 8	0
-0.7132105	19 18 17	0.2249398
-0.1691424	19 18 18	0.30103
-1.491362	19 18 19	-0.1648102
-0.60206	9 18 17	-0.07609016
-0.60206	9 18 18	-0.1161648
-0.30103	11 19 19	0.1760913
-0.30103	16 19 19	0.1760913
-0.60206	17 19 18	-0.2867895
-0.60206	17 19 19	0.1760913
-0.5698753	18 19 18	0.2360892
-0.1845244	18 19 19	0.06927317
-0.613341	19 19 18	-0.1318876
-0.1760913	19 19 19	0.1439068
-1.892095	19 19 7	0
-1.591065	19 19 9	0
-0.60206	7 19 18	0.1903317
-0.60206	7 19 19	0.1760913
-0.30103	9 19 19	-0.1797874
-0.69897	0 2 1	0.1083395
-1	0 2 2	-0.08715016
-1	0 2 3	-0.2787536
-0.69897	0 2 4	-0.146128
-0.60206	1 2 1	0.4191293
-0.69897	1 2 2	0.2504736
-0.69897	1 2 3	-0.1808902
-1.30103	1 2 4	-0.07918122
-1.30103	1 2 5	-0.20412
-0.4101745	2 2 1	-0.05799204
-0.4536402	2 2 2	0.2060545
-1.255273	2 2 3	-0.146128
-1.255273	2 2 4	0
-1.732394	2 2 5	-0.07918122
-1.732394	2 2 </s>
-1.799341	3 2 0	0
-0.2311388	3 2 1	-0.08276987
-0.5688916	3 2 2	0.1091445
-1.498311	3 2 3	-0.1139433
-1.799341	3 2 4	-0.07918122
-0.60206	4 2 1	0.544068
-0.4771213	4 2 2	0.1091445
-0.7781513	4 2 3	-0.1139433
-0.30103	5 2 1	0.02915823
-1	<s> 2 1	-0.1779673
-0.5228788	<s> 2 2	-0.4137343
-1	<s> 2 3	-0.2304489
-1	<s> 2 5	-0.07918122
-0.60206	0 3 4	-0.1047353
-0.60206	0 3 5	-0.2498775
-0.7403627	1 3 2	0.544068
-1.041393	1 3 3	-0.2730013
-1.041393	1 3 4	-0.1890562
-1.041393	1 3 5	-0.1918855
-1.041393	1 3 6	-0.243038
-0.30103	12 3 12	0
-1.30103	2 3 1	-0.04575747
-1	2 3 2	0.544068
-0.8239087	2 3 3	0.0658173
-0.69897	2 3 4	0.07135585
-1.30103	2 3 5	-0.1918855
-1.30103	2 3 6	-0.243038
-1.30103	2 3 7	0
-0.3290587	3 3 2	0.1180993
-0.80618	3 3 3	0.3010301
-0.7269987	3 3 4	0.02020335
-1.20412	3 3 6	-0.1760913
-1.763428	4 3 0	0
-1.064458	4 3 1	0.05115256
-0.2863067	4 3 2	0.09177035
-0.5873367	4 3 3	-0.05115247
-1.462398	4 3 4	-0.07255065
-0.2108534	5 3 2	0.1461281
-0.6368221	5 3 3	-0.06888127
-0.60206	6 3 2	0.08333722
-0.60206	6 3 4	-0.1047353
-0.30103	7 3 5	-0.2498775
-0.30103	8 3 10	0
-0.845098	<s> 3 3	-0.02632892
-0.544068	<s> 3 4	-0.3651475
-0.845098	<s> 3 5	-0.2498775
-0.60206	1 4 3	-0.1710704
-0.60206	1 4 4	-0.128869
-0.30103	15 4 15	0
-0.39794	2 4 3	0.3540585
-1	2 4 5	-0.2284793
-0.69897	2 4 6	-0.2218487
-1.342423	3 4 12	0
-1.041393	3 4 2	-0.06694679
-0.4393327	3 4 4	-0.3152704
-0.6434527	3 4 5	-0.03218469
-1.342423	3 4 6	-0.2218487
-1.740363	4 4 0	0
-1.740363	4 4 11	0
-1.439333	4 4 2	-0.30103
-0.6264194	4 4 3	-0.2255766
-0.4850902	4 4 4	0.07357734
-1.263241	4 4 5	-0.03218466
-1.263241	4 4 6	-0.06694677
-1.138303	4 4 7	0
-1.740363	4 4 8	0.1760913
-1.070038	5 4 2	-0.09691003
-0.31037	5 4 3	0.08902621
-0.8269998	5 4 4	0.0457575
-0.8269998	5 4 5	0.07918122
-1.672098	5 4 8	0.1760913
-0.3679768	6 4 3	0.3832169
-0.447158	6 4 4	-0.2581873
-1.447158	6 4 5	-0.2082759
-1.447158	6 4 6	-0.2218487
-0.845098	<s> 4 2	-0.2218487
-0.544068	<s> 4 4	-0.09214622
-0.845098	<s> 4 5	-0.2284793
-0.39794	1 5 5	-0.2388821
-0.69897	1 5 6	-0.2218487
-0.30103	12 5 10	-0.2218487
-0.39794	2 5 5	-0.146128
-0.69897	2 5 6	-0.2218487
-0.9542425	3 5 3	0.1139434
-0.9542425	3 5 4	-0.2309921
-0.6532125	3 5 5	-0.20412
-0.9542425	3 5 6	-0.243038
-1.414973	4 5 1	0
-1.414973	4 5 11	0
-1.414973	4 5 3	-0.1870866
-0.7160034	4 5 4	0.541764
-0.8129134	4 5 5	-0.2130749
-0.9378521	4 5 6	-0.1512677
-1.113943	4 5 7	-0.2430381
-1.414973	4 5 9	-0.1760913
-1.477121	5 5 16	0
-1.477121	5 5 3	-0.1870866
-0.7781513	5 5 4	0.3656728
-0.7781513	5 5 5	-0.2498775
-0.8750613	5 5 6	-0.1338936
-1.176091	5 5 7	2.980232e-08
-1	5 5 8	0.1249387
-1.477121	5 5 9	-0.1760913
-1.371068	6 5 10	-0.1249387
-1.672098	6 5 2	0
-0.8269998	6 5 3	0.1597008
-0.3710679	6 5 4	0.1157953
-1.070038	6 5 5	-0.09497556
-1.194977	6 5 6	-0.1512677
-1.672098	6 5 7	-0.2632414
-1.672098	6 5 8	-0.09691
-1.361728	7 5 13	0
-1.361728	7 5 3	0.1139434
-0.3203351	7 5 4	0.003091037
-1.060698	7 5 5	-0.20412
-1.361728	7 5 6	-0.243038
-1.361728	7 5 7	-0.2632414
-1.041393	<s> 5 5	-0.2218487
-0.5642715	<s> 5 6	-0.09691
-0.7403627	<s> 5 7	-0.2430381
-1.041393	<s> 5 8	-0.09691
-0.30103	12 6 12	-0.2218487
-0.90309	3 6 10	-0.243038
-0.90309	3 6 7	-0.2167091
-0.90309	3 6 8	-0.2762064
-0.90309	3 6 9	-0.1413291
-0.7781513	4 6 5	-0.02687213
-1.079181	4 6 6	-0.2738777
-1.079181	4 6 7	-0.2167091
-1.079181	4 6 8	-0.2762064
-0.7781513	4 6 9	-0.3174204
-1.079181	5 6 10	0
-1.380211	5 6 4	-0.05799194
-0.7781513	5 6 5	-0.4582359
-0.90309	5 6 6	-0.1442439
-1.079181	5 6 7	-0.1845244
-0.7781513	5 6 8	-0.04575747
-1.380211	5 6 9	-0.1413291
-1.518514	6 6 12	-0.2218487
-1.518514	6 6 3	-0.1760913
-0.916454	6 6 4	0.3802112
-0.6734159	6 6 5	-0.04598838
-0.916454	6 6 6	-0.1047354
-0.916454	6 6 7	-0.09177041
-1.217484	6 6 8	-0.1249387
-1.217484	6 6 9	-0.2284793
-1.423246	7 6 10	-0.2730013
-1.724276	7 6 12	-0.2218487
-0.5201559	7 6 4	-0.05344433
-0.6103325	7 6 5	0.07440269
-0.9461246	7 6 6	-0.08354604
-1.247155	7 6 7	-0.2088838
-1.724276	7 6 8	-0.1918855
-1.247155	7 6 9	-0.4881167
-1.491362	8 6 3	-0.1760913
-1.01424	8 6 4	0.2710668
-0.449969	8 6 5	-0.07802457
-0.5882717	8 6 6	-0.30103
-1.491362	8 6 7	-0.2167091
-1.491362	8 6 8	-0.2762064
-0.6532125	<s> 6 5	-0.2624006
-0.4771213	<s> 6 6	-0.1442439
-0.9542425	<s> 6 8	-0.1918855
-0.30103	1 7 9	-0.20412
-0.30103	17 7 16	0
-0.30103	18 7 19	-0.1760913
-0.30103	19 7 19	-0.1760913
-0.30103	3 7 7	-0.2340832
-0.544068	4 7 6	-0.108233
-0.845098	4 7 8	-0.2108534
-0.845098	4 7 9	-0.20412
-1.079181	5 7 5	-0.2817248
-1.079181	5 7 6	-0.1788141
-0.3802112	5 7 7	0.09691
-1.079181	5 7 9	-0.2710668
-0.7533277	6 7 5	-0.3195134
-0.9294189	6 7 6	-0.2669502
-0.7533277	6 7 7	-0.1760913
-0.7533277	6 7 8	-0.1480626
-1.230449	6 7 9	-0.20412
-1.544068	7 7 10	0
-1.544068	7 7 11	-0.1760913
-1.544068	7 7 12	0
-0.9420081	7 7 5	0.03950852
-0.845098	7 7 6	-0.1488509
-0.544068	7 7 7	-0.1091444
-1.544068	7 7 8	-0.2730013
-0.9420081	7 7 9	0.09691
-0.7501225	8 7 5	-0.2025436
-0.2552725	8 7 6	-0.1678186
-1.051152	8 7 7	0.1638568
-1.653213	8 7 8	-0.2730013
-1.352183	8 7 9	-0.1249387
-1.322219	9 7 3	0
-1.322219	9 7 5	-0.2615214
-0.4771213	9 7 6	-0.05387533
-0.7201593	9 7 7	-0.02802876
-0.845098	9 7 8	-0.1480626
-0.9542425	<s> 7 11	-0.1760913
-0.4771213	<s> 7 6	-0.336422
-0.6532125	<s> 7 8	-0.4191293
-0.845098	10 8 6	0.01424044
-0.2808266	10 8 7	-0.01579428
-0.7201593	10 8 8	0.2340833
-0.30103	18 8 8	-0.04575747
-0.1760913	4 8 10	-0.1962946
-0.4259687	5 8 10	-0.154902
-0.90309	5 8 8	-0.2360892
-0.90309	5 8 9	-0.2575643
-1.255273	6 8 10	-0.2340832
-0.9542425	6 8 11	0
-1.255273	6 8 14	0.1760913
-1.255273	6 8 6	-0.2568263
-1.255273	6 8 7	0.05115253
-1.255273	6 8 8	-0.2360892
-0.6532125	6 8 9	-0.08715019
-1.20412	7 8 14	0.1760913
-1.20412	7 8 6	-0.1713961
-0.7269987	7 8 7	0.05115253
-0.60206	7 8 8	-0.1127043
-0.90309	7 8 9	-0.2092596
-1.079181	8 8 6	0.01424044
-0.6532125	8 8 7	0.04754835
-0.3521825	8 8 8	0.2552727
-0.8573325	8 8 9	0.01579428
-1.690196	9 8 10	-0.2340832
-1.690196	9 8 3	0
-0.4597472	9 8 6	0.1296339
-0.4597472	9 8 7	0.1549019
-0.9912261	9 8 8	0.2852358
-1.389166	9 8 9	-0.154902
-0.60206	<s> 8 10	-0.2688453
-0.60206	<s> 8 9	-0.2575643
-1.612784	10 9 1	0
-1.135663	10 9 10	-0.0184834
-1.612784	10 9 11	-0.2498775
-0.6127838	10 9 7	0
-0.4366926	10 9 8	-0.4153142
-0.9138138	10 9 9	-0.03342375
-1.161368	11 9 10	-0.1697511
-1.161368	11 9 11	-0.2218487
-1.161368	11 9 7	-0.1829307
-0.258278	11 9 8	0.03698367
-1.161368	11 9 9	-0.3344538
-0.30103	17 9 18	-0.1760913
-0.60206	19 9 18	-0.1760913
-0.60206	19 9 19	0
-0.60206	5 9 11	-0.2762064
-0.60206	5 9 12	-0.243038
-0.5118834	6 9 10	-0.2914847
-1.113943	6 9 12	-0.243038
-1.113943	6 9 13	-0.1760913
-0.6368221	6 9 9	-0.049218
-0.69897	7 9 10	-0.5190858
-1.176091	7 9 11	-0.2498775
-1.176091	7 9 13	-0.1760913
-0.8750613	7 9 8	-0.2920752
-0.69897	7 9 9	-0.1760913
-1.021189	8 9 10	-0.1153934
-0.7201593	8 9 11	-0.2266477
-1.021189	8 9 12	-0.1760913
-1.322219	8 9 16	0
-0.845098	8 9 8	-0.2236178
-0.845098	8 9 9	0.01772878
-0.9208187	9 9 10	-0.2666611
-1.09691	9 9 11	-0.1597008
-0.79588	9 9 7	0.1091444
-0.552842	9 9 8	0.05337399
-0.79588	9 9 9	-0.2253093
-0.30103	<s> 9 10	-0.2180558

\4-grams:
-0.1144733	0 0 0 0
-1.436693	0 0 0 1
-1.612784	0 0 0 2
-1.612784	0 0 0 3
-1.068716	0 0 0 </s>
-0.3424227	1 0 0 0
-1.342423	1 0 0 1
-0.4393327	1 0 0 </s>
-0.30103	2 0 0 </s>
-0.30103	3 0 0 0
-0.30103	4 0 0 0
-0.39794	<s> 0 0 0
-0.69897	<s> 0 0 1
-0.7403627	0 1 0 0
-1.041393	0 1 0 1
-0.5642715	0 1 0 2
-1.041393	0 1 0 </s>
-0.5228788	1 1 0 0
-1	1 1 0 1
-0.3467875	1 1 0 </s>
-0.6118198	2 1 0 0
-0.8750613	2 1 0 1
-1.653213	2 1 0 2
-0.2914847	2 1 0 </s>
-0.30103	3 1 0 1
-0.30103	<s> 1 0 1
-0.30103	3 2 0 0
-0.30103	4 3 0 0
-0.30103	4 4 0 0
-0.4259687	0 0 1 0
-0.90309	0 0 1 2
-0.90309	0 0 1 4
-0.69897	1 0 1 0
-0.69897	1 0 1 1
-0.8750613	1 0 1 2
-0.69897	1 0 1 3
-0.30103	<s> 0 1 0
-0.7781513	0 1 1 0
-0.7781513	0 1 1 2
-0.7781513	0 1 1 5
-0.7269987	1 1 1 0
-0.50515	1 1 1 1
-0.7269987	1 1 1 2
-1.20412	1 1 1 3
-0.3802112	2 1 1 0
-0.6812412	2 1 1 1
-1.380211	2 1 1 2
-1.380211	2 1 1 3
-1.079181	2 1 1 5
-0.30103	3 1 1 0
-0.7781513	3 1 1 1
-0.30103	<s> 1 1 1
-0.60206	0 2 1 0
-0.60206	0 2 1 2
-0.90309	1 2 1 0
-0.60206	1 2 1 1
-0.60206	1 2 1 2
-0.4259687	2 2 1 0
-0.3802112	2 2 1 1
-1.079181	2 2 1 2
-0.1863104	3 2 1 0
-0.9344984	3 2 1 1
-1.633469	3 2 1 3
-1.633469	3 2 1 4
-1.633469	3 2 1 7
-1.633469	3 2 1 </s>
-0.7781513	4 2 1 0
-0.7781513	4 2 1 1
-0.7781513	4 2 1 2
-0.30103	5 2 1 0
-0.30103	<s> 2 1 1
-0.30103	2 3 1 1
-0.90309	4 3 1 0
-0.4259687	4 3 1 1
-0.90309	4 3 1 2
-0.30103	4 5 1 14
-0.30103	10 9 1 10
-0.30103	9 1 10 10
-0.30103	1 10 10 11
-0.845098	10 10 10 10
-0.845098	10 10 10 11
-0.544068	10 10 10 9
-0.69897	11 10 10 10
-0.69897	11 10 10 12
-1	11 10 10 8
-1	11 10 10 9
-0.69897	12 10 10 10
-0.39794	12 10 10 9
-0.30103	3 10 10 8
-0.30103	5 10 10 14
-0.30103	6 10 10 11
-0.60206	8 10 10 8
-0.60206	8 10 10 9
-0.7781513	9 10 10 13
-0.7781513	9 10 10 8
-0.7781513	9 10 10 9
-1.113943	11 11 10 11
-1.113943	11 11 10 12
-0.8129134	11 11 10 8
-0.4149733	11 11 10 9
-0.6766936	12 11 10 10
-0.9777236	12 11 10 11
-1.278754	12 11 10 12
-1.278754	12 11 10 13
-0.8016323	12 11 10 8
-0.9777236	12 11 10 9
-1.230449	13 11 10 10
-0.9294189	13 11 10 11
-0.5314789	13 11 10 8
-0.5314789	13 11 10 9
-0.30103	5 11 10 15
-0.7781513	9 11 10 10
-0.7781513	9 11 10 11
-0.7781513	9 11 10 13
-0.30103	11 12 10 9
-0.90309	12 12 10 10
-0.90309	12 12 10 11
-0.90309	12 12 10 13
-0.90309	12 12 10 9
-1.146128	13 12 10 10
-0.6690068	13 12 10 8
-0.30103	13 12 10 9
-0.7781513	14 12 10 10
-0.7781513	14 12 10 13
-0.7781513	14 12 10 9
-0.30103	9 12 10 15
-0.30103	16 17 10 16
-0.30103	8 3 10 10
-0.30103	12 5 10 8
-0.60206	6 5 10 10
-0.60206	6 5 10 9
-0.30103	3 6 10 12
-0.60206	5 6 10 10
-0.60206	5 6 10 11
-0.1760913	7 6 10 11
-0.30103	7 7 10 12
-0.60206	4 8 10 10
-0.60206	4 8 10 16
-0.7781513	5 8 10 10
-0.7781513	5 8 10 14
-0.7781513	5 8 10 9
-0.30103	6 8 10 11
-0.30103	9 8 10 11
-0.30103	<s> 8 10 12
-0.7781513	10 9 10 12
-0.7781513	10 9 10 13
-0.7781513	10 9 10 9
-0.60206	11 9 10 10
-0.60206	11 9 10 9
-0.30103	6 9 10 12
-0.7781513	6 9 10 9
-0.1249387	7 9 10 11
-0.60206	8 9 10 12
-0.60206	8 9 10 13
-0.39794	9 9 10 10
-0.69897	9 9 10 13
-0.30103	<s> 9 10 11
-0.39794	10 10 11 11
-0.69897	10 10 11 13
-0.60206	11 10 11 11
-0.30103	11 10 11 9
-0.30103	12 10 11 11
-0.7781513	6 10 11 11
-0.7781513	6 10 11 12
-0.7781513	6 10 11 16
-0.60206	8 10 11 12
-0.60206	8 10 11 13
-0.845098	9 10 11 11
-0.544068	9 10 11 12
-0.845098	9 10 11 14
-0.8129134	10 11 11 10
-1.113943	10 11 11 11
-1.113943	10 11 11 13
-1.113943	10 11 11 14
-1.113943	10 11 11 17
-1.113943	10 11 11 9
-0.7781513	11 11 11 14
-0.30103	11 11 11 9
-0.4149733	12 11 11 10
-1.113943	12 11 11 11
-0.8129134	12 11 11 12
-1.113943	12 11 11 13
-0.544068	13 11 11 10
-0.845098	13 11 11 11
-0.845098	13 11 11 12
-0.30103	8 11 11 14
-0.60206	9 11 11 11
-0.60206	9 11 11 13
-0.1760913	10 12 11 10
-0.845098	11 12 11 10
-0.845098	11 12 11 12
-0.544068	11 12 11 9
-0.39794	12 12 11 11
-0.69897	12 12 11 16
-0.455932	13 12 11 10
-0.8239087	13 12 11 11
-1.30103	13 12 11 13
-0.60206	13 12 11 9
-0.6368221	14 12 11 10
-0.5118834	14 12 11 11
-0.6368221	14 12 11 9
-0.30103	7 12 11 12
-0.30103	10 13 11 10
-0.60206	11 13 11 13
-0.60206	11 13 11 9
-0.60206	12 13 11 11
-0.60206	12 13 11 13
-0.30103	13 13 11 10
-0.30103	14 13 11 10
-0.7269987	14 13 11 11
-0.90309	14 13 11 9
-0.1760913	15 13 11 10
-0.30103	16 13 11 10
-0.30103	17 13 11 9
-0.30103	15 14 11 9
-0.30103	17 17 11 16
-0.30103	4 4 11 15
-0.30103	4 5 11 10
-0.30103	7 7 11 12
-0.30103	<s> 7 11 14
-0.60206	6 8 11 11
-0.60206	6 8 11 14
-0.30103	10 9 11 12
-0.60206	11 9 11 11
-0.60206	11 9 11 9
-0.30103	5 9 11 19
-0.30103	7 9 11 12
-0.544068	8 9 11 10
-0.845098	8 9 11 13
-0.845098	8 9 11 15
-0.60206	9 9 11 10
-0.60206	9 9 11 11
-0.60206	10 10 12 12
-0.60206	10 10 12 14
-0.1760913	11 10 12 13
-0.30103	6 10 12 15
-0.30103	7 10 12 11
-0.30103	8 10 12 15
-0.90309	9 10 12 11
-0.60206	9 10 12 13
-0.60206	9 10 12 15
-0.544068	10 11 12 11
-0.845098	10 11 12 13
-0.845098	10 11 12 14
-0.39794	11 11 12 11
-0.69897	11 11 12 14
-0.60206	12 11 12 10
-0.60206	12 11 12 12
-0.30103	7 11 12 13
-0.1760913	9 11 12 13
-0.30103	<s> 11 12 12
-0.30103	10 12 12 11
-0.60206	11 12 12 10
-0.60206	11 12 12 16
-1.643453	12 12 12 10
-0.09938464	12 12 12 12
-1.643453	12 12 12 13
-1.643453	12 12 12 6
-1.643453	12 12 12 </s>
-0.9542425	13 12 12 10
-0.9542425	13 12 12 11
-0.9542425	13 12 12 14
-0.6532125	13 12 12 16
-0.845098	14 12 12 10
-0.544068	14 12 12 12
-0.845098	14 12 12 13
-0.30103	17 12 12 12
-0.30103	3 12 12 13
-0.30103	6 12 12 11
-0.60206	<s> 12 12 12
-0.60206	<s> 12 12 17
-0.1249387	10 13 12 11
-0.1760913	11 13 12 11
-0.90309	12 13 12 11
-0.4259687	12 13 12 12
-0.90309	12 13 12 14
-0.6690068	13 13 12 10
-0.6690068	13 13 12 11
-1.146128	13 13 12 12
-1.146128	13 13 12 13
-1.146128	13 13 12 15
-0.6283889	14 13 12 10
-0.4522977	14 13 12 11
-0.9294189	14 13 12 13
-1.230449	14 13 12 5
-0.243038	15 13 12 10
-0.845098	15 13 12 11
-0.30103	<s> 13 12 12
-0.30103	12 14 12 13
-0.60206	13 14 12 11
-0.60206	13 14 12 12
-0.845098	14 14 12 10
-0.544068	14 14 12 11
-0.845098	14 14 12 12
-0.7781513	15 14 12 10
-0.3802112	15 14 12 11
-0.7781513	15 14 12 12
-0.1760913	16 14 12 11
-0.30103	16 15 12 16
-0.30103	17 17 12 12
-0.30103	12 3 12 12
-0.30103	3 4 12 16
-0.30103	12 6 12 3
-0.30103	6 6 12 15
-0.30103	7 6 12 12
-0.30103	7 7 12 11
-0.30103	5 9 12 10
-0.30103	6 9 12 15
-0.60206	8 9 12 16
-0.60206	8 9 12 17
-0.30103	10 10 13 15
-0.60206	11 10 13 11
-0.60206	11 10 13 12
-0.1760913	12 10 13 12
-0.39794	9 10 13 15
-0.69897	9 10 13 16
-0.30103	<s> 10 13 15
-0.60206	10 11 13 11
-0.60206	10 11 13 14
-0.69897	11 11 13 13
-0.39794	11 11 13 15
-0.30103	12 11 13 14
-0.60206	13 11 13 12
-0.60206	13 11 13 14
-0.30103	9 11 13 12
-0.30103	<s> 11 13 11
-0.845098	10 12 13 12
-0.845098	10 12 13 13
-0.544068	10 12 13 15
-0.845098	11 12 13 11
-0.544068	11 12 13 12
-0.845098	11 12 13 17
-0.69897	12 12 13 12
-0.39794	12 12 13 13
-0.7781513	13 12 13 11
-0.7781513	13 12 13 12
-0.7781513	13 12 13 13
-0.30103	14 12 13 13
-0.30103	11 13 13 15
-0.60206	12 13 13 12
-0.60206	12 13 13 13
-0.90309	12 13 13 14
-0.4771213	13 13 13 12
-0.39794	13 13 13 13
-1.176091	13 13 13 14
-1.113943	14 13 13 11
-0.8129134	14 13 13 12
-0.6368221	14 13 13 13
-1.113943	14 13 13 15
-1.113943	14 13 13 17
-0.30103	15 13 13 13
-0.30103	<s> 13 13 14
-0.9542425	13 14 13 11
-0.9542425	13 14 13 12
-0.6532125	13 14 13 13
-0.9542425	13 14 13 14
-0.7781513	14 14 13 11
-0.3802112	14 14 13 12
-0.7781513	14 14 13 13
-0.559308	15 14 13 11
-0.6842467	15 14 13 12
-0.9852768	15 14 13 13
-0.763428	15 14 13 14
-1.161368	15 14 13 15
-0.39794	16 14 13 11
-0.69897	16 14 13 13
-0.60206	8 14 13 12
-0.60206	8 14 13 14
-0.30103	15 15 13 12
-0.845098	16 15 13 11
-0.544068	16 15 13 12
-1.146128	16 15 13 13
-1.146128	16 15 13 14
-1.146128	16 15 13 16
-0.30103	16 16 13 11
-0.30103	17 17 13 11
-0.30103	7 5 13 15
-0.30103	6 9 13 18
-0.30103	7 9 13 15
-0.30103	5 1 14 16
-0.30103	10 10 14 18
-0.30103	8 10 14 17
-0.30103	10 11 14 16
-0.69897	11 11 14 15
-0.39794	11 11 14 16
-0.30103	7 11 14 15
-0.30103	8 11 14 15
-0.30103	10 12 14 15
-0.1760913	11 12 14 14
-0.30103	12 12 14 14
-0.30103	13 12 14 12
-0.7781513	11 13 14 13
-0.7781513	11 13 14 15
-0.7781513	11 13 14 16
-0.7781513	13 13 14 13
-0.7781513	13 13 14 14
-0.7781513	13 13 14 15
-0.7403627	14 13 14 12
-0.5642715	14 13 14 13
-1.041393	14 13 14 14
-1.041393	14 13 14 15
-0.30103	15 13 14 16
-0.1249387	12 14 14 14
-0.1760913	13 14 14 14
-1.176091	14 14 14 12
-0.4771213	14 14 14 13
-0.8750613	14 14 14 14
-1.176091	14 14 14 15
-1.176091	14 14 14 17
-1.079181	15 14 14 12
-0.4771213	15 14 14 13
-0.7781513	15 14 14 14
-1.079181	15 14 14 17
-0.39794	16 14 14 12
-0.69897	16 14 14 14
-0.30103	11 15 14 15
-0.30103	12 15 14 13
-0.60206	13 15 14 13
-0.60206	13 15 14 16
-0.69897	14 15 14 12
-0.39794	14 15 14 13
-0.7781513	15 15 14 12
-0.5563025	15 15 14 13
-1.255273	15 15 14 14
-1.255273	15 15 14 15
-1.255273	15 15 14 16
-1.255273	15 15 14 17
-1.544068	16 15 14 11
-0.845098	16 15 14 12
-0.4301247	16 15 14 13
-0.845098	16 15 14 14
-1.243038	16 15 14 15
-1.544068	16 15 14 16
-1.544068	16 15 14 17
-0.4771213	17 15 14 13
-0.4771213	17 15 14 14
-0.30103	<s> 15 14 15
-0.69897	15 16 14 12
-0.39794	15 16 14 13
-0.7781513	16 16 14 12
-0.30103	16 16 14 14
-0.30103	17 16 14 13
-0.30103	6 8 14 13
-0.30103	7 8 14 13
-0.30103	11 10 15 15
-0.30103	12 10 15 16
-0.30103	4 11 15 14
-0.30103	9 11 15 17
-0.845098	10 12 15 16
-0.845098	10 12 15 17
-0.544068	10 12 15 18
-0.30103	13 12 15 17
-0.30103	6 12 15 18
-0.30103	9 12 15 14
-0.544068	10 13 15 16
-0.845098	10 13 15 17
-0.845098	10 13 15 18
-0.60206	11 13 15 15
-0.60206	11 13 15 16
-0.60206	12 13 15 15
-0.60206	12 13 15 17
-0.1760913	13 13 15 17
-0.60206	14 13 15 14
-0.60206	14 13 15 15
-0.30103	5 13 15 14
-0.30103	9 13 15 16
-0.39794	11 14 15 14
-0.69897	11 14 15 18
-0.30103	12 14 15 16
-0.7781513	13 14 15 15
-0.7781513	13 14 15 16
-0.7781513	13 14 15 17
-0.30103	14 14 15 16
-0.9542425	15 14 15 14
-0.6532125	15 14 15 15
-0.9542425	15 14 15 16
-0.9542425	15 14 15 17
-0.30103	10 15 15 14
-0.39794	13 15 15 15
-0.69897	13 15 15 16
-0.39794	14 15 15 15
-0.69897	14 15 15 17
-0.6690068	15 15 15 14
-0.845098	15 15 15 15
-0.544068	15 15 15 16
-1.146128	15 15 15 17
-1.146128	16 15 15 13
-0.3679768	16 15 15 14
-0.845098	16 15 15 15
-1.146128	16 15 15 16
-0.1760913	17 15 15 14
-0.30103	4 15 15 15
-0.30103	<s> 15 15 15
-0.30103	10 16 15 15
-0.30103	11 16 15 15
-0.60206	12 16 15 14
-0.60206	12 16 15 15
-0.30103	13 16 15 15
-0.30103	14 16 15 14
-0.60206	15 16 15 13
-0.30103	15 16 15 14
-0.60206	16 16 15 13
-0.455932	16 16 15 14
-1.30103	16 16 15 15
-1.30103	16 16 15 16
-1.30103	16 16 15 17
-1.579784	17 16 15 12
-1.278754	17 16 15 13
-0.4036923	17 16 15 14
-0.9777236	17 16 15 15
-0.7346855	17 16 15 16
-1.579784	17 16 15 17
-1.579784	17 16 15 4
-0.30103	7 16 15 15
-0.60206	16 17 15 14
-0.60206	16 17 15 15
-0.39794	17 17 15 14
-0.69897	17 17 15 15
-0.30103	18 17 15 14
-0.30103	15 4 15 15
-0.30103	17 10 16 15
-0.30103	8 10 16 17
-0.30103	10 11 16 17
-0.30103	12 11 16 16
-0.30103	17 11 16 15
-0.7781513	12 12 16 15
-0.7781513	12 12 16 17
-0.7781513	12 12 16 18
-0.30103	15 12 16 16
-0.30103	4 12 16 15
-0.30103	9 12 16 16
-0.30103	10 13 16 16
-0.30103	15 13 16 15
-0.30103	1 14 16 16
-0.69897	11 14 16 16
-0.39794	11 14 16 17
-0.60206	13 14 16 17
-0.60206	13 14 16 18
-0.69897	15 14 16 15
-0.39794	15 14 16 17
-0.30103	10 15 16 17
-0.30103	12 15 16 19
-0.90309	13 15 16 14
-0.90309	13 15 16 15
-0.90309	13 15 16 16
-0.90309	13 15 16 17
-0.845098	14 15 16 16
-0.544068	14 15 16 17
-0.845098	14 15 16 18
-1	15 15 16 15
-1	15 15 16 16
-1	15 15 16 17
-0.5228788	15 15 16 18
-0.7781513	16 15 16 14
-0.4771213	16 15 16 15
-1.079181	16 15 16 16
-1.079181	16 15 16 18
-0.30103	11 16 16 15
-0.60206	12 16 16 15
-0.60206	12 16 16 16
-0.30103	13 16 16 16
-0.1760913	14 16 16 15
-0.845098	15 16 16 14
-0.544068	15 16 16 15
-0.845098	15 16 16 17
-0.7403627	16 16 16 14
-0.4393327	16 16 16 15
-0.7403627	16 16 16 16
-1.30103	17 16 16 13
-1.30103	17 16 16 14
-0.60206	17 16 16 15
-0.69897	17 16 16 16
-0.69897	17 16 16 17
-0.30103	12 17 16 18
-0.845098	15 17 16 15
-0.544068	15 17 16 16
-0.845098	15 17 16 17
-0.5228788	16 17 16 15
-0.5228788	16 17 16 17
-1	16 17 16 18
-0.4057654	17 17 16 15
-0.4929155	17 17 16 16
-0.9700368	17 17 16 17
-1.447158	17 17 16 18
-1.380211	18 17 16 14
-0.1760913	18 17 16 15
-0.7781513	18 17 16 16
-0.30103	5 5 16 17
-0.30103	17 7 16 15
-0.30103	8 9 16 17
-0.30103	11 11 17 17
-0.30103	12 12 17 18
-0.30103	9 12 17 16
-0.30103	12 13 17 17
-0.30103	13 13 17 17
-0.30103	10 14 17 18
-0.1760913	14 14 17 17
-0.60206	15 14 17 17
-0.60206	15 14 17 18
-0.30103	11 15 17 16
-0.60206	12 15 17 17
-0.60206	12 15 17 18
-0.30103	13 15 17 18
-0.7781513	13 15 17 19
-0.60206	14 15 17 16
-0.60206	14 15 17 17
-0.60206	15 15 17 16
-0.60206	15 15 17 18
-0.60206	16 15 17 16
-0.60206	16 15 17 18
-0.30103	10 16 17 19
-0.30103	11 16 17 18
-0.30103	12 16 17 18
-0.4259687	14 16 17 16
-0.90309	14 16 17 17
-0.90309	14 16 17 18
-0.9542425	15 16 17 15
-0.6532125	15 16 17 16
-0.9542425	15 16 17 18
-0.9542425	15 16 17 7
-0.3679768	16 16 17 17
-0.544068	16 16 17 18
-1.079181	17 16 17 10
-1.079181	17 16 17 15
-0.7781513	17 16 17 16
-0.7781513	17 16 17 17
-1.079181	17 16 17 18
-0.30103	5 16 17 17
-0.30103	9 16 17 17
-0.30103	11 17 17 17
-0.60206	13 17 17 15
-0.60206	13 17 17 18
-0.39794	14 17 17 16
-0.69897	14 17 17 17
-0.1760913	15 17 17 16
-1.041393	16 17 17 11
-0.4393327	16 17 17 16
-0.5642715	16 17 17 17
-1.322219	17 17 17 15
-0.4191293	17 17 17 16
-0.4771213	17 17 17 17
-1.322219	17 17 17 18
-1.414973	18 17 17 12
-1.414973	18 17 17 13
-1.414973	18 17 17 15
-0.5118834	18 17 17 16
-0.7160034	18 17 17 17
-1.113943	18 17 17 18
-1.414973	18 17 17 9
-0.30103	15 18 17 18
-0.1249387	16 18 17 17
-0.4259687	17 18 17 16
-0.4259687	17 18 17 17
-1.477121	18 18 17 15
-0.2466723	18 18 17 16
-0.6320232	18 18 17 17
-1.477121	18 18 17 18
-0.90309	19 18 17 16
-0.20412	19 18 17 17
-0.30103	9 18 17 17
-0.30103	9 13 18 19
-0.30103	10 14 18 18
-0.69897	12 15 18 17
-0.39794	12 15 18 18
-0.30103	13 15 18 19
-0.30103	14 15 18 19
-0.30103	12 16 18 18
-0.30103	14 16 18 18
-0.60206	15 16 18 17
-0.60206	15 16 18 18
-0.90309	15 16 18 19
-0.69897	17 16 18 17
-0.39794	17 16 18 18
-0.30103	12 17 18 19
-0.60206	14 17 18 18
-0.60206	14 17 18 19
-0.4259687	15 17 18 18
-0.4259687	15 17 18 19
-0.6532125	16 17 18 17
-0.2552725	16 17 18 18
-0.4771213	17 17 18 17
-0.4771213	17 17 18 18
-0.1760913	18 17 18 17
-0.30103	14 18 18 19
-0.60206	15 18 18 18
-0.60206	15 18 18 19
-0.9542425	16 18 18 17
-0.4771213	16 18 18 18
-0.6532125	16 18 18 19
-0.845098	17 18 18 17
-0.243038	17 18 18 18
-1.146128	17 18 18 19
-0.60206	18 18 18 17
-0.4637573	18 18 18 18
-0.60206	18 18 18 19
-1.50515	18 18 18 7
-0.251812	19 18 18 17
-0.69897	19 18 18 18
-1.39794	19 18 18 19
-1.39794	19 18 18 8
-0.30103	9 18 18 17
-0.30103	17 19 18 19
-0.9542425	18 19 18 17
-0.1760913	18 19 18 18
-0.6232493	19 19 18 17
-0.1760913	19 19 18 18
-0.30103	7 19 18 18
-0.30103	17 9 18 17
-0.30103	19 9 18 18
-0.30103	9 11 19 19
-0.30103	15 16 19 19
-0.30103	15 17 19 19
-0.30103	16 17 19 18
-0.30103	13 18 19 18
-0.1760913	15 18 19 19
-0.30103	16 18 19 18
-0.07918125	17 18 19 19
-0.60206	18 18 19 18
-0.20412	18 18 19 19
-0.30103	19 18 19 18
-0.30103	11 19 19 19
-0.30103	16 19 19 19
-0.30103	17 19 19 19
-0.6766936	18 19 19 18
-0.1648103	18 19 19 19
-0.60206	19 19 19 18
-0.20412	19 19 19 19
-1.748188	19 19 19 7
-1.447158	19 19 19 9
-0.30103	7 19 19 19
-0.30103	9 19 19 18
-0.30103	18 7 19 18
-0.30103	19 7 19 19
-0.30103	19 9 19 19
-0.60206	0 0 2 1
-0.60206	0 0 2 4
-0.90309	1 0 2 1
-0.90309	1 0 2 2
-0.90309	1 0 2 3
-0.90309	1 0 2 4
-0.7781513	0 1 2 2
-0.7781513	0 1 2 3
-0.7781513	0 1 2 5
-0.4259687	1 1 2 1
-0.90309	1 1 2 2
-0.90309	1 1 2 4
-0.9542425	2 1 2 1
-0.6532125	2 1 2 2
-0.4771213	2 1 2 3
-0.30103	3 1 2 1
-0.30103	0 2 2 1
-0.544068	1 2 2 1
-0.845098	1 2 2 2
-0.845098	1 2 2 5
-0.5351132	2 2 2 1
-0.5351132	2 2 2 2
-1.079181	2 2 2 3
-1.079181	2 2 2 4
-1.380211	2 2 2 </s>
-0.4191293	3 2 2 1
-0.4771213	3 2 2 2
-1.322219	3 2 2 3
-1.322219	3 2 2 4
-0.30103	4 2 2 1
-0.7781513	4 2 2 2
-0.1249387	<s> 2 2 2
-0.60206	1 3 2 1
-0.60206	1 3 2 2
-0.60206	2 3 2 1
-0.60206	2 3 2 2
-0.3521825	3 3 2 1
-0.4771213	3 3 2 2
-1.255273	3 3 2 4
-1.531479	4 3 2 0
-0.2092596	4 3 2 1
-0.7533277	4 3 2 2
-1.230449	4 3 2 3
-0.30103	5 3 2 1
-0.5228788	5 3 2 2
-0.30103	6 3 2 1
-0.60206	3 4 2 1
-0.60206	3 4 2 3
-0.1760913	4 4 2 2
-0.4771213	5 4 2 1
-0.4771213	5 4 2 2
-0.30103	<s> 4 2 3
-0.30103	6 5 2 1
-0.60206	0 0 3 4
-0.60206	0 0 3 5
-0.7781513	0 1 3 2
-0.7781513	0 1 3 3
-0.7781513	0 1 3 6
-0.60206	1 1 3 2
-0.60206	1 1 3 5
-0.30103	2 1 3 4
-0.30103	6 12 3 12
-0.30103	0 2 3 7
-0.845098	1 2 3 1
-0.544068	1 2 3 2
-0.845098	1 2 3 4
-0.7781513	2 2 3 4
-0.7781513	2 2 3 5
-0.7781513	2 2 3 6
-0.60206	3 2 3 3
-0.60206	3 2 3 4
-0.60206	4 2 3 3
-0.60206	4 2 3 4
-0.30103	<s> 2 3 3
-0.30103	1 3 3 6
-0.69897	2 3 3 2
-0.39794	2 3 3 4
-0.90309	3 3 3 2
-0.60206	3 3 3 3
-0.60206	3 3 3 4
-0.2552725	4 3 3 2
-0.7781513	4 3 3 3
-0.9542425	4 3 3 4
-0.39794	5 3 3 2
-0.69897	5 3 3 6
-0.30103	<s> 3 3 2
-0.30103	1 4 3 3
-0.845098	2 4 3 2
-0.544068	2 4 3 3
-0.845098	2 4 3 4
-0.2730013	4 4 3 2
-0.4771213	4 4 3 3
-1.431364	5 4 3 0
-0.9542425	5 4 3 1
-0.3174204	5 4 3 2
-0.6532125	5 4 3 3
-0.90309	6 4 3 1
-0.30103	6 4 3 2
-1.20412	6 4 3 3
-1.20412	6 4 3 4
-0.30103	3 5 3 2
-0.30103	4 5 3 3
-0.30103	5 5 3 3
-0.1760913	6 5 3 2
-0.9542425	6 5 3 3
-0.30103	7 5 3 2
-0.30103	6 6 3 4
-0.30103	8 6 3 2
-0.30103	9 7 3 5
-0.30103	9 8 3 10
-0.30103	0 1 4 4
-0.30103	2 1 4 3
-0.30103	16 15 4 15
-0.60206	0 2 4 5
-0.60206	0 2 4 6
-0.30103	1 2 4 3
-0.39794	2 2 4 3
-0.69897	2 2 4 6
-0.30103	3 2 4 3
-0.30103	0 3 4 4
-0.30103	1 3 4 5
-0.544068	2 3 4 4
-0.845098	2 3 4 5
-0.845098	2 3 4 6
-0.6532125	3 3 4 2
-0.4771213	3 3 4 4
-0.9542425	3 3 4 5
-0.60206	4 3 4 12
-0.60206	4 3 4 4
-0.30103	6 3 4 4
-0.1760913	<s> 3 4 5
-0.30103	1 4 4 4
-1.041393	3 4 4 2
-0.3424227	3 4 4 4
-0.7403627	3 4 4 7
-1.39794	4 4 4 11
-1.39794	4 4 4 2
-0.6197888	4 4 4 3
-0.69897	4 4 4 4
-1.09691	4 4 4 6
-1.09691	4 4 4 7
-1.39794	4 4 4 8
-0.7403627	5 4 4 3
-0.7403627	5 4 4 4
-0.7403627	5 4 4 5
-1.041393	5 4 4 6
-1.113943	6 4 4 0
-0.4149733	6 4 4 3
-0.5118834	6 4 4 4
-0.60206	<s> 4 4 4
-0.60206	<s> 4 4 5
-0.30103	3 5 4 5
-0.9542425	4 5 4 2
-0.6532125	4 5 4 3
-0.9542425	4 5 4 4
-0.9542425	4 5 4 5
-0.6532125	5 5 4 3
-0.9542425	5 5 4 4
-0.9542425	5 5 4 5
-0.9542425	5 5 4 8
-0.90309	6 5 4 2
-0.3802112	6 5 4 3
-0.7781513	6 5 4 4
-0.90309	6 5 4 5
-0.1918855	7 5 4 3
-1.146128	7 5 4 4
-1.146128	7 5 4 5
-0.30103	5 6 4 3
-0.845098	6 6 4 3
-0.544068	6 6 4 4
-0.845098	6 6 4 6
-0.3756636	7 6 4 3
-0.4336556	7 6 4 4
-1.278754	7 6 4 5
-0.39794	8 6 4 3
-0.69897	8 6 4 4
-0.39794	1 1 5 5
-0.69897	1 1 5 6
-0.30103	13 12 5 10
-0.30103	1 2 5 6
-0.30103	2 2 5 5
-0.30103	<s> 2 5 5
-0.30103	0 3 5 6
-0.30103	1 3 5 5
-0.30103	2 3 5 5
-0.30103	7 3 5 3
-0.30103	<s> 3 5 4
-0.30103	2 4 5 5
-1	3 4 5 11
-1	3 4 5 4
-1	3 4 5 6
-1	3 4 5 7
-1	3 4 5 9
-0.7781513	4 4 5 4
-0.7781513	4 4 5 5
-0.7781513	4 4 5 6
-1.113943	5 4 5 1
-1.113943	5 4 5 3
-0.8129134	5 4 5 4
-1.113943	5 4 5 5
-1.113943	5 4 5 6
-1.113943	5 4 5 7
-0.30103	6 4 5 4
-0.30103	<s> 4 5 5
-0.60206	1 5 5 16
-0.60206	1 5 5 8
-0.60206	2 5 5 5
-0.60206	2 5 5 6
-0.60206	3 5 5 5
-0.60206	3 5 5 9
-0.544068	4 5 5 6
-0.845098	4 5 5 7
-0.845098	4 5 5 8
-0.4259687	5 5 5 4
-0.90309	5 5 5 7
-0.90309	5 5 5 8
-0.845098	6 5 5 4
-0.544068	6 5 5 5
-0.845098	6 5 5 6
-0.60206	7 5 5 3
-0.60206	7 5 5 4
-0.30103	<s> 5 5 5
-0.60206	4 6 5 10
-0.60206	4 6 5 4
-0.09691001	5 6 5 4
-0.5642715	6 6 5 4
-0.7403627	6 6 5 5
-1.041393	6 6 5 6
-1.041393	6 6 5 8
-1.255273	7 6 5 10
-0.9542425	7 6 5 3
-0.3521825	7 6 5 4
-1.255273	7 6 5 5
-1.255273	7 6 5 6
-1.176091	8 6 5 2
-0.4771213	8 6 5 3
-0.5740313	8 6 5 4
-1.176091	8 6 5 5
-0.60206	<s> 6 5 6
-0.60206	<s> 6 5 7
-0.30103	5 7 5 6
-0.1249387	6 7 5 4
-0.845098	7 7 5 13
-0.544068	7 7 5 4
-0.845098	7 7 5 5
-1.041393	8 7 5 3
-0.2632414	8 7 5 4
-1.041393	8 7 5 7
-0.30103	9 7 5 5
-0.30103	12 12 6 12
-0.30103	1 3 6 8
-0.30103	2 3 6 7
-0.60206	3 3 6 10
-0.60206	3 3 6 9
-0.60206	2 4 6 7
-0.60206	2 4 6 8
-0.30103	3 4 6 9
-0.7781513	4 4 6 5
-0.7781513	4 4 6 6
-0.7781513	4 4 6 9
-0.30103	6 4 6 5
-0.30103	1 5 6 5
-0.30103	2 5 6 5
-0.30103	3 5 6 6
-0.7781513	4 5 6 4
-0.7781513	4 5 6 5
-0.7781513	4 5 6 7
-0.845098	5 5 6 10
-0.845098	5 5 6 5
-0.544068	5 5 6 8
-0.7781513	6 5 6 10
-0.7781513	6 5 6 8
-0.7781513	6 5 6 9
-0.30103	7 5 6 6
-0.7781513	<s> 5 6 6
-0.7781513	<s> 5 6 7
-0.7781513	<s> 5 6 8
-0.30103	4 6 6 8
-0.7781513	5 6 6 3
-0.7781513	5 6 6 5
-0.7781513	5 6 6 9
-0.845098	6 6 6 4
-0.845098	6 6 6 5
-0.544068	6 6 6 7
-0.69897	7 6 6 5
-1	7 6 6 6
-0.69897	7 6 6 7
-1	7 6 6 9
-0.5642715	8 6 6 4
-0.7403627	8 6 6 5
-0.5642715	8 6 6 6
-0.7781513	<s> 6 6 12
-0.7781513	<s> 6 6 5
-0.7781513	<s> 6 6 8
-0.60206	4 7 6 4
-0.60206	4 7 6 9
-0.30103	5 7 6 5
-0.60206	6 7 6 8
-0.60206	6 7 6 9
-0.4259687	7 7 6 4
-0.90309	7 7 6 6
-0.90309	7 7 6 9
-1.176091	8 7 6 10
-0.6320232	8 7 6 4
-0.4357286	8 7 6 5
-1.176091	8 7 6 6
-1	8 7 6 7
-0.30103	9 7 6 4
-1	9 7 6 5
-1	9 7 6 6
-0.69897	<s> 7 6 12
-0.39794	<s> 7 6 6
-0.69897	10 8 6 5
-0.39794	10 8 6 6
-0.30103	6 8 6 4
-0.30103	7 8 6 6
-0.69897	8 8 6 5
-0.39794	8 8 6 6
-1.361728	9 8 6 3
-1.060698	9 8 6 4
-0.4074853	9 8 6 5
-0.8846066	9 8 6 6
-1.361728	9 8 6 7
-1.361728	9 8 6 8
-0.30103	2 1 7 9
-0.30103	16 17 7 16
-0.30103	18 18 7 19
-0.30103	19 19 7 19
-0.30103	2 3 7 7
-0.544068	4 4 7 6
-0.845098	4 4 7 8
-0.845098	4 4 7 9
-0.1760913	4 5 7 7
-0.60206	5 5 7 6
-0.60206	5 5 7 7
-0.30103	6 5 7 9
-0.30103	7 5 7 5
-0.1760913	<s> 5 7 7
-0.30103	3 6 7 7
-0.30103	4 6 7 8
-0.60206	5 6 7 8
-0.60206	5 6 7 9
-0.544068	6 6 7 6
-0.845098	6 6 7 7
-0.845098	6 6 7 8
-0.39794	7 6 7 5
-0.69897	7 6 7 7
-0.30103	8 6 7 5
-0.30103	3 7 7 6
-1	5 7 7 11
-1	5 7 7 12
-1	5 7 7 6
-1	5 7 7 7
-1	5 7 7 9
-0.69897	6 7 7 5
-0.39794	6 7 7 7
-1.176091	7 7 7 10
-1.176091	7 7 7 5
-0.4771213	7 7 7 7
-1.176091	7 7 7 8
-0.8750613	7 7 7 9
-0.90309	8 7 7 5
-0.90309	8 7 7 6
-0.90309	8 7 7 7
-0.90309	8 7 7 9
-0.845098	9 7 7 5
-0.544068	9 7 7 6
-0.845098	9 7 7 7
-0.6690068	10 8 7 5
-0.30103	10 8 7 6
-1.146128	10 8 7 9
-0.30103	6 8 7 6
-0.39794	7 8 7 6
-0.69897	7 8 7 7
-1.041393	8 8 7 5
-0.2632414	8 8 7 6
-1.041393	8 8 7 8
-0.7201593	9 8 7 5
-0.3679768	9 8 7 6
-0.845098	9 8 7 7
-1.322219	9 8 7 9
-1.146128	10 9 7 5
-0.3679768	10 9 7 6
-0.845098	10 9 7 7
-1.146128	10 9 7 8
-0.60206	11 9 7 3
-0.60206	11 9 7 7
-0.845098	9 9 7 6
-0.845098	9 9 7 7
-0.544068	9 9 7 8
-0.30103	10 10 8 7
-0.7781513	10 10 8 8
-0.6368221	11 10 8 6
-0.5118834	11 10 8 7
-0.6368221	11 10 8 8
-0.1249387	12 10 8 7
-0.30103	5 10 8 7
-0.30103	18 18 8 8
-0.30103	4 4 8 10
-0.30103	5 4 8 10
-0.7781513	5 5 8 10
-0.7781513	5 5 8 8
-0.7781513	5 5 8 9
-0.30103	6 5 8 10
-0.30103	<s> 5 8 10
-0.30103	3 6 8 7
-0.30103	4 6 8 8
-0.90309	5 6 8 10
-0.90309	5 6 8 11
-0.90309	5 6 8 14
-0.90309	5 6 8 9
-0.60206	6 6 8 11
-0.60206	6 6 8 9
-0.30103	7 6 8 9
-0.30103	8 6 8 6
-0.30103	<s> 6 8 9
-0.30103	4 7 8 7
-0.69897	6 7 8 7
-0.39794	6 7 8 8
-0.30103	7 7 8 6
-0.30103	8 7 8 14
-0.69897	9 7 8 7
-0.39794	9 7 8 8
-0.1760913	<s> 7 8 9
-0.845098	10 8 8 6
-0.845098	10 8 8 7
-0.544068	10 8 8 8
-0.30103	18 8 8 8
-0.30103	5 8 8 9
-0.30103	6 8 8 9
-0.845098	7 8 8 6
-0.544068	7 8 8 7
-0.845098	7 8 8 9
-1.30103	8 8 8 6
-0.69897	8 8 8 7
-0.30103	8 8 8 8
-1.30103	8 8 8 9
-0.90309	9 8 8 7
-0.4259687	9 8 8 8
-0.90309	9 8 8 9
-0.2762064	10 9 8 6
-0.4522977	10 9 8 7
-1.30103	11 9 8 3
-0.5228788	11 9 8 6
-0.60206	11 9 8 7
-0.69897	11 9 8 8
-0.1760913	7 9 8 7
-0.7781513	8 9 8 10
-0.7781513	8 9 8 8
-0.7781513	8 9 8 9
-0.69897	9 9 8 6
-0.39794	9 9 8 7
-1	9 9 8 9
-1	10 10 9 11
-0.30103	10 10 9 8
-1	10 10 9 9
-1.230449	11 10 9 1
-1.230449	11 10 9 10
-0.5314789	11 10 9 7
-0.7533277	11 10 9 8
-0.9294189	11 10 9 9
-0.6368221	12 10 9 7
-0.3357921	12 10 9 8
-1.113943	12 10 9 9
-0.30103	5 10 9 7
-0.30103	8 10 9 8
-0.7781513	9 10 9 10
-0.7781513	9 10 9 7
-0.7781513	9 10 9 9
-0.30103	<s> 10 9 10
-0.7781513	10 11 9 11
-0.30103	10 11 9 8
-0.7781513	11 11 9 10
-0.30103	11 11 9 8
-1.146128	12 11 9 10
-0.845098	12 11 9 7
-0.447158	12 11 9 8
-0.845098	12 11 9 9
-0.09691001	13 11 9 8
-0.30103	14 11 9 8
-0.30103	9 11 9 11
-0.30103	17 17 9 18
-0.60206	19 19 9 18
-0.60206	19 19 9 19
-0.30103	4 5 9 11
-0.30103	5 5 9 12
-0.30103	3 6 9 10
-0.1760913	4 6 9 10
-0.30103	5 6 9 10
-0.60206	6 6 9 12
-0.60206	6 6 9 13
-0.1249387	7 6 9 9
-0.30103	1 7 9 9
-0.30103	4 7 9 10
-0.30103	5 7 9 13
-0.30103	6 7 9 10
-0.90309	7 7 9 10
-0.90309	7 7 9 11
-0.90309	7 7 9 8
-0.90309	7 7 9 9
-0.60206	8 7 9 8
-0.60206	8 7 9 9
-0.30103	5 8 9 10
-0.544068	6 8 9 11
-0.845098	6 8 9 8
-0.845098	6 8 9 9
-0.60206	7 8 9 16
-0.60206	7 8 9 9
-0.9542425	8 8 9 11
-0.9542425	8 8 9 12
-0.6532125	8 8 9 8
-0.9542425	8 8 9 9
-0.60206	9 8 9 11
-0.60206	9 8 9 12
-0.30103	<s> 8 9 10
-0.9542425	10 9 9 10
-0.9542425	10 9 9 11
-0.9542425	10 9 9 7
-0.6532125	10 9 9 9
-0.1760913	11 9 9 8
-0.7781513	6 9 9 10
-0.7781513	6 9 9 7
-0.7781513	6 9 9 9
-0.69897	7 9 9 10
-0.39794	7 9 9 8
-0.7781513	8 9 9 11
-0.7781513	8 9 9 8
-0.7781513	8 9 9 9
-0.4771213	9 9 9 7
-0.4771213	9 9 9 8

\end\
